encog,BasicNetwork,java,3.2.0,1,1375786880420
[BASIC]
[BASIC:PARAMS]
[BASIC:NETWORK]
beginTraining=0
connectionLimit=0
contextTargetOffset=0,0,0
contextTargetSize=0,0,0
endTraining=2
hasContext=f
inputCount=354
layerCounts=2,355,355
layerFeedCounts=2,354,354
layerContextCount=0,0,0
layerIndex=0,2,357
output=0,0,0,0,0,0,0,0,0,0,0,0,0,0,0,0,0,0,0,0,0,0,0,0,0,0,0,0,0,0,0,0,0,0,0,0,0,0,0,0,0,0,0,0,0,0,0,0,0,0,0,0,0,0,0,0,0,0,0,0,0,0,0,0,0,0,0,0,0,0,0,0,0,0,0,0,0,0,0,0,0,0,0,0,0,0,0,0,0,0,0,0,0,0,0,0,0,0,0,0,0,0,0,0,0,0,0,0,0,0,0,0,0,0,0,0,0,0,0,0,0,0,0,0,0,0,0,0,0,0,0,0,0,0,0,0,0,0,0,0,0,0,0,0,0,0,0,0,0,0,0,0,0,0,0,0,0,0,0,0,0,0,0,0,0,0,0,0,0,0,0,0,0,0,0,0,0,0,0,0,0,0,0,0,0,0,0,0,0,0,0,0,0,0,0,0,0,0,0,0,0,0,0,0,0,0,0,0,0,0,0,0,0,0,0,0,0,0,0,0,0,0,0,0,0,0,0,0,0,0,0,0,0,0,0,0,0,0,0,0,0,0,0,0,0,0,0,0,0,0,0,0,0,0,0,0,0,0,0,0,0,0,0,0,0,0,0,0,0,0,0,0,0,0,0,0,0,0,0,0,0,0,0,0,0,0,0,0,0,0,0,0,0,0,0,0,0,0,0,0,0,0,0,0,0,0,0,0,0,0,0,0,0,0,0,0,0,0,0,0,0,0,0,0,0,0,0,0,0,0,0,0,0,0,0,0,0,0,0,0,0,0,0,0,0,0,0,0,0,0,0,0,0,0,0,0,1,0,0,0,0,0,0,0,0,0,0,0,0,0,0,0,0,0,0,0,0,0,0,0,0,0,0,0,0,0,0,0,0,0,0,0,0,0,0,0,0,0,0,0,0,0,0,0,0,0,0,0,0,0,0,0,0,0,0,0,0,0,0,0,0,0,0,0,0,0,0,0,0,0,0,0,0,0,0,0,0,0,0,0,0,0,0,0,0,0,0,0,0,0,0,0,0,0,0,0,0,0,0,0,0,0,0,0,0,0,0,0,0,0,0,0,0,0,0,0,0,0,0,0,0,0,0,0,0,0,0,0,0,0,0,0,0,0,0,0,0,0,0,0,0,0,0,0,0,0,0,0,0,0,0,0,0,0,0,0,0,0,0,0,0,0,0,0,0,0,0,0,0,0,0,0,0,0,0,0,0,0,0,0,0,0,0,0,0,0,0,0,0,0,0,0,0,0,0,0,0,0,0,0,0,0,0,0,0,0,0,0,0,0,0,0,0,0,0,0,0,0,0,0,0,0,0,0,0,0,0,0,0,0,0,0,0,0,0,0,0,0,0,0,0,0,0,0,0,0,0,0,0,0,0,0,0,0,0,0,0,0,0,0,0,0,0,0,0,0,0,0,0,0,0,0,0,0,0,0,0,0,0,0,0,0,0,0,0,0,0,0,0,0,0,0,0,0,0,0,0,0,0,0,0,0,0,0,0,0,0,0,0,0,0,0,0,0,0,0,0,0,0,0,0,0,0,0,0,0,0,0,0,0,0,0,0,0,0,0,0,0,0,0,0,0,0,0,0,0,0,0,0,0,0,1
outputCount=2
weightIndex=0,710,126380
weights=##0
##double#126380
   0.7812378023,0.3238436683,0.94544002,-0.1764882507,-0.4430288574,0.4047313066,-0.1953815505,0.3387825483,-0.7166437277,0.7407102517,-0.4713780981,-0.8119331426,-0.5000517327,0.4997176279,0.2876822794,0.1047273209,-0.8597870841,0.9746468512,0.4696103776,-0.2750179692,0.4135042893,0.1697033323,0.4485532598,-0.1173903213,0.1236523978,0.6939283277,0.1788355482,-0.8636534164,-0.7717024753,0.7701068519,-0.1368963806,-0.9792228184,0.3665480197,0.680936871,-0.6840904819,-0.3198926053,1.0236354494,0.0885402515,-0.2004585974,-0.3472931532,0.6837235028,0.5891158144,0.5779966872,0.2975562399,0.6856036972,-0.1521441854,-0.6005929233,0.1243068974,-0.0954185649,0.6743822728,-0.929029155,0.5194107928,-0.7587019849,0.3697765686,-0.2947576099,-0.0229055254,-0.1807814263,-0.448306431,-0.2609878045,0.5757839823,-0.1835101819,0.5674768826,-1.0492772128,0.3623947526,0.0004094933,-0.6574856688,-0.2950924624,-0.1831716798,-0.63928591,0.0882234103,0.7594626992,0.2237439309,0.3082802625,-0.4225120695,-0.170652249,1.0444031873,0.0834123098,-0.3423215999,-0.8257857866,-0.2747930964,-0.680722377,0.0303145717,-0.4894558592,0.2560844088,0.6048569532,-0.7266007172,-0.0702087826,-0.5962021012,0.0283731996,-0.5823768382,-0.0710565904,0.8774812596,-0.13385429,-0.3475514165,-0.2747647553,-0.3091135134,0.7856168175,0.1893067386,0.2006182984,-0.4181684918,-0.3260944012,-0.3787004933,-0.365892784,-0.4933262193,-0.7329820791,0.0180606349,-0.6516921269,0.0655436101,-0.8360629663,-0.5373015916,-0.4710661782,-0.2724502185,-0.100366368,0.7029497538,0.6312212642,-0.1171542776,0.7715738915,0.6733047317,0.5580844179,0.2983858932,0.058855168,0.5352767459,0.2281276878,-0.4250972417,-0.8716331976,0.0306035674,-0.6560467661,0.0374997572,0.45205643,-0.2212721487,0.5756810747,-0.2880139203,-0.3288689005,0.8178446215,0.40044304,0.7006495469,0.4368672128,-0.7749990902,0.4427691737,0.5705564051,0.1191004813,0.520006537,-0.4591595728,0.5087260157,-0.6866827728,0.6256596303,0.7174112432,-0.4797419987,0.9453390629,1.1895884244,-0.2786405141,0.876109868,-0.6094350731,0.1549798668,0.7951340556,-0.4731534027,0.0289929797,-0.8887054991,-0.0966583384,-0.0248267833,0.1515110821,0.9150448939,-0.1870645054,-0.3408101594,-0.380376286,0.5487194409,0.0657530565,-0.8216237215,-0.8231352892,0.5769496723,-0.1712706214,-0.371325032,0.1174434776,0.1553669512,0.5565729932,-0.1281047209,-0.7400334533,0.8640024158,-0.2680496302,-0.0325341375,-0.6615667454,0.2083475466,-0.0509141586,-0.0061807342,-0.3267593681,0.3575445789,0.7564275432,0.1314343856,0.745927443,-0.9820098714,-0.2846581272,0.3199546257,-0.7572753228,0.6077108428,-0.7690143399,-0.4371156522,0.2370669267,-0.4652210614,0.6678450995,-0.2878527332,0.130913456,-0.3840434401,0.3415105942,-0.8987134449,0.055905629,-0.6546498457,-0.4972976272,0.7579775383,-0.0168683931,0.2587947281,0.1182777858,-0.1922522311,-0.4040096365,0.185150948,0.188220887,0.2790777,0.014613441,0.2562815449,0.2269822157,-0.2514896258,0.5119193249,0.41231146,0.8012547564,-0.2407584626,0.3475485839,0.0315863033,-0.4959775171,0.7706792308,0.5328638906,-0.4433338488,-0.1332967561,-0.6105515263,-0.1009192104,-0.1114355614,-0.6507379443,0.0141675361,-0.5674371083,-0.3192855025,-0.4013508825,0.4102339051,0.840953078,0.833896795,0.0465383954,-0.0669756801,-0.4348648886,0.2211161949,-0.7197796873,-0.5723374814,0.2501922506,0.7688464525,0.7704607111,0.36724015,0.9111519689,-0.5685614646,-0.7914583329,0.7406198101,-0.1282435442,0.370288477,-0.567989785,-0.0436345063,-0.5984773133,0.0517880221,0.0179715816,-0.236186261,0.8920335588,-0.4626277307,-0.5110422782,0.2616210967,-0.3891981673,-0.6181210064,-0.4098298945,0.2955481082,-0.9236290048,0.2673641716,-0.4953550708,0.0953109678,0.6190693284,-0.1373704738,0.2667097566,-0.1266261118,0.5515589904,-0.8598016038,-0.2825964356,-0.4861889907,-0.5439423239,-0.5002047275,0.5816426977,-0.8952731595,0.5090808361,-0.3597066019,0.2224473157,-0.1310813606,-0.5757763219,-0.2006062895,0.0728600152,0.3096699978,0.104819498,-0.4508073215,0.170454839,0.6662920838,-0.3147322592,-0.2922212925,-0.0120147635,-0.0751231095,-0.0953628134,-0.1966108044,-0.2569378814,0.7912797044,-0.0031639443,1.0662952186,1.0499051411,-0.4706950563,-0.6385260122,0.6332711878,-0.0417782448,0.2491815302,0.387487906,-0.8433661422,0.3161083136,-0.2600257625,0.3546276697,-0.3551308015,0.2654324711,-0.8388250346,-0.030948948,0.5197088323,0.2751236959,0.6469727218,0.7070499773,-0.0844274109,-0.5593321617,0.8198144417,0.3302327873,-0.9539370644,0.4217581405,0.3658080218,-0.0185795592,0.0193161942,0.1147398487,0.939994424,0.9187442107,-0.595407914,-0.2241868661,0.6224235436,0.2678757627,-0.2239996974,-0.485628604,-0.1193146878,0.2205632543,-0.3179979321,0.0491058818,0.6372787199,-0.5222298288,-0.2272850557,-0.3115535906,0.2879951167,0.4118542544,0.5649643508,-0.1463103629,0.1934849881,0.4926889393,-0.4578386584,0.0641902072,-0.2340053242,-0.0288564994,0.3072695954,-0.5304955477,0.2432524098,0.0256290189,-0.1839893964,-0.9507293291,0.71731624,-0.265717205,-0.4274211624,0.3438180285,0.3624206831,0.7038592857,0.4253004675,-0.0229808355,-0.1236142796,-0.2312586552,-0.1284300693,0.7374505495,-0.7561053698,-0.4359306311,-0.1789060679,0.9115827845,-0.227441194,0.7624683039,0.37479546,0.3938172177,-0.4253409191,0.5197706749,-0.6150862141,-0.7622055536,0.019284728,-0.4458505629,-0.2567708729,-0.791994043,-0.3431442659,-0.4954856554,0.048542817,0.2412493553,-0.9004696968,-1.0545987513,0.6534159435,0.4573048893,0.2623573926,-0.8402486249,0.0481769205,0.4586006945,0.7312592236,0.4136515855,0.2523241728,0.0585828819,0.4225437472,0.5913188517,0.6507688939,0.0329572514,0.1675836093,0.7623838825,-0.3217309347,0.029038711,0.8045596575,0.3601312234,-0.3757790141,0.0919679529,0.4500554912,0.0657591208,-0.4971915373,-0.6306574467,-0.1459556785,0.2728011235,0.2029170143,0.3081825384,-0.2118416569,-0.6433963495,0.4736285377,-0.416056106,0.6048655364,0.4215227368,-0.4905354427,0.3548830063,0.1659958781,0.3034627052,0.3597899689,0.8369756469,0.0465730502,-0.2765656313,0.4512331904,0.2932578124,-0.7854093681,0.775350599,-0.1782176426,0.1974726449,-0.4057315011,0.0874545427,-0.2523106627,0.3493389455,0.9028909211,-0.2354346375,0.3630480801,-0.1794687215,0.6007902545,-0.1475641132,-0.2056704161,0.3950840954,-0.514716162,-0.4442207464,0.1774233612,-0.2652610899,0.3127638562,-0.0210110593,0.501693258,-0.0040241729,0.2736169997,-0.5064124472,0.6315209997,0.8593121867,0.5131279947,0.8257370224,0.8452601616,0.1240322327,-0.4207713745,-0.0994850956,-0.3130204504,0.3503789694,-0.0458581368,0.1387906584,-0.7275532574,0.7988401054,0.0010652576,-0.2364390011,-0.4363826695,-0.0018655041,0.3377118495,-0.6092085108,-0.3977022214,-0.7877877278,0.1600442698,-0.612778436,-0.1775078272,-0.1754181257,-0.7874989479,-0.4837488912,0.0475860927,-0.3193237226,-0.2485135818,0.3586070246,0.542726885,0.1199360963,0.1573192607,-0.0846774658,-0.1295483,-0.4880835168,0.3725384311,-0.2586068672,-0.0011304989,0.0854136974,-0.6481396005,0.133122169,-0.2056096399,0.2253259452,-0.2889106164,0.1314158452,-0.163006326,-0.3926457351,0.0843137082,0.5052737195,-0.3304363556,-0.339022115,0.4157294808,-0.8081028364,0.2169959462,-0.4048836512,-0.0082491049,0.1281711892,0.8860667202,-0.1034265803,0.8898034046,0.1629388605,-0.1751001161,-0.0847983777,0.0484297565,0.1641881904,0.2625662735,0.0214219407,0.2345875699,0.0219214046,-0.3636423696,-0.4765907134,0.3738898889,-0.436238269,0.3861853307,0.0022972292,0.1798327823,-0.6391919201,0.3808563363,-0.5585425901,-0.9339897193,-0.5742842367,0.4301346897,-0.2893624388,0.3770020896,0.5483369601,-0.1014167743,0.0982628363,0.4537483448,-0.032452378,-0.022442023,0.4856727718,-0.3054884748,-0.3774445233,0.8575125737,-0.0208125027,0.2951876492,-0.141991565,0.5584727933,-0.374042099,-0.0774544609,0.0203709709,-0.6680512755,0.3541604009,0.2523452148,0.0352149787,0.4380684277,-0.4323743463,0.3397608398,-0.0291597719,0.7397285661,0.1699199491,0.2968408287,0.3139302789,0.2270155373,0.6329861017,-0.442325046,-0.329483744,-0.0203113869,-0.5608199541,0.327881466,0.0578458398,0.6079163124,-0.7385887673,-0.5121375527,-0.2225345093,-0.616741113,-0.0526766333,-0.3939300401,-0.9111275749,0.030831656,0.2563862413,-0.392721938,0.4141259901,0.5512457792,0.1414407039,-0.8471454311,-0.3180116482,-0.0423111265,-0.6628141505,-0.4554636899,-0.4059470279,-0.2936340797,-0.0722437628,-0.0772561572,-0.7413856564,0.3057640048,-0.3792186872,-0.7728727724,-0.0405820547,0.414687327,0.6877930086,-0.6814103385,0.5694144141,-0.0524369007,-0.6639292367,-0.3557177544,-0.6534415762,-0.6624291886,0.8256610535,-0.7776997435,0.0271534808,0.1567165732,0.9331138022,-0.629896139,-0.1131602359,-0.3084867468,-0.3805843143,0.3615669728,0.1540540107,0.1647878523,0.3301061163,-0.8019191075,0.3828164795,0.5666533326,-0.4010463189,0.3592249032,-0.7848426602,0.1208517697,-0.1826927216,0.2075459983,-0.1173244631,0.3186186423,-0.1285275707,-0.258829747,-0.6712766079,-0.0303205782,-0.6396954766,0.3133283853,-0.9801297586,-0.4857181197,-0.1937414736,0.2975006388,0.1819478668,-0.2307466938,0.2078073625,-0.0135373915,0.190528307,-0.5344938765,-0.6648670937,0.8563910012,-0.7336115716,0.0508435357,-0.5445657743,0.0628578529,-0.3826069608,-0.0737428015,-0.7102720783,0.8580114982,-0.7719196904,-0.259412452,-0.0717181415,0.2559538573,0.075272603,0.4611102562,-0.4593157114,0.3774673671,0.6372522977,0.0948716928,-0.1278344904,0.0132334664,-0.0223546328,0.2716569535,-0.6299597137,0.0974418615,-0.0374424906,0.088578828,0.4700796799,-0.2302469599,-0.3457197275,0.6437960242,0.3935943999,3.9211250255,4.580436138,0.4431401974,0.5875240812,-0.4868426834,0.5226390463,0.5118679747,1.3209026251,4.1477119806,0.5702849699,0.498447131,-0.8127402323,1.2291027157,0.2108663191,4.794037757,-1.9977852158,0.9909767763,-0.23326859,-1.3040681508,0.4255273788,-5.0707256919,-0.2472248285,0.036954626,0.3158582978,0.0974491841,2.2052964521,0.2054713221,-0.7311928116,-0.8847195315,-0.7771888501,-1.9013012222,1.4930083939,-0.1478308592,-1.4740656472,-0.3933252103,-0.9006141308,-1.6742789991,1.5086252346,-1.2220564447,-14.0670949068,-0.9466231785,-0.440065795,-0.0615775333,0.0370849561,-0.1717872561,0.6857999305,-0.7398147011,-0.9547837074,-2.2489382197,-5.1188869599,0.7175689336,-0.9434089709,1.1804467569,-0.6525749317,-0.9531930487,13.2964550812,-0.4203089849,-0.6399082912,0.4550642254,-0.0073674426,5.5562874963,-1.0303909823,0.6770689358,10.9995007704,0.0337922827,-0.8630919619,-10.3266628092,-8.1390841098,-0.9067312984,-9.2961020944,-0.2344737715,-0.8676419179,-2.0360693552,13.4948368566,96.3468917537,3.0137536976,-0.3384584972,0.4193384674,0.8801110869,-0.9684380921,0.7580951306,0.4866823627,0.5563549739,0.9010879667,0.2664971806,1.0640094469,1.099583851,0.3179365763,0.5748299747,-0.5429659871,-0.1731208072,0.9884319854,0.9834993468,0.6081315826,0.7738454407,-0.2489797616,-0.2697724915,0.2036921045,0.8683362237,-0.0873659908,1.0261294027,-0.0092941125,-0.4389238509,2.4739295605,0.9788767612,2.0427503925,0.4931623768,-0.2056128935,4.2206389655,-0.6214378025,0.2922215742,0.8343667474,0.6986863734,0.821490108,-0.0329349936,-0.1680833892,-0.4282029399,0.1032506381,-0.2218412426,-0.6770137916,1.2512413292,-0.5629227305,0.5165912359,6.627497593,0.6250223025,0.2679787453,-0.8065367503,0.6636136171,-0.8258988827,0.481867347,-0.3311590206,0.2027118623,0.5546196158,0.053231203,-0.9062064397,0.4564258689,-0.0477717885,-0.5017488239,-0.8771221413,-0.42874572,-6.8765986727,-0.2807183611,-0.1920493928,0.1430863149,0.1533878956,0.9981988989,-0.8517984362,0.56249042,0.1900832558,0.7369053317,-0.6629606625,-2.0237553626,-0.9190531242,-0.2640303039,0.3094507501,-0.1582090066,-0.3870735216,-1.0685228413,-0.6124676579,-0.1926034287,-0.0669979949,0.3470889468,-0.4548378941,3.2747595876,-3.8294016969,-7.4582477772,-0.6340885504,1.0041977549,-5.9668214789,-5.4092942918,-8.2039767527,-2.052172026,0.726983218,0.7875308124,-0.6940496138,-3.5377566376,-0.0174364484,0.9312691417,0.7392434473,-0.7620998653,1.0101372261,-0.5485547604,-0.4895591158,0.4542259888,-0.9823283995,-0.5554279773,1.0248292108,-0.2988275602,0.5433446021,-0.0504578038,0.025220176,-0.1777553999,-3.7155310171,0.109125639,0.2300031345,-0.7159506299,0.413143136,0.3391972285,0.7944282133,0.8698889554,-2.8571356644,-0.2986252732,0.8191200414,0.3528617963,1.0312494948,-0.320100693,2.0340331424,0.5669550323,-0.7640347674,0.7090658833,0.6471984063,0.3676645047,0.6873317063,2.5423965628,-0.6300294653,0.2611977987,2.6744057691,0.4222701156,1.2098491455,0.3683621981,0.3409545311,0.4655434963,0.2416368108,0.0416952258,-0.3068770303,0.1676137489,0.1047505718,-0.7909546378,-0.0088009635,0.4238695285,1.316667328,-0.7706931434,0.2473313627,0.5257328813,-1.0336695932,0.5409303522,0.0797292858,1.3535307677,-0.1002607517,0.3580751725,0.7536768261,-0.1359064296,-0.1123532817,-0.7208561286,-0.5193861219,0.0195054065,-0.2604250433,-1.0144037599,0.9877935816,-1.080698864,0.4706207253,0.5143670932,-0.3576315975,-0.306746997,-1.0193924037,0.8770924347,0.9064130901,0.3715322454,0.1956077459,-0.6868996815,-0.3071483847,-1.3473241772,-0.6325028532,-0.8520585815,-1.3134654073,-2.5953994394,0.2867786619,-1.540182956,-0.5103093034,0.2583156254,-2.5953602437,-10.5020742661,-4.4432105905,-0.8388514536,-0.5542276588,0.2872901231,0.4558224062,1.0886523804,-25.2278768226,-0.6263460231,0.801680691,-0.559779921,-0.0196112288,-0.0144228626,-4.9935496119,-4.9398340169,-0.5587779801,-0.7110918904,-6.5691500232,-0.3454082528,-2.3546419178,-1.0987589714,0.8515119936,-0.5314963063,-1.7974538739,0.8881875877,-0.8199244177,6.356121236,0.1325429712,0.4818244622,7.2620099108,-0.5976351971,5.9424176578,2.6237706744,-0.0381872563,-0.732650639,0.2681788776,0.9399640737,0.6349104606,0.134292723,0.2445939293,-0.3128663072,0.5551705471,-0.1418820892,-0.6968119092,-0.3007031971,-0.0315490889,-0.4091039722,-0.262218891,-0.8765046629,-0.585013267,-0.11640145,-0.3346097491,-0.3874730052,0.2319934366,0.9086446268,0.4404109845,-0.1451022544,0.5127607955,0.3552699451,-0.5916377813,-0.9512774604,0.9243036434,-0.73062952,-0.3246515937,0.1218234904,-0.8289696876,-0.1744081874,0.5950963329,0.8983850153,-0.3088041286,0.8456159187,-0.7115827822,-0.8737024138,-0.1151180456,-0.73699508,0.8086865488,-0.6204985188,-0.6255980957,-0.4653982049,-0.5457596466,-0.1789808602,0.1969514823,0.7981285592,0.6873772004,-1.1999100642,-16.6193125387,-0.0384506053,6.5488108463,0.4470045136,-0.7276418483,-0.4879706227,-2.3155472512,-1.5719379256,1.5250964275,-0.2567776438,-0.1747655377,3.8564409619,7.0558899529,4.6558921836,-1.4544112846,-0.8386464502,-1.0154283284,0.2941696771,-0.7103007038,5.4997220084,-1.0278896413,0.6522096616,-1.0056951115,-0.5350503202,0.3587336595,4.0115511026,-0.2630832648,0.4720873008,0.0954624217,4.3829757458,-1.0912472015,0.0098969852,-4.0352940468,-0.248948107,-0.7481262119,-2.8537613743,15.9478364408,2.2858084974,0.4000749213,0.1150761806,0.7411120972,-5.3031129987,4.5442409638,1.006343665,-0.8330836055,-0.5481993005,-0.3580791944,3.6268586709,-10.6957669065,-0.9750488514,-3.4050763188,-0.7763790011,0.7493748544,-1.6459412168,-3.2565592438,-7.2319725309,-5.7612588418,0.7413222031,0.9490261721,4.6043432363,-16.4628704825,5.1303527626,1.3813875431,-0.8265065636,0.5812835609,0.7173566544,-4.8404395446,-6.6473782798,3.6247783668,-0.9618557897,0.8272769535,-8.7333532003,69.4349240213,13.4759062971,40.5723477658,-0.9526850015,-0.352543955,8.7776604319,-0.2348712889,1.5709256407,0.8366261066,0.160394701,0.3041733027,0.5576325939,0.9324567935,-0.4468875357,0.9413809343,-0.770478643,-0.0004986536,-0.8218743309,-0.1309461809,-0.678288131,0.5376261607,-0.0746869146,-0.3404652917,0.2561761273,0.0329006598,0.5751367684,0.0378295497,0.1519245211,-0.6035740351,-0.2731505365,0.247400834,0.7488927298,0.1522397077,-0.0854844844,-0.320593755,0.4867007305,-0.2688596863,0.6986474777,0.1229906715,0.6142867244,-0.2539598879,-1.0728704857,-0.6904173733,-0.9067760016,1.2013930246,0.9907334255,0.284964823,0.5887459556,0.4580069211,1.1610107359,5.2619451378,0.6223759255,0.92136396,2.3251506556,0.1374575319,-0.1309765887,1.0553879876,0.0334346728,0.5364254386,0.2398210401,0.121613457,1.1697778976,0.7959231939,-0.5663108246,-0.0479661089,-0.3469575185,0.3857400871,0.8212421603,-0.4748617008,0.42206649,0.011947424,-0.6069104673,0.1586562959,-0.2332623058,0.8212856841,0.1107489636,-0.40929125,0.8174428435,-0.741188611,-0.6236530155,-0.2553942105,-0.5779878044,-0.4384593026,-0.7096073973,0.1093571922,-0.9126614152,0.1497533788,0.7540587797,0.2544760917,-0.5203797347,0.7440829308,-20.7610911999,-3.6910641335,-0.573089497,-0.5640279868,-2.7399344528,-13.320925441,-5.4571102943,-0.3649789454,0.8782090937,-0.6587415686,-0.6528150597,-3.2615255239,-0.4667828361,-0.003290929,-0.6410503236,0.7906712117,-0.9920765095,-0.1599147329,-4.7264383812,-4.3060645854,-0.4652390926,-0.0787805032,-4.7421833505,-2.9235318599,-5.2775972315,-1.8968632629,0.2146318061,0.5646374681,-2.1542065959,0.5032534054,0.7559427753,0.6801643259,0.9361662108,0.8031704752,0.0180748139,0.2919294637,-0.1657872485,0.5499525132,0.0633282199,-0.2656544552,-1.3530618067,-0.4398999676,2.1185053313,0.5606578097,0.7316470064,-0.0240237352,0.2461233056,-0.7638475408,1.249064001,-0.5387044176,0.3667875147,0.9426520402,0.5184985759,1.7987430141,1.0530337098,2.155384492,1.0824855248,-0.5750382741,2.0719671519,0.2497624412,1.0318509945,0.6269350797,0.1486925435,-0.497298363,0.3116282538,0.0400796302,1.9872153517,0.8235127487,0.7394480272,-0.6766820712,0.9059381809,1.4029402568,0.4073197359,2.6393951907,1.0357182797,-0.2231666439,3.5929973575,-0.2764146837,-1.0963812318,0.9098978478,-0.166634257,-0.4014915948,0.2373295047,0.5216764702,-1.4450301762,-0.3126225151,-0.1398673164,0.930486803,-0.9309836949,0.8306864059,-1.2661095234,-0.6635469694,0.407169354,0.8736753976,-0.3658165804,0.4521590887,0.9021018727,-11.0401160068,0.5032773419,0.0611084186,-9.9877242576,-17.4020644078,-0.269825391,-1.3124507459,-0.5907609552,0.7840461088,-1.9660453203,-1.4895170083,-20.4864399438,0.2625433364,-0.1385577962,0.7020577313,-0.8341796213,21.1749903804,-13.696620934,0.1644872618,0.2445195246,-0.3316610467,-0.5378136829,-0.3500758206,-9.8242470307,-14.4095676033,-0.3972439429,0.7015136042,-13.7165103158,-29.5735714174,-3.4820672938,-5.8154986074,-0.5361256807,-0.3648301934,-17.4207149017,-2.7158086053,0.8145125141,4.7647583818,0.8761863434,-0.5236195133,5.0417239463,-0.576170939,2.6600689941,2.4078704444,-0.2102841108,-0.9955417453,0.0724029934,0.6013138092,0.9144207749,-0.7929950633,-0.3418754945,0.6411946648,0.3412595539,0.8929552435,0.7399349575,-0.8138463744,-0.386584733,0.1238338452,-0.367192102,-0.2633685305,-0.3664762008,-0.4570629683,0.1385228026,0.0120305091,0.175644446,-0.0732911501,-0.4279325812,0.412347325,0.1013870544,0.5600423356,-0.8177762725,0.6086182491,-0.5808924924,-0.2207517366,-0.6547412261,-1.0145932729,-0.4338223407,-0.3219947148,0.7166666825,0.193267417,-0.2588610606,-0.3346480553,0.1748594882,-0.8707850645,-0.1170323642,0.1336554278,-1.012067581,-0.7078073876,0.442288991,0.2365570468,-0.651659233,-0.4334541097,-0.6844273139,0.5189596032,0.6957097432,-2.3382544726,-0.0049426445,12.9881765448,0.1471433255,0.9559488499,0.8453360076,1.1192255028,-1.5526294588,4.6589549521,0.4279007016,0.6757104567,-0.0035128328,0.3660994516,-2.8291526373,4.1308776196,-2.1965903442,0.2241113063,0.8170161012,-0.696879484,0.305843614,-0.3083563844,-0.3192055329,0.9495860385,-0.0204101647,-1.7430604008,2.7165994514,-0.5227936714,1.4118105436,-0.6182233935,0.7970655213,-2.5807944704,-2.7385460036,0.4427030494,-2.3433150104,-0.5050390943,-0.7378367145,-6.5128388585,0.8167400084,-2.3872456078,0.4517945371,-0.6249209413,0.3976859586,0.6185962405,-0.5214546385,2.2070660097,-0.1526261378,-0.3394494251,-0.6764643264,-4.7378901108,-2.3891376457,0.55402141,-1.1982967897,-0.0414639949,0.9467773463,0.4984288442,-4.8602378611,0.9492586388,-6.7374080207,0.0548788818,-0.3190009776,1.3304427824,-2.7111208374,2.2677343101,-0.7355797866,0.1404092641,0.1012191088,11.5796241562,-5.8897658604,-20.6037647988,-1.9984187236,-0.721098925,0.9405904717,-3.0348739223,5.5564024468,24.6577490475,8.6629391959,-0.9434051511,0.335151414,0.7309709759,-3.7684099461,2.693007366,-0.7294249894,0.7621973459,-0.277126472,0.0861342379,-0.4641408004,0.3995404559,0.5226432534,-0.8828799003,-0.6967435793,-0.5547704659,-0.4071474125,-0.2153819217,0.8518044536,-0.0656700508,-0.5362806838,-0.027682869,-0.8086197437,-0.8485220504,0.2133289199,-0.9297983535,0.0790395313,-0.035880457,2.1139428512,0.8143915842,1.5268534788,-0.8173765479,-0.9099121725,1.395638922,0.041173547,0.7881623886,0.3113051373,-0.9275990694,-0.7318893612,-0.6399863995,-0.0439592576,-0.0178776376,1.1643842972,0.8442847102,-0.429190829,-3.8912368654,0.6326936164,1.3402034203,1.7099923691,0.8949949269,0.9964653801,0.9657205323,0.6725266423,-0.3923475234,-0.1771721118,-0.3768276878,0.3423648221,0.7009528757,0.7980790836,-0.0130730873,-0.0903544009,-0.0333034189,0.7737663823,-0.9572335938,-0.8618240943,-7.2399865667,0.4313427527,0.9738200522,-0.3903311264,-0.5531382545,-0.3428892184,0.8240728944,-0.3908114434,-0.1487266227,-0.768375484,-0.3263422514,-3.2548430464,0.9864231484,-0.4478102633,-0.8428612842,0.5218492864,0.0610855289,0.8009959141,-1.0740796468,-0.6358444281,0.4058204477,-0.2631198555,0.3402563548,6.9717260843,-2.1556735212,-25.6017853281,-0.7540797626,-0.7769708631,-17.1460129787,-4.9204825587,-3.0245672634,-2.1538740483,-0.2682600749,-0.120115628,0.0621669297,0.2772636165,0.3778038271,-0.4770066422,0.718036009,0.778107871,0.000448707,-0.9536283903,-1.5957598145,0.0017640446,-0.4459756469,0.8377802956,1.5696307703,0.6664134968,-0.8659495898,-0.2916000403,-0.1471517301,0.9735425494,-0.928067825,-2.1711720598,-0.7969240043,-0.5780635861,-0.3449209827,0.612784254,-0.0836564805,-0.9337835092,-0.3645164736,-0.3035189697,0.7848254976,-0.0068708989,-0.0939157714,0.8919940329,1.6290837423,-0.0539302335,0.9399946194,-0.8545329214,1.1429476236,0.8494991152,2.657697437,-0.108143384,-0.1882178443,-0.0312164272,0.8409092804,-0.0516666986,2.5802449965,0.9137210235,0.8294625826,-0.6969646566,1.5654576195,0.5845094587,0.9702394956,0.9214661326,-0.4630743173,0.4063233776,-0.4075926209,-0.1199295146,4.9226541146,-0.4337792292,0.9563735485,-0.2573873862,0.8794935554,0.9698244114,-0.9252273907,1.294030452,-0.7960138426,-0.5137514543,1.1697944837,0.8995553981,-0.18656712,0.8102008081,0.5232164893,-0.3504793025,0.9568301067,-0.4869860957,0.6368861388,-2.764163793,-0.5204507081,-0.7604770248,-0.9662906131,-0.6067449729,-0.4366102389,0.6946057383,0.559527463,-0.6494391054,0.763496874,0.6337771883,0.4802002586,-0.2032662022,-0.0768101117,0.5983556813,-1.3038815844,-4.2347509967,0.5485356893,-1.0277337455,-0.1634841347,0.8022952477,-1.3897238854,-6.6126974857,-4.7044150811,0.205726742,0.462726759,0.3219820453,0.6875119138,0.5681022244,-13.6913660257,0.6877348415,0.6435382187,-0.0456722095,-0.3359073309,-0.404686171,-7.5689867441,-1.4536915269,-0.054794539,-0.2025549333,-1.3267829435,-1.0507645322,-3.2601095841,-1.0769787571,0.907315312,0.9875858005,-2.9662910122,-2.1216066577,-0.6308257979,9.901293505,-0.3110283853,-0.2846233878,9.291580195,-0.3242895615,10.4322693819,1.2187890673,-0.741152436,0.4276010456,0.04855623,0.3914132045,1.545654497,0.0916448483,0.567602943,0.6207786656,-0.7070814117,0.4532153617,0.0565592907,-0.6686310332,0.9222563428,-0.867208963,0.0209852383,-0.0760366516,0.7159635608,-0.250793764,0.7791427562,-0.6611954231,0.9625190941,-0.3416378625,0.0288214511,0.4296916431,0.5140524638,0.1577402787,-0.3116960438,-0.7181651925,0.1979489099,-0.3300036966,0.7598232382,-0.7244596851,-0.1261817161,-0.1410372472,-0.089854952,0.0966564012,-0.275729565,0.4914815152,0.0840252317,-0.3923329558,-0.9237636372,-0.7540024237,0.7630308808,0.593785715,-0.7448357723,0.4679140696,0.3720544205,0.3696968659,0.3716243986,0.6707769843,0.6283225338,-1.1749714234,-2.2740948207,-4.943882953,3.4166640871,0.2881281037,0.3894314705,0.0049808901,2.7814340096,-0.4059293041,-2.014325922,-0.1622907031,0.5041471976,-0.85495578,0.6594211873,-1.4705930433,2.1590717091,0.2584734661,-0.1077872241,-0.1471006011,-0.1462418401,-0.1212177763,-0.6216721787,-0.2852871115,-0.872980357,0.9764586678,-1.1184344095,-0.1764764116,-0.7857053907,-0.7023729756,0.8790890589,0.5774156374,-0.3437226294,0.5659559769,0.9058258817,0.3028737201,0.427912924,-0.6512599295,0.0480612883,1.2982319974,0.5066252796,-0.0984062464,-0.9765960228,-1.2075012256,-0.643390188,0.5086059544,1.0390752653,-0.5896037146,0.3782053659,0.8973774621,0.6116372753,-1.2125914246,-0.5939585207,0.3831101109,0.0721095888,-0.0316519895,0.621284872,3.1514440284,0.1409326485,-0.6333184731,-0.8501631812,-0.4011284973,3.7955471616,-1.5951991312,0.6576259116,-0.785763656,0.6934225983,-0.2926957848,-9.6425745523,2.5256222914,4.7542850449,0.1176144323,-0.3495350934,4.0882953065,-31.2813225794,-8.7010015127,-4.463874268,0.5716153959,-0.3005193907,-6.7368903512,0.3370809272,-6.169548009,-0.1894622383,0.8119274261,0.4336212757,-0.3335593272,-0.017951826,-0.1695297409,-0.7292026759,-0.4211681772,-0.3560016255,0.0224661242,-0.322871686,0.3392921143,0.9491161733,0.2791280487,0.9838678461,0.0399591209,-0.828848283,0.8986356736,0.2919455121,0.7034730145,0.7949240446,-1.1791205955,-1.0058625304,-1.0443407779,-0.0909517317,-0.6637132031,-0.6230469391,-0.7952138814,0.4664455062,0.5821882757,-0.8290139413,0.6035373298,-0.5179045822,0.7927107832,-0.4674011339,-0.8025826629,0.9570561175,0.5457050272,0.3149681384,-1.7723149125,-0.0980445507,-2.6684555036,-6.2615596881,-0.1185995869,0.8198961928,0.6488179334,-3.1625883755,-1.6660785639,-3.6030641183,0.1755447699,-0.463496682,-4.2687567209,0.8191124493,1.0524499338,-0.5882401613,-0.6125974458,-0.1950877855,0.6025697123,0.1280037255,0.83902308,-0.1333034995,-0.1359230777,0.6018041144,0.5623894972,0.7196609602,-0.0126114957,0.9151941783,-0.9675110201,0.7885877281,-0.4264590352,0.6158451383,-0.7247901747,0.6551707465,-0.0756668437,0.0529275643,-0.1977971119,0.9009580007,1.6510534005,-0.7566402076,0.1939613937,-0.6751183744,-0.4068918386,-1.2055217566,1.5303882646,1.8281780601,0.8835611627,0.948898479,1.2803170129,5.1728977278,0.7390532955,8.4543972327,-0.5839711387,0.3929236992,-0.1332771674,0.6059645909,-0.469703314,-0.5926003616,-0.1024651831,0.7758656922,-0.5192361791,0.5714609345,0.5411376661,0.5467466437,0.7707943035,0.9946708881,-0.2335392356,0.0091825696,4.3982139299,0.3096708761,0.034498625,-0.2677416882,0.9392818387,0.8781185179,1.151106507,0.9107637926,-0.1833416683,-0.8724364702,0.1818939491,-0.207598299,0.1719364957,0.3835751505,0.893907195,-0.611058031,-0.1034216927,-0.2930743657,-3.5031900229,-0.0383256922,0.2448041995,-0.867818388,0.0575542838,0.0187084473,0.5652244947,0.7747479944,0.9965469097,-0.2756249315,-0.839984972,-1.4615678669,-0.9846397881,-4.5101665827,-0.1814268249,-0.5850989807,-5.9556753739,-1.4075520056,-2.0024572106,0.9682463517,-0.9475203998,0.5347650382,-0.7460889933,-0.1143642835,-1.7836172737,0.0609525687,-0.6161860535,0.5455497853,-0.5076515835,-0.6768170549,-0.1602471694,-3.7899457527,0.5764369177,-0.7807754211,-2.2261424946,0.7697504836,-0.7853450522,0.7327872202,0.853084906,-0.2699356588,0.2734843204,-0.1271158143,0.9373323429,2.3433483794,-0.3006407071,0.9399279166,1.5348437262,0.9461756565,0.9366650764,-0.5546436402,0.751163644,-0.3418542321,-0.7954620828,1.1796165543,-0.4188926727,0.7198032738,0.0340124258,-0.8427329518,-0.2159404146,10.6666201815,-0.0012788515,2.6672481641,0.6956041149,-0.2740839559,3.3044979468,1.6790290247
   11.029197831,0.926038378,0.2226570518,0.5400079969,0.7703439044,-2.1353379749,5.9784751521,0.5231190292,0.8056838184,-0.366425703,-0.9133846815,-0.6841654005,1.8451201522,2.6406999399,0.923281398,0.2504470567,1.9524697421,1.5913521937,2.9430276318,1.8418359514,0.9434166679,-0.6419469479,3.9914119982,3.9406386912,-0.0787885664,-29.0340844579,-0.7321257674,-0.3954329535,-22.5878784384,-0.4778750263,-6.6060118426,-4.9796973828,-0.0117557872,-0.4993255164,0.0727160309,0.4837996837,-0.5942797256,-0.4184012332,-0.4945753509,0.1071935589,0.008207722,-0.8041360463,0.0066612271,0.1917075041,0.9122382054,0.0098066641,0.7654134355,0.192013466,-0.934879178,-0.762772518,-0.2739735711,-0.1378487913,0.7567534918,-0.3521400157,-0.2478025925,-0.2590650177,0.8497802618,-0.7214801859,-0.9791673383,0.9365383048,0.7829260925,0.444823432,-0.2950444368,0.3574198852,-0.9238396661,0.0961996905,-0.8811907192,-0.721384418,0.0126903692,-0.3827574465,-0.849235229,-0.7090428479,0.8861982958,-0.0355701546,0.1980574619,-0.3747089996,-0.4641171151,0.138208033,-0.6740851384,-0.1403762763,0.224794364,-0.8985818502,-1.050768385,-1.6231807289,2.2203515912,1.2143239804,-0.4395563219,0.5587719685,0.7497120054,-0.7303189557,0.64231868,1.1030357269,-0.6623336291,-0.3155497557,0.3863775824,0.6699543371,-0.522398146,-0.8911030882,0.1912194952,-0.6956838746,-0.7718346382,0.1528107289,-2.0399467582,0.3491571442,0.4149880926,-0.4642326602,-0.0575333554,0.3335508494,0.6892521093,0.4773000062,-1.8169773387,0.9131748657,0.2721045539,-0.1403324908,-2.0908206057,-0.0933300376,-0.5255231499,0.3676604217,-0.7365165485,0.717615384,-0.3867697499,-0.7121119152,-0.6106556222,-0.0705781448,-0.8978397737,0.730523876,-1.7321537732,-0.3588566931,0.7618730641,-0.8202469672,-0.7879125422,-0.2083859022,-2.4715551389,1.5732868599,-0.1584682855,0.843929972,-1.2252215448,-0.441571933,-0.0261087127,2.2957801505,-0.733445305,-0.6077722249,-0.6753558276,-0.8140379131,0.9967450128,2.1711503562,0.2551022009,-0.9209454144,0.576751996,0.9072276829,-3.8416707356,-0.9533238115,0.0540821683,0.1768422196,0.1432564091,0.5213658095,1.1621473232,-2.458737261,-1.0007479858,0.1049871928,-0.7052484678,-6.3408876964,0.270013671,-0.8205277781,0.5756467777,-0.5659057691,0.4227955361,0.7526835704,0.7439974344,-0.3646042946,0.1757245895,0.2116309436,-0.6401430705,-0.6985499758,-0.6302297793,-0.6907643438,-0.5851102327,1.0236123335,-0.7870672738,0.5172306613,0.2674008251,-0.7961152167,0.7102923394,-0.8639857344,-0.1329115183,0.240350737,-1.0113064538,-0.9854428155,-0.2463219037,-0.3186388253,-1.1848297923,-0.2387092077,0.4302580057,-0.4485492635,0.3191101918,-0.8698096112,0.4699381628,-0.4073083722,0.5464652026,0.8049002078,-0.212031129,-0.3649586774,0.6148725135,0.497710781,0.0968679446,0.0804705829,-0.1114635089,0.9047958978,0.149900876,0.5181484952,0.647361698,0.6999796356,0.4991526004,-0.6219542633,-0.2117022705,0.6589995038,0.2454931697,1.3361546859,-0.4685602814,0.3566339484,-1.1389942954,0.8462449674,0.0731621021,0.4930754904,-0.3458801543,-0.8394717724,-1.1153712517,-0.5068967563,0.2459628607,0.4149584306,0.4367808422,0.4301561941,0.0493471623,0.8149501296,-0.8412330214,-0.1260058263,0.8674499755,0.2513541521,0.2830045168,0.7299841988,0.1138738679,-0.1713673592,0.3036009277,-0.3932839202,0.0476164408,-0.1184097006,0.7271564486,3.2213611005,0.8216246943,0.8364659445,-0.4754487147,1.856274289,0.6719416433,1.3941839611,-0.4755270948,0.4365665741,0.3446326629,0.2541670684,0.3817068049,-0.1486904023,0.915772569,-0.5933126291,-0.4805861396,-0.1453108592,-0.1119647881,-0.417570024,-0.0722694604,-0.5770395035,0.7298741305,0.2529662771,0.1346198468,0.8718122894,-0.4385660448,-0.6249345281,-0.3712131475,-0.2442463212,0.2569658525,0.1777885296,-0.4658075787,0.9721723449,-0.6869904252,-0.9194118394,-0.5106251727,0.9268057752,0.8387291332,0.5204651581,-0.3780540732,-0.2720607877,0.7632540669,-1.1825287814,-1.2317372722,-0.1128487951,-0.5815705919,0.3590048678,0.4913504364,0.337803651,-0.4501749297,0.8029944149,0.5082790536,-0.7334873797,-0.1124580191,0.859945956,0.2526406855,-0.8906666668,-0.6452230291,-0.7607618511,-0.5435741743,0.7837802065,0.5437184154,-0.9121559758,0.244317757,0.0807643475,-1.2117848213,0.7232563113,-0.5273130727,0.5886751488,-0.940520216,-1.0637593433,-0.4455371291,0.1683876564,1.2174577803,0.4217223337,0.3157683667,0.5512510036,-0.725412505,-0.3928496846,0.5300796315,0.233798731,-0.3817192019,-0.6961862582,0.421408976,-0.9863994272,-0.0595325019,0.5765596405,-0.8054567335,-0.8505868045,-0.0848714801,-0.5615379488,-0.0506242923,0.1777065099,-0.340230357,0.4968575042,0.5769574436,-0.1408823661,0.3560603694,0.8190886641,0.6707921458,-0.0994888399,0.711032751,-0.0601392882,1.4484690809,0.3664135207,0.6249138789,0.656546598,-0.7646392313,0.1930574642,-0.0682177561,0.7540645402,-0.9400667532,-0.5735353918,0.7356380545,0.0862813919,-1.0552732875,-0.2653392094,-1.0884097556,0.4264041502,0.5383888586,2.0635928505,0.316940084,0.5348180265,-0.7153153812,0.0784763651,0.1347948696,-0.7740095591,1.0827613898,0.8750726408,-1.1058840903,1.1284133502,-0.7292659667,0.9121268855,0.5737698159,0.3301689016,-0.1679046359,0.8226171045,0.4353413094,0.0959409052,0.4045128271,-0.4127135198,-1.1822202767,0.3002144933,-0.2648586049,0.0475277886,0.5148640404,0.9694833424,0.5855768902,0.5922675441,-0.6855849388,0.8744962632,0.5843663734,-1.2341076465,-0.4316265361,-0.1959938626,0.1143688145,-0.7155685194,0.3286571988,0.8831311806,-0.4680658412,-1.0716013119,0.6955501588,-0.2801848027,-0.2077856232,0.8430774051,0.3167230897,-0.7568823706,-1.1458030253,-1.2126957656,-0.3354226598,0.4025350167,0.3433969375,0.0486452342,0.2407404199,1.0989049867,-0.345261572,1.0595209922,-0.9617800119,0.6337277174,0.4173985404,-0.4245791427,0.4437476062,-1.1751198334,-1.1653489529,0.3715346428,-0.4196877555,0.7450513921,0.3856722001,-0.1334638661,-0.0926477723,0.0109605318,-1.8649383538,-5.5510386529,-7.7681015388,-2.8564935622,-0.9881723765,0.663708895,0.365784563,-7.8393814596,-1.1252066204,-0.8641052619,-0.9924925391,-0.074010058,1.9945340777,22.6971941668,2.0777976652,16.0084746851,0.674997525,-0.1162354617,1.4862880097,-0.3379418614,4.8254729704,0.2670323515,-0.3209373602,0.6896668277,0.7437781233,0.0314866293,4.2618379401,-1.3886618874,-0.9438483019,0.9410559904,1.6997893498,-0.0618450528,-0.4592956739,-3.2483973931,-0.4803962725,0.2358023761,-2.3033423333,6.8771739961,4.1920610703,2.1202365445,-1.0053861137,-0.0629419877,-2.6405678481,2.2755019863,0.4237667349,-1.359395212,0.9258024678,-0.3217385138,0.9040222411,-1.0628079997,-1.0043631666,-3.6941479503,-0.1777369546,0.6396272029,-0.7197401028,-0.9831723639,-2.3439466741,-5.9141617703,-0.3671470671,0.1273690177,1.4107397519,-6.3605586485,6.4372218353,2.4379066788,0.6719198742,-0.5130917549,0.1098513084,-3.9061529842,-5.2713906715,12.599004008,-0.9422734839,0.8813160412,-28.6086780876,1.41540725,5.8304443399,2.9073822669,-0.7637367458,-0.0337598404,5.8127293645,-2.7965410849,1.1158484036,1.7691893245,-0.8512982479,-1.0074339126,-1.3263573192,-0.8201262033,-0.3338868052,0.1536436595,0.6813291962,0.3680625516,-0.2303883393,-0.8348111373,0.9222319252,-0.7848136143,-0.0189408937,0.2092614001,0.6727617976,0.0621885367,-0.6789827672,0.0285836124,0.8927136548,0.9148218628,-0.7320472287,0.8247767045,-0.8073223551,1.3471216979,0.7443226224,-0.7083708186,1.5002703336,0.3633078017,0.5123381874,0.6028595278,0.8770899803,0.2648776206,0.5061360325,0.9357840156,-0.9940826151,3.2466909344,-0.7762951885,-0.2966121535,1.9041762432,0.7235427911,3.4920162786,4.4333512614,0.3128114631,-0.6085913114,1.1755984239,3.6180293383,-0.8203535323,3.3542410636,-0.4755792761,0.6781532704,3.3434999168,-0.3922629481,1.279236565,0.8384491168,0.9063756951,0.836319517,-0.2077744224,0.8146256451,-0.5338767901,-0.6714116704,0.927642744,-0.3391549613,-0.5159763548,0.6025812538,-0.1224341598,-0.0979362205,0.2010499507,-0.6608536102,-0.3474447373,-1.2613596202,-0.1681013583,0.7407269939,-0.2089965473,0.1240926994,-1.0801647941,-0.1077679964,-1.1592199756,-0.275085677,0.7956630887,-0.1590363203,0.1041821361,1.2815816303,-20.5643991746,-8.533898515,-0.3974464001,0.7596420101,-7.6476054497,-1.7274063773,-8.3164936316,0.2346207789,-0.0886517413,0.8632900935,-1.0737033418,-7.1150610267,-0.0471845047,-0.8613414577,0.6142454208,0.0447611896,0.5419765897,-1.6586091961,-4.760410783,-1.006728017,-0.778070705,-0.7380050764,-0.859536387,-10.8599732077,-5.8075453257,-1.0476737406,0.1038032349,0.1836471683,-1.6632415923,0.2460945317,-0.8805192795,0.1840141802,0.1342313358,0.3562043006,0.4238715869,-0.4252444085,-0.6773134954,1.1835900245,0.314491551,0.4238318368,-0.188992212,-0.7508144387,1.368410987,0.0465095297,-0.3992619248,-0.5677925616,0.0416004375,-0.2886882569,-0.5832839377,-0.0319617161,0.3636597762,-0.2524117033,-0.5866086257,3.9774976668,1.0207957343,5.205637352,0.5235011086,0.6223628889,4.504942525,0.917832676,0.8242282923,0.50977338,0.144754968,0.9383371115,0.9918424647,-0.7299179752,2.5033423924,-0.020782242,-0.2987543633,-0.8409952119,-0.7360071885,1.4490276416,-0.2085922154,2.5859926125,0.4527708308,0.0220525538,1.8062476359,-0.0731531548,-2.8600673728,0.0179909486,-0.0147707577,-0.9966508903,-0.1171395773,-0.0170498828,-1.15233725,-0.3780547352,0.5926677423,-0.9163311411,0.4869692725,-0.3653673254,-1.7603991953,-0.6592162596,0.5749499702,-0.1506000875,0.9916786133,0.3341324848,-0.8210419405,-0.9651998745,-0.1643189801,0.4584864727,0.0781632864,-17.0359355899,-0.3019561748,-5.6494174341,-0.8015640978,-0.4971444092,-6.0186243243,0.1307252847,-6.4280165474,0.7514813638,0.064893782,0.2985783009,-0.667772358,0.7788903083,-16.1482651807,0.1972394954,-0.1858743907,-0.3649848744,-0.3932122698,-3.3400988335,-10.0446171837,-13.0914630273,0.9464251773,-0.4858040388,-14.9874077874,-3.888380162,-1.4153938083,-1.2853334796,-0.061815964,0.9116843339,-1.9718778935,1.1221390141,0.3192274092,10.4335354416,0.4358004894,0.0901760323,5.5086728933,0.7056435046,3.0619338116,1.7160492429,0.5989929085,-0.5029178828,-0.5503173203,0.7876643819,1.2685688789,0.849307938,-0.9873099502,0.7773463033,-0.5651702618,0.4749560498,-0.1154575589,-0.46719418,-0.0060156208,0.9327467155,0.6997015945,0.347385348,-0.27399094,0.6439161781,0.9167251572,0.1589320241,-0.4942678807,-0.7983735509,0.4168305606,0.6666847221,0.9951108698,-0.6085580483,-0.9604540149,-0.3437506992,0.9369568458,-0.5782017307,-0.9796630907,-0.908037844,-0.4787597433,-0.644923904,-0.7171816398,-0.6337397311,-0.9635730648,0.3060634876,0.6263814629,-0.0323500434,0.9421840875,-0.2025753899,-1.0136008094,0.523675622,-0.1624996585,-0.7278250091,-0.7589431834,0.262487204,0.6294110012,0.3735450687,0.7721025548,-2.8355158136,0.8024432943,3.8242010677,-2.2029171283,-0.2644470932,0.5935176606,-0.1523121966,0.9317816432,1.9367173651,2.344990557,0.9926784041,-0.3684625539,-2.7641354539,-0.4700518673,-0.4617751938,-3.576639007,0.4519072689,0.9099489335,-1.0537063121,-1.1388939747,-1.3070041336,3.2596481032,-0.6554110207,-0.9480422166,0.3470848981,1.1345962148,0.6534911044,-0.3882877592,0.5753520307,0.4253299008,-0.6569006445,-1.5324721255,-1.4392761489,-0.6746835075,-0.6891170561,-0.3394200939,-0.454717629,13.7460676931,-2.5154407607,1.3520763918,-0.0626716946,-0.0515435084,1.9438729778,-4.8257964336,-0.8136331191,0.6381635861,0.762437651,0.0229746451,-9.3127493712,-5.7010204181,0.0321943581,0.3105561406,0.0185034285,0.2362447524,-0.9245659,-1.1503126714,-20.6037394627,-0.5031371835,-0.6682385158,-0.3686514262,-1.5815196295,8.2885091791,-2.5980431598,7.2649038984,-0.3520257121,-0.580487904,1.656428822,-0.0506777357,-11.1822870337,-0.5214690024,0.0253420611,-0.2321747418,1.2372171896,-16.9920154686,-13.8401562931,-22.2407683408,-0.5781582601,0.3037585536,-10.103448611,0.903717873,-1.0716772489,-0.4205944402,-0.4349763823,0.2427265061,-0.2179193993,0.1707115895,-0.2724226164,-0.9848245053,-0.3460605678,-0.4550519779,0.4416570675,-0.0424042038,-1.0677240639,0.0485070964,0.7746831823,0.0078536173,-0.3785241795,-0.9646014272,0.2766320738,0.1632068838,-0.577941625,0.7002895172,-0.3336271268,-0.8023044252,-0.2874526854,-0.5257659408,-0.0361769456,-0.3552313659,0.2346596284,0.316749633,0.7403736941,0.9493366182,0.4796107006,-0.8459815801,0.7732996304,-0.849407678,-0.3688706915,-1.055396743,-0.7394204557,-0.2719244088,-0.4905047793,-0.9072125912,-3.2229912838,-1.6101478287,-0.817697162,0.9181777309,0.5331840177,0.6593179908,-0.5547354276,-0.4627959385,-0.0797511558,-0.9362982352,-1.2076386158,0.3356495549,-0.9544110658,-0.0030338743,0.4554134229,-0.6916006849,-1.0136749359,-1.2250267236,0.5676642753,-0.0464574065,0.5450303017,0.8021789245,1.9086159761,0.8088308132,0.0649406426,0.6843776959,0.9526490362,-0.5053148426,-1.0336204487,2.6049987548,-1.1157376834,0.2658809815,-0.5337910162,0.4269245802,-0.801052125,0.2946973314,-0.513359805,0.9075351829,0.2480506772,0.9271886084,0.1595597486,-1.0811380474,5.6410969169,3.2918358089,-0.8069523881,-0.3824767645,3.5213947942,5.5516147438,14.8678057299,6.2815898145,0.5452291775,-0.3630043648,2.3057432584,0.7053689797,0.4300845746,0.1663970121,-0.7080035523,-0.0119923639,-0.0214069273,5.5456873932,1.6548082925,5.6043284654,-0.3299800594,0.4119060742,5.8885248996,2.7772255062,4.0360128848,0.7599200748,0.7660511705,0.7001400194,0.7304021699,1.0470852788,0.8188771982,0.5470648099,0.0035543097,0.8472148772,0.6228853827,-0.7498791807,0.2754281006,-0.028236897,0.106782022,-0.0483066353,0.455255039,-0.1259259359,0.0717172238,0.8461527848,-0.4740118941,-0.7285066367,0.3275295995,-0.7550756175,-0.2613806057,-0.276804207,-0.8074882918,0.3397326445,0.1714187228,-1.8950410127,-1.3096396188,-0.4704255144,0.1313573508,0.5473704706,-2.2614471231,-0.1487245451,-1.3483535579,-0.6450658799,0.8432520426,0.0988960726,1.0969879028,-0.1168502888,-2.1180103894,0.1165418618,-0.47742424,-0.2526859983,0.6579686729,-0.3432448313,-0.4018202935,-0.1932423282,0.3459545303,0.2146763554,-0.243796033,0.7129856276,0.0142584918,0.6302303944,-0.2763721705,-0.2955881215,-0.607282172,0.1135939698,0.3647476917,0.1434868183,-0.7825686503,-0.5882980589,0.6800389261,0.915367239,-0.0484206297,0.1288776685,-0.5425812879,0.4381533893,0.6179647512,0.4528752059,-0.8338331685,0.4942686694,0.2654220813,1.0170182712,2.0687140341,2.5965503207,1.0708521656,2.2802422495,-1.0642117566,0.4552104394,2.1222348309,9.1976265695,2.6605528137,-0.8243804779,0.5741467663,-0.3016309726,0.7699984897,-2.0511740135,8.7028734883,-0.9793299782,-0.5940292685,-0.0747811987,-0.8825550578,1.3874390952,5.5312748226,7.6520941668,-0.6005014646,0.0774773856,7.5908261872,15.2735834948,0.4410147044,6.6489027298,-0.5607621924,-0.2684406347,3.4194956829,-0.3569805424,0.1711627241,-5.08531064,0.359291103,-0.7816727374,-3.1549628533,0.5745013499,-1.6113838397,-1.0140770744,0.522548633,0.3971393885,-0.5607777037,-0.5625323924,-3.4953796197,0.2156585043,0.5248429611,0.9904445685,-0.8917502238,0.1650471838,0.2324191585,0.7342725083,-0.3646306803,0.885173745,0.8824448505,-0.0458090658,-0.3600942639,-0.3009738296,0.7798440041,0.3071784539,-0.4495864397,0.4033194179,1.0099973479,-0.8539172289,-0.3991596279,-0.7250338242,-0.4858379902,-0.0372517618,-0.1325956543,0.1921706164,-0.3842441717,-0.761017437,-0.6500363601,0.8381491828,-0.1493326993,0.4320573224,0.2260547888,-0.6873094596,0.2435398944,0.7833017088,0.7341688504,-0.1217506721,-0.3714518042,1.0016962826,0.5030019176,-0.1594262949,-0.1685974979,-0.2294400389,-0.0366673317,0.8371720645,1.0085318127,-0.9794874221,-0.0697428001,-2.3183291065,2.0791264169,-0.2663835597,-0.2296949869,0.0042189695,0.1644828935,-0.6202950171,-1.520408613,-0.511503656,-0.1449837313,-0.3965741443,0.2296200153,1.2241390479,-7.079941068,-0.5263720033,-0.7278010159,-0.8494421939,0.9941966047,-0.1908032263,0.574045857,1.2070084486,0.5594245903,0.4051034861,0.89879039,0.5184039563,-0.8403646665,0.8960557832,0.7902371121,-4.6275847256,-0.7079143452,0.7517484834,-0.2583582962,0.8605649038,-0.755802885,0.2567988607,-0.3683660497,-2.4581852077,-0.2591064267,-0.6710338979,0.020285027,0.8041428429,-0.3171844122,0.5288246709,-0.8352250559,1.023415081,0.3749138303,-2.2906664839,0.2384047247,-0.7355492747,-0.9071842985,0.1075180997,-0.934198866,-0.4597601647,4.486933369,-1.0875421957,-0.5049102101,0.5362170377,0.4829506204,4.3763714549,46.4527019584,0.4164701404,0.4337419481,-0.9067506245,-0.1520071385,-0.9761095605,-1.7854324026,0.6098547373,3.1971632222,-0.5746797425,0.2631355188,-1.9918075885,12.4661873053,17.1200020013,-12.8184209564,-0.4758504698,-0.1090270897,2.3201337626,0.0028762134,0.1634087398,0.4766244422,0.4553889479,-0.9535950426,0.0994775204,1.0648680836,0.3236025412,1.0131483502,-0.8551226036,0.4819155056,1.0867929884,-0.3377295852,1.3589330577,0.6570602671,-0.2187334865,-0.3525399828,0.3183053058,-0.6244363083,-0.817032441,-0.6273736838,0.0946114872,-0.7937873549,0.5527788261,0.3828590508,-0.0505010985,0.0281627361,0.0460301259,-0.4125773238,3.530011455,-0.671279354,-0.5289596507,-0.8402504406,-0.3754952786,0.8576303517,0.3623457556,1.4300264836,0.1179465278,2.385551096,-0.087105249,0.6914920621,0.2559298447,0.2900543424,0.5728419053,1.5083900496,-0.0518573294,0.7234649193,-0.6682620641,0.3617647032,-0.4826116386,0.4979712816,-0.9852177946,-0.9383993003,-0.4279042137,0.1585504304,-0.9247073802,0.1653720679,0.4390440277,0.244699167,-0.3751562178,-0.3845513642,0.2836870928,0.3379714901,-0.8893649798,-0.5759292359,-0.0487102697,0.244901637,-0.4126251676,0.1297036968,-0.7808047845,-0.9488413132,-0.4451187386,-1.3317820871,-0.5473760112,-1.0964589289,0.342101237,-0.1477296726,-1.4917188347,0.7869320812,-0.22014884,0.4498603441,-0.7315401,-0.6283319055,-3.7773126481,1.0473020856,-10.3215806274,-3.1023931795,0.9243130007,0.8642696106,-3.4147781059,-2.2491671184,-12.7302689383,-10.555216688,-0.2529929046,0.8192072791,-12.6557326618,-2.1559306625,-0.0370033172,-0.7830262184,0.2288008824,0.8954972328,-0.0984683982,0.1931262389,-0.2889848347,1.5340399004,-0.1976661373,-0.448932348,0.9684701741,0.0486001317,-1.6112920685,-1.1257071966,-0.8272141947,0.1463964618,-0.4757072077,-1.0331599272,-0.7354484666,0.1834713143,-0.4381368409,-0.1959916001,0.8397829366,1.023429006,1.0183886958,0.513136931,0.1522988342,0.8050814644,0.0182424878,0.1656241342,0.173610948,-0.6134178158,-0.1792505713,-0.1955872682,0.3473253,-0.5323410217,0.6824113519,1.0308070433,0.0812132681,-0.3550064454,-0.3912623897,0.8120012969,-0.476781012,2.5937776618,0.5203214118,0.0534441303,0.7482245415,-0.9400804863,0.6044988263,0.3840139515,-0.9727743454,0.9975574465,-0.0593600481,0.232686268,1.0161390191,-0.0404532066,-0.41883044,-0.0127973986,1.194353173,-0.0281898527,0.1129057265,-1.0079136354,0.3493110117,0.0998375005,0.7090030503,-0.3931316691,0.3250039523,0.1690734248,-0.1816091282,-0.9881190754,0.192296939,-0.9660413901,-0.9924684596,-0.9544577684,-0.4722892915,0.8171939776,-1.348357417,-0.8853782531,-0.1268112137,0.4752820415,0.7655570482,-0.0860790965,-0.5758844563,-0.0782870575,-0.0557302998,-0.0022633055,-0.6611759213,-0.2590607146,0.6066002765,-0.6779004555,0.7050840544,-1.1541812781,-0.7331569107,0.6451696139,0.2689312398,-2.7950317706,-1.8547538597,-0.2817541303,-0.3032851379,0.6609942318,-0.375789096,0.8378590043,-0.176025761,0.3459582213,1.1342096384,0.4830356557,0.7196079802,-0.7208389479,-10.2601205601,-0.3454834441,-0.8632843205,-0.5864557291,-2.1206640204,-1.2966563172,-0.3437790359,-1.2254049582,-0.724070491,0.5656454023,-4.4266623948,-1.0189335594,0.0403010338,0.4150961518,-0.169116927,-0.8963042426,0.0174852453,0.3020957206,6.8558406388,2.6230954544,-0.6137167972,0.8019992505,0.7949304516,0.0753687744,0.4396622281,0.9092349708,0.7233649792,-0.2968678066,0.7592762514,-0.3201502054,0.846170401,0.9046255768,0.8423530675,-0.84287213,-0.5699481801,-0.2086604307,-0.5228863333,0.0583130959,-0.7659507418,0.0227704792,-0.7470445198,-0.5820004588,-0.1645491227,-0.5545250515,-0.25296782,-0.6877515449,0.5768155167,0.2069010511,-0.6431652245,-0.9421929844,0.1064762593,0.060417164,-0.8189867964,0.8680169571,0.0693968363,-0.8525468114,-0.214240354,0.6999209729,-0.6023248092,0.1342192999,-0.1439474124,0.5784814675,0.6492875377,-0.2765753047,-0.5534519639,0.3979116511,-0.8901406663,-0.4794261227,-0.3108393822,0.9142044132,0.9071705748,-11.7280727385,-3.8521172629,4.0709343911,-4.8849704279,-0.130448112,-0.8817026865,-1.9066886984,-1.2778408872,-0.1488754807,-1.2619007463,0.1766556535,0.9919065234,-0.647370116,0.3988116238,-0.5385563143,8.2429485124,-0.1318430812,0.6176764905,0.1970071189,-0.7151822976,13.7182045365,-0.2089847589,0.8560043211,0.5047114674,1.1938543911,-5.8157332332,-1.1803485248,2.1454849214,-0.6235577981,0.8839098342,0.8043964483,-5.3921278384,-0.7348541644,-0.7896934953,0.2977778377,-0.8197458617,0.4008038045,-3.3679646753,3.7912149347,5.0463629709,0.8605289148,-0.6887269903,-3.0634921321,-2.3252654099,-0.5847312409,0.4041087741,-0.6059862337,-0.0320750518,4.4575617338,64.2798898996,-0.4819399906,1.201779476,0.3570165404,0.5341539882,3.4813132882,-39.3622760068,1.0425766479,-0.0703019601,-0.0923522625,0.8013672378,-3.5529337947,3.1147152588,-0.7017988483,-12.1095405951,0.0248372154,0.1340842931,7.2898341025,-9.5772237735,0.5863314119,8.885670019,0.6089857389,-0.7569914728,1.4699746243,-13.3014869839,-112.8378307747,0.1972780531,1.0561093288,-0.7782297458,-1.7132602302,-0.361457092,-0.9286707099,-0.5704932321,-0.5100493686,0.0035917679,-0.3267132482,-1.0490875691,-0.3367957209,-0.3665581186,0.4309187456,-0.1058757441,-0.0230172972,0.5646900532,0.0145232967,0.9395316361,-0.05827999,-0.6632934108,0.9256384485,-0.2190083889,0.7422296667,-1.240711636,-0.3686907358,-0.4337040136,-0.1825652739,-3.3622320147,-0.3736320295,-0.9150433065,0.0834504547,0.3083205516,-3.0442727228,-0.5921825772,-1.15445463,0.1743918269,-0.9275798042,0.1787036894,0.2991458123,0.2512108596,0.3861926546,0.1804387882,0.0708460023,0.9413103942,0.2156849007,-0.3664471847,-0.9054750619,-3.9711622218,-0.6090866298,0.2790654129,-0.570401915,-0.8905899505,0.7343999614,-0.2470465691,0.1800536924,-0.7650067143,-1.0430603074,0.2785902394,-0.6669159474,0.162418043,-0.831541782,-0.0205697404,-0.0319820341,-0.7369762757,-0.0329178135,0.5430237881,-0.1186594221,-0.9403419241,-0.9898369343,-0.0339998174,0.5292131938,0.9108679723,0.0711932595,0.7882096373,-0.0262267954,8.5075479032,-0.0889097695,0.0408639765,-0.0576000349,0.9260965433,1.5801769887,-0.0353732844,3.0231078008,-0.4548703965,-0.6757481367,0.3172085076,1.7980497628,-1.256328382,3.4119918901,7.3697103094,-1.0487921269,-0.3698653548,6.69351858,-0.1458667679,6.388843754,1.167437133,0.2679802906,-0.1363433624,1.6951847393,2.956893276,-0.7622006847,-0.6167059913,0.0705904505,0.7721637707,0.1841016688,1.4172019456,0.0045710552,-3.4354356628,-0.1943334182,0.8672398493,-2.1893427403,0.0665420513,4.9357983672,-0.075511993,0.3091544309,0.1516719865,8.4958099457,-0.6790584098,-0.1194509258,0.1512856182,0.2842561111,0.2421312681,0.8187434128,0.5377070682,0.9265589741,-0.0499000379,0.8458478751,0.0367752904,-0.6195822561,0.1061284972,-3.4424517865,-0.3320298417,0.8818457092,0.5840225756,0.2765063702,0.0721029776,-1.2037918425,-0.6044494066,-0.825798544,0.3087488594,-0.2793482763,-0.467583323,-0.9315259135,-3.4246666058,0.2516798973,-0.7478447433,-2.9395454875,-0.1594334968,0.3688911928,0.3388939393,0.2590280474,0.4815583001,-0.391476602,0.9777441726,-4.3833350749,-0.0328470838,0.5637805607,0.3263518526,-0.8275603724,0.4389326119,0.0336198099,-0.3602995298,-1.03207581,0.5963908989,0.6582521232,0.3331755297,-0.048313509,-0.5248271706,-0.1077082022,-0.5609527926,-0.640595881,-0.808213171,0.2245992359,0.4093039903,0.6592792738,0.9911868718,1.7539671641,-0.5700692786,0.1273066676,-0.9976338803,-0.4654543937,-0.5176802787,-1.4129957019,0.3660069974,0.2728082728,-0.2987626315,0.8887622646,0.9451706145,0.4568166008,6.0482400543,0.3047807918,5.4994211523,0.8432520193,-0.8100774016,4.6250856265,31.4046827645,4.6571830644,0.0382497421,-0.8319192543,0.1983819524,-0.7042114494,-0.2235421336,22.9243200968,-0.4083732478,-0.3225333245,0.5943150982,0.0180159579,0.7196118628,5.695156763,2.0249879315,-0.4591348454,-0.6537926092,4.5806570088,0.7738300391,2.7402660026,-0.1668091595,0.8094588934,-0.6413062166,2.772307572,1.2669866042,0.7257700365,-3.2595620407,-0.5915245238,-0.8910886355,-1.861499015,-0.7473715657,-1.9251649116,-2.7010841261,0.8680017644,-0.0159762265,-0.6276996327,-0.7178268595,-3.2346366619,0.7430222001,0.600859899,0.4761674884,-0.8551070632,0.4781616332,-0.0944108339,-0.5380656738,0.1645545982,-0.1089300091,-0.7879202376,0.4762873894,0.7301632153,1.0146783084,0.4285138205,-0.2734101942,0.6739293286,-0.0170994649,-0.6419137043,0.8529917334,0.9213490834,0.3774284138,0.8770618482,0.7592435476,0.6657674188,0.9425752278,0.1575319175,0.3222640413,-0.3531609504,-0.382104896,-0.4524609642,-0.469821938,0.0713366504,0.4495573244,-0.4561660957,0.3846602622,0.7523057224,0.930190073,0.8685302629,-0.3217211521,-0.6591477671,-0.2328063721,-0.4760563681,-0.4638545569,-0.1242941931,-0.4701914403,0.0702209956,3.4418312204,-0.6187808091,-0.1088888793,0.9806004801,0.3162339787,-0.6404341704,0.2019264877,-0.7792049012,-2.4130328126,-2.0401347723,-0.1669944087,-0.8585023958,0.0797741671,0.2522612478,0.7809051683,0.794088184,0.9443602156,0.8244945799,0.9023473585,-0.4080081107,0.2406369445,0.1749033286,0.8309062557,-0.3678786198,0.6131542853,0.2932936049,-0.9094217223,-1.2822689203,0.2388728472,0.2486588787,-0.7516249778,-0.0200477478,-0.0347526414,-0.9574514183,-0.6176671024,-0.0137815477,0.0123067522,-0.3326836405,-0.5616202302,2.5785794227,0.8200317019,0.0045906174,-1.5112026675,1.0346546886,0.6158553419,-0.1934094321,0.5765894218,0.6150780358,0.0081559585,1.8039633784,-0.7919115194,-0.3416214775,-0.1874498212,0.1995628978,0.444194844,0.6122147522,0.148651692,-0.4659989254,-0.7305479572,0.7760586814,0.8244673476,-2.1105227828,1.6250448956,-0.0478624216,-0.5702691578,0.7419962828,-0.3878768826,-0.1195783876,0.9773525461,0.9051169724,0.775378156,0.8264945262,-3.8855820438,15.8359973459,8.4251858503,-9.9080125371,0.6052553202,0.7828650457,10.5985380747,-0.2673779997,0.3052867039,1.876923289,-0.3218171739,-0.1473984571,0.7150435144,-0.756558508,0.6360387738,-1.0900553955,0.3023863528,-0.467896579,0.6897541337,-0.5012932115,-0.1852146566,0.73668519,-0.4163222561,0.6733837911,0.4913254505,0.1099266066,-0.5077975962,0.3326581683,0.4089937153,0.450011855,-0.4146012053,-0.480536083,-0.2119406102,0.4769084516,0.0901033301,0.2195396646,0.6496719662,-0.972581928,0.860424341,-0.3056079762,0.820227022,0.8136632536,-0.7378955572,0.5962969978,-0.4323508933,-0.6035652486,-0.5733203708,-0.7126318554,0.0152282423,-0.3072916794,1.1230009572,-0.6469135242,-0.7968100033,0.6583092344,-0.1289383203,-0.2837568547,0.4954475507,-0.6735626264,-0.7107274674,-0.3323249521,-0.4663471327,0.7347001837,0.2455861187,-0.8985908549,-0.4427250196,-0.9062136247,-1.1842206818,0.4228133417,-0.3849650868,0.920879389,0.906075351,0.6496792771,0.0135049342,-0.1142845502,-0.4914364945,-0.923250171,0.7889385559,-0.0040775334,-0.7666449172,-0.9695657377,0.8300285016,-0.9911477653,0.1788593114,0.8999190704,-0.4218768177,-0.8465148261,-0.5057438243,-0.439849337,-0.8486540933,-0.9270572423,-0.9041501398,0.3915806982,-2.242087794,-0.9288558871,0.5320361249,-0.283841748,0.4127680708,-0.1677611009,0.0431040842,0.7779680458,-0.4157906959,0.3068762105,-1.5370562626,-0.9513184077,-0.6010815348,0.1232234657,-0.6450617687,-0.343707517,-0.574040426,0.1004256404,-0.1930189735,0.4500825307,-0.2634079011,-0.2300382537,-0.7617570527,-0.9131342732,-1.3226990157,-1.5213652373
   -0.7776882294,0.5422555097,-1.0278439177,-0.2555705399,0.1475471279,-0.1515785625,0.0551240991,0.8160544989,-0.4265789761,0.7879296336,-0.7482122493,-0.006176785,0.8442492055,0.8389254139,-0.2132411116,0.356050983,-0.0195132314,0.3686088704,-0.2615746563,0.6470320616,-0.7511871152,-0.1274517572,-0.2426176485,-0.3650438959,-0.9043073953,0.4080308638,-0.2934538121,-0.3076879297,0.179963677,0.8397581453,-0.5805263476,0.2542007397,0.139466022,-0.2006133631,0.0691655803,-0.5963190702,-0.5157657187,0.637057364,1.0157175004,-0.3217066228,0.9334290558,0.1992806723,-0.5782758858,-0.2652982009,-0.8546715364,-0.6700512484,-0.3120072619,-0.243313618,-0.4773534283,-0.0568464958,0.625409072,0.4222383029,-1.0157613622,0.8577820597,-0.3505189177,0.9829177169,0.5124103387,0.7772488923,-1.1313357881,0.1267240828,-0.4375348956,0.6520372108,-0.1033437618,0.5645273369,0.8207484163,-0.0081407951,-0.8877525362,-0.2431215701,-0.3852516997,0.5279598342,0.5446411572,-0.2320330864,0.2018673307,-0.7480980049,0.5527497884,-1.0461486904,0.0183621897,-1.2862374552,-0.941138554,-0.8803324125,-0.252498996,-0.5420833167,-0.9536372784,0.2320107189,0.399696058,0.022323206,-0.871231851,-0.7934737823,-0.4397277369,0.1697310291,0.2528771145,0.2558287996,0.7263833808,0.2022580071,-0.085407973,-0.5473597132,0.1983176726,0.0381642765,0.0294942783,0.6386647732,-0.8966034476,-1.8019811026,-0.6152883928,0.6627718863,-1.3583042038,0.5432215456,-0.2826775734,0.3565060775,-0.9349003044,-0.4515170234,0.0305088925,-0.1123744081,0.5910420937,0.7139061939,-0.382175627,-0.2828208713,0.0857658244,-0.9240594338,0.8664848001,0.2640466914,0.8314184536,-0.2695623377,-0.9531778221,-0.0405198144,-0.1510582309,0.5224841784,0.9644049994,-0.38358848,0.4076180232,-0.6914419174,0.4371420247,-0.9157121241,-0.2707058307,-0.1818064751,-0.7439396766,-0.9312452919,0.674370301,0.6155672782,-0.5080039301,-0.3050849868,-0.7221210965,0.4122452065,-0.7229089898,-0.5747019197,-0.2650631323,-0.3931711579,-0.301999765,0.4186504155,0.5801865195,0.2818796783,-0.5245114626,0.1156267728,0.4232476326,0.5593879186,0.6240937291,-0.718241094,0.7958807434,-0.6687587726,-0.332199068,0.5077020358,0.6868057919,-0.6517620623,0.2965390486,0.936381424,-0.5561152607,-0.8954746641,0.4372067768,0.4404965602,-0.7371386495,-0.0917406297,0.0056182926,-0.4293734144,-0.5262268313,1.3166702273,-0.0671994083,0.2571272615,0.9267630559,0.0374667877,-0.5458264698,0.7149594142,-1.0631977862,0.6733087782,0.4128458573,-0.2689994601,-0.4846249878,-1.9188273528,0.0039613966,0.4437356657,-0.8416614667,-0.1065503234,0.3237715632,-0.779196171,-3.9975903347,-0.8460951419,-0.3421848456,-0.7570323777,0.9781675522,-0.5468667693,0.9372235586,0.3525805393,0.3589061255,-0.111266574,-1.6914414262,-6.1467767326,0.3419811003,-0.8842355464,0.5632991641,-0.4973873187,-2.3790536893,-0.8566923186,-0.0957860563,-0.4696307466,-0.5179628491,-0.5584576075,-0.4998588153,-0.6558141167,0.7838217452,0.4034321321,0.3513628579,0.6633115588,0.4196918931,1.6245732128,-0.7702629235,-0.1800526806,0.015360547,1.0628547525,0.4811809405,-0.7899816659,0.2334532184,-0.9478367045,-0.1183555501,0.5528160879,-0.6644548993,-0.2272846375,0.6388015552,-0.2571192987,-0.3436558827,-0.1242557012,-1.2628280836,-0.5967587246,-1.6629313007,0.480696446,0.7646366469,-6.7759436459,-0.5685006362,0.7794491376,-0.8347305022,-0.3142031126,-0.1369242167,0.3328462782,-0.1813750877,-0.9395925909,-0.6221259847,-0.7073164074,0.3499678968,0.8483857744,0.4070666061,0.7931137638,-0.0101598489,-0.3131156125,-0.7199551672,0.1925806841,0.9605036384,-0.6154810883,-0.6566172031,0.2990997799,0.5896836407,0.4427783064,-0.1109758099,0.6141637296,0.2186179699,-0.2316792083,1.0389231723,-0.5696909446,-0.8687378743,-0.2781149477,0.9300683626,0.0984636941,0.7765275612,-0.6281339001,0.3398092426,0.4851441213,0.5564199543,0.6392142424,-0.0656534268,0.1634583681,0.0191674597,-0.6969328775,-0.2916279686,-0.3108703089,0.1572228333,0.7121328666,0.7278693368,0.8761568473,-0.3061797088,0.4070029641,-0.5253040738,-0.8212467165,-0.8431313527,0.9231064405,-0.3878589794,-0.0528747066,0.4207533746,0.4861291376,0.3212252405,0.8100113329,-0.0643609841,0.3932020721,0.8078784887,0.0683228968,0.1305317391,1.4929573875,-0.1010316922,-0.077775762,0.0616450941,-0.847222269,0.1796314484,0.2552146094,0.3272284495,-0.8588719549,-0.4778908662,0.0342343589,-0.1780513823,0.0647369577,-1.2682860706,0.0871758548,0.6182471439,0.2020552207,-0.3608788694,2.9678941991,-0.3473284465,-0.8679832728,0.3216916042,0.9447019653,0.1737166179,-0.2700825163,-0.9974073882,0.3663265796,0.7860131673,0.0466479192,-0.4935042883,0.9378808078,0.5878152131,-0.3176607624,-0.4222002423,-0.7553544727,0.946686119,-0.4447803031,-0.5715023758,-0.8431329938,0.4057825505,0.2399459231,0.4300647681,-0.6183585141,-0.4442038468,0.901407286,-0.2457411795,-0.901328044,-0.0177909667,0.6650234422,-0.2085511357,-0.8967604337,0.3270616716,0.7891123824,0.9818413682,-0.1491104067,0.7660826934,0.3492404184,-0.2916733644,0.0496988804,-0.5307458935,0.0951473879,-0.8701881533,-0.1560695569,0.1463051511,-0.8031113161,0.1145416306,-0.3147591216,-0.0304381278,0.8037799614,0.8664749134,0.4964015016,-0.8329642683,-0.4365269037,0.504106313,-0.4260951274,-0.1798028986,0.6490343351,-0.7541474109,-0.0830592853,-0.1827180133,0.6440135102,-0.7248295195,-0.5186035462,-0.6559802388,0.6107307527,0.3713067446,-0.7444321772,-0.8460676227,-0.2266973552,0.3537124341,-1.2353294069,-0.6616335452,-0.4006594917,-0.4733434676,0.8355019519,0.0241283756,1.094176469,0.8944831923,-0.851844762,-0.8355021741,-0.2222835425,0.6466030966,0.2826056499,-0.6082495317,0.203263391,0.5597338806,-0.5786361844,-0.0476219359,0.3668964235,-0.5411119351,0.6787682713,-0.6810464639,-0.3227860007,0.5377488012,0.5959016286,-0.7203832752,-0.1865410392,-0.6644577965,-0.6676486494,-0.7203148089,0.8957075193,0.6423935533,-0.1725251205,0.6477140896,0.6552184379,-0.6763044386,-0.7392456494,-0.4244870077,0.5102422618,0.3883412982,-0.6793592972,-0.5918162658,0.7268973042,0.7151350887,-0.2871322603,0.7328298092,-0.3724792592,-0.9483242606,-0.7636279783,0.4760343337,-0.5936289747,-0.7487076729,0.7367655674,-0.9458863594,-0.2639724725,0.2475743329,0.7974986141,0.5712680108,-0.0278086142,1.1974011595,0.5650158667,0.5012910501,0.9505257126,-0.2427609286,0.8187897447,-0.4991922974,-0.790572951,-0.629686753,0.3285964269,-0.6868057478,-0.3682371473,0.3902408209,0.51969245,0.782183004,-0.5235624129,-0.7855108216,0.5990529926,0.3149749858,0.5025932964,-0.7868233272,-0.7659407327,0.8752535842,-0.1842355294,0.5085077899,0.7156516509,-0.398781814,0.1433970432,-0.5424045868,-0.0057037018,0.0547951644,0.0562980015,-0.0987640007,-0.0702794151,0.4288517981,-0.2345884938,0.2654306273,-0.5138158419,-0.3942099776,0.9506754047,-0.2268630921,0.6653826208,0.8754820227,0.3079376768,0.5114481951,0.2164877288,0.7634366788,-0.8721870495,0.1776873337,0.5151365371,-0.2856066826,-0.387828355,-0.2994995883,0.4743606084,0.6313427649,0.7912528654,-0.4601349518,-0.885142933,0.5247792526,0.2246207849,2.4868907886,-1.6503364956,-4.9539216521,1.8736323086,-0.724097533,-0.2065447893,-0.950045841,5.0844431421,-5.1627012388,0.2516116184,-0.3065746832,0.6244304771,-1.0922209865,0.8486549112,0.6721643395,3.1663160051,0.6463606461,-0.4828122844,-1.2130958034,0.6362141363,1.1160187635,0.7053179117,-0.4065159912,0.8202801081,1.9489145561,-7.5443329497,0.2161629091,-1.2637731614,0.4904234802,0.5348105779,2.6309259805,0.4714862542,0.5205482009,1.4595355004,0.0064578724,-0.8260711366,8.262825965,-0.8243427424,1.7974825746,-0.0705831694,-0.0760331377,-0.8405620371,-1.3525333775,-0.3762584178,-0.8967484533,0.1030894225,0.4938955105,0.0367599533,2.9313218479,0.2039585164,-1.2182681377,0.5762238414,-1.0069015476,0.2895111864,0.8425807623,0.1965667836,-1.8670608016,5.962833866,0.3673901776,0.0349368595,0.327626751,1.9146900529,-3.1948980068,23.5651778049,-0.5701209169,0.3814549608,-10.6704112538,8.2624927418,7.4868916507,6.0221145353,0.246782181,0.7295595887,1.5237345615,-4.8984692572,-13.528079011,-2.6792517689,-0.8278831348,0.7973336479,-0.4865603457,2.5473728709,-1.0836802271,0.4035799611,-0.8334768744,-0.3481790804,-0.021598417,-0.7216395155,-0.7278244727,0.6849646734,0.8892809088,-0.4724924926,0.5470278897,-0.3601961594,0.1488707434,0.7602012171,0.856874269,-0.2868373439,-0.6440965563,-1.1945103227,-0.5789628005,0.1838861893,0.7682006113,-0.7117110518,-0.585326803,-1.3896245258,-1.2312791615,-2.1404933091,-0.6769370385,0.9904318745,-2.9039500906,0.6899805725,-0.447705554,0.3409276443,-0.3621431108,-0.0054012227,-0.560474376,-0.6330788225,0.2030250595,1.9101431005,-0.3493188269,0.8860371741,2.5472141856,0.5929356955,0.2003598321,-1.8886992707,-0.8479984708,-0.3923775506,0.5613927793,0.6118101802,-0.1021933675,-1.4983475606,0.3387596591,0.6631049285,0.3904405897,0.2338718629,-0.2174417507,0.4693391246,0.368716509,-0.6425336813,0.332396411,0.8729231499,5.8963240146,-1.0247677226,-0.5748290035,0.3556355344,1.4587608489,-0.845863039,-1.023985349,0.7145255857,0.2007156175,-0.6591861126,0.7519069238,0.5707052059,-0.828744681,-0.0994515768,0.1031105393,0.0536596619,0.0229171089,0.5771590545,0.3012678722,0.2875017001,0.3927146951,0.4935820563,1.3018771088,-2.4415883783,2.2286369979,7.7066655569,-0.9904981889,-0.4366054953,6.2212457014,2.5005167441,1.2536979804,4.1270612842,-1.0291228753,0.938577374,0.4373154848,0.5615034216,0.0636505179,0.6131060685,-0.6475610141,0.4424000302,-0.2434153026,0.3724956318,1.0866881913,0.0130972894,0.5115475607,0.7081522881,-1.8178609869,0.276871939,1.2354654018,0.3848227593,0.6818539789,0.4097352283,1.1792030762,0.830275087,-0.5003725837,-0.1165397609,-0.3937990151,0.8418613947,-0.4860816359,-0.2063240542,0.5341348525,-1.9732412361,-0.0907462817,0.131114363,-2.0156760261,0.7533871706,-1.7386130451,-0.6460265735,-0.1078470491,0.8591176881,0.4192332357,0.2752862267,-0.7269930007,-1.4589474322,-0.7303056022,0.379063222,-1.2088551318,-1.4049944,-1.4254108615,-0.7182266613,-0.6800683216,0.6068488112,-1.2011123935,-0.8797643088,-0.5581626712,0.5474091731,0.388018531,-0.4319246345,0.5749737002,0.1489713244,-4.1179216901,1.0044180249,0.5816396979,0.4821533052,0.7489810956,-1.4620157124,-0.2437271221,0.1707627373,-0.9268311072,-0.3352316216,-0.6096567302,-0.6917566432,0.464230302,0.9579190822,-0.8245260194,0.0299568598,0.1265346558,-0.8326372309,-0.4353537649,3.2735110315,-0.8112722313,0.4730401182,-0.0548305758,-0.1849545323,0.9488924337,0.2116152645,-0.0819261853,0.9156685634,-0.1256556439,-0.1809436192,0.8172374863,1.2730503866,-0.8833478512,0.2942249657,0.9924007722,3.4745949712,0.7606352513,0.5853212258,-0.9354741452,0.2728371521,1.9077186465,6.1785258884,4.0477878559,-0.674796448,-0.9543450078,0.9622500758,0.2424269743,-4.470606543,8.0741068575,-0.2108139414,-0.9834280442,0.4258072613,-0.4947440423,-0.7641198044,1.4069551361,1.9437011346,0.3495054837,-0.7462083743,2.5144861199,0.6697132065,2.094992549,1.7096917513,-0.7488200348,0.9873756743,2.6055105969,4.517559322,-0.1071579461,-9.9645193832,0.7467385021,0.6734310681,-10.4434636865,0.293115139,-9.4691451397,-0.0703253837,0.7809134699,-0.6685524275,0.1741777667,-0.6733192905,-1.5500939602,-0.9985343337,0.8013349866,-0.3861886233,-0.0530620345,-0.1600495175,-0.2123406435,0.8176963343,-0.8890118915,-0.5593072128,0.0074562339,-0.5084372041,0.8874577382,-0.8303935369,0.5218682609,-0.1092066995,0.285360983,-0.4996776309,-0.8993616439,-0.169876647,-0.6266432814,-0.8707979535,-0.9860231206,-0.1889231212,-0.374065982,-0.6379435295,0.0518904219,-0.3463883892,0.8743041572,-0.1815618396,0.0764338544,0.430981181,0.2733761298,-0.3598567721,0.7910391208,-0.2060461312,-0.0117080042,0.0029301283,0.1145505833,0.6700313533,-0.9019610304,-0.0685448896,0.657483837,-0.6479758797,-0.1833651269,-0.3815823932,0.6151058111,-0.9517096174,1.6353652795,0.262393318,-1.9625104914,0.4397456965,0.4561691559,-1.1242890663,-0.4860094845,1.1828392473,0.4370050636,0.7122805303,0.8965392928,-0.3459413013,1.3756535756,0.5616966471,0.7580789257,0.4215767596,0.0187305076,0.1832140016,0.2872072623,0.8842002945,0.1010788327,-0.6642709154,0.4124516057,0.4038102178,-0.1865331703,-0.4900890896,-2.2910140723,-0.3269210268,-0.0913853,1.0672627305,1.735400014,0.2601142578,0.022071273,-0.1094672463,-0.2979841239,0.0659916281,0.4743777264,-0.3543603162,0.4105027033,-0.2284067587,0.0189377306,0.4394321961,-0.3852093241,1.2117521751,0.2039015769,-0.3092666121,0.9859237853,-0.4110196688,-6.0514285789,1.3148843625,-0.317013292,0.8481736105,-0.144025224,0.5795490315,-1.3360931152,8.5006339713,-0.5672232063,0.533894146,-0.7515831821,-0.9054098165,-0.163396803,0.1285816857,-0.5746022289,0.5626207747,0.5586914434,0.3680928841,2.2978657212,-1.3920421632,1.443211559,0.8012875359,0.1943175154,0.2793422522,-1.1983927806,-2.0623479684,0.1106099004,0.3745914719,-0.2067249815,-3.4239256238,-0.2471971682,-0.2071878524,-0.1882725352,-0.3224461672,-0.9189392783,-0.6831308717,-0.4240877466,-0.666092912,0.5968379468,0.24634522,-0.4773342821,-0.3062984495,0.2560838014,-1.1219394517,-0.8779917744,0.5293747212,0.4257248374,0.7307649374,0.6147833834,0.9095902101,0.2729054987,0.6050177261,0.6510879374,0.0286583637,-0.1083277031,-1.0008385374,-0.7616588232,-0.2037585152,0.5870630662,0.6161889125,-0.893663627,0.9009660568,-0.1270032212,-0.6406161729,0.543581502,0.4109789716,-0.6236564462,-0.9465650707,0.7346148041,-0.3143694858,-0.7774653331,1.1410283117,-0.5298877797,-0.390977207,-0.928181571,-0.9591942728,-0.5794670831,-0.7532175407,-0.3725811293,0.8290513721,-0.4826034278,-0.2406134041,-0.3796637959,-0.7750294367,-0.8354255053,0.1699282586,-0.0766908763,-0.1971875116,-0.3727933827,-0.946149387,0.9790667672,0.8417958258,-0.7926072307,0.914866412,-0.0935672044,0.2331408461,-0.4586171452,-0.5726221679,-0.8967476135,0.2693407843,-0.2217237825,-0.7080971517,0.6752975034,0.8632121414,0.1121224761,0.7182777778,-0.8734106355,1.2862108405,0.3877519147,-0.3199411683,0.1925312624,0.2953099634,-0.2226442385,-1.3322144042,-0.4631914598,1.8930659424,-0.3476021934,-0.4682020753,0.2034018891,0.9990604041,1.0411372264,0.7230076755,0.7797828391,-0.4654871183,0.7115309737,0.5026093707,-0.2472632635,-0.4505061906,-0.6438962032,-0.9708647482,-0.2316713489,0.7240624905,-0.1802347753,0.9976542395,-0.2456421174,-0.0070064827,-0.3791094932,0.1028767355,1.4212005612,-0.7536503025,0.5087080517,0.0235888665,0.8687214885,0.261518391,0.0443925564,0.7141118464,-0.0735870645,0.3323716457,-0.8569428053,0.277707023,0.3794757717,-0.5516354673,-0.4727035697,-0.3173840059,0.5498570423,-0.5292438399,-0.1872435951,0.2745542396,0.4548091289,0.2586566177,0.0327193005,-0.2202462307,-0.610400337,-0.4213763664,0.5932242243,0.2803181691,0.3119680094,-0.5718287856,0.3951421273,-0.8639261083,0.723649022,0.1728804554,0.5561617664,-0.2288946978,-0.1634696643,-0.8304979329,0.0333521586,-0.6090783606,-0.5577256091,-0.5138115667,0.6627533787,-0.408885704,-0.8799669272,-0.2867255822,0.7607974648,-0.6082993437,0.277059289,0.1004397172,0.2489997871,0.9208737678,-0.7779852569,0.4074788916,-0.8450490974,-0.5201724405,-0.3313281821,-0.3825594491,-0.3803015526,0.2302819697,1.1049298853,0.1909753439,-0.2957721969,0.5471263232,0.0084774265,-0.8622846387,0.0573628849,0.6059160706,0.067388219,1.04166693,-0.9488728036,-0.7986354801,-0.5267440485,0.5290148481,-0.8691676497,1.0237668247,-0.8079681442,0.3308020962,0.8227118577,0.0699086787,-0.4247664268,-0.9567794451,0.8130678735,0.3006762614,0.3239725044,0.0024098221,-0.1414475104,1.0585870347,0.0281597519,1.0451389629,0.003664219,0.1822651429,-0.0381070422,-0.952278006,0.2727575688,0.347103224,0.1598507999,-0.3141432101,-0.6587278803,0.054110729,-0.6555136114,-0.3974808006,0.0021871701,1.2521498055,1.126217914,-0.8641814835,-0.9487824467,0.5049325494,0.5396763174,-0.5260164082,0.2084727438,-0.6064459447,0.1228118459,-1.0122917102,0.4805839397,0.4848322652,-0.5819919668,-0.1526492839,0.5427845283,-0.5899853869,-0.6664467734,-0.5773432491,0.3095678323,0.8785501391,0.9561422575,0.1285322443,0.9016178887,0.1929401673,-0.2306148688,-0.8925042058,0.3096418729,-0.8431024077,-0.3608260173,-0.7268943133,-0.942340671,0.999836489,0.3807210619,-0.897957323,0.9546711124,-0.4274026898,0.4942688304,-0.6637068456,-0.6486491028,0.9440565525,-0.2020876191,0.4597215601,-0.7076110691,-0.2012050969,0.0830602528,-0.6878889343,-0.5217812843,0.8902123267,-0.4371260859,0.1680975977,0.2493820911,-0.8118037878,-0.7878884867,-0.9151937532,-0.6361270163,-0.835742209,0.9819716286,0.9440407554,-0.4325401734,0.6399874867,-0.0936587172,-0.6961440684,0.1866463734,0.3307904598,4.2706464897,0.012716167,-2.9696477838,2.8201702412,-0.5024840425,0.3847115205,-0.1717149009,10.1473825326,2.9844594833,-1.1938442872,-0.5447064725,-0.1343727674,-0.051565533,-0.3761748524,3.2381631695,0.3511406575,-0.747261738,-0.6496415534,-0.963706717,1.0064604033,0.2500297263,-0.1764227505,0.2487845621,-0.6399151613,0.2823511601,0.0822475643,-0.0650156579,-1.6640083394,-0.6291560376,-0.9451970818,-1.0715626147,-0.0269537916,1.0024081348,0.8828171474,0.774020456,-0.7069815887,-0.5818623538,-0.3233810045,-4.4254191156,-4.4420184946,0.965656338,-0.9120769823,1.8364842638,0.5436805167,0.9603477044,-0.13925966,-0.7458717732,-0.0086944554,-2.4476663016,1.5939769608,-1.3289273199,-0.4116382684,-0.9432961701,0.4364474134,-3.382692401,-0.8106084938,-1.7310679878,-1.592291419,-0.0819737283,-0.428747457,12.0387635827,-2.6792990621,-4.8046806083,-7.8119981106,-0.7176690958,-0.3871383914,0.3918816291,-5.2842076786,22.4898672901,3.6265627354,-0.3664397064,-0.7449993273,-0.0426660932,38.1062127278,67.3425593795,-280.3332120703,-0.712447968,0.1593141944,1.2534436625,-0.155893655,3.5460574989,0.8354448581,0.0589485024,0.0619324107,-1.0213832864,0.3812119421,1.0886131287,-0.5687896372,-0.7297405064,-0.473476904,-0.4914307148,0.9463796764,0.4426899934,-0.5968520227,0.5342742471,0.8750776945,0.1175961082,0.338701262,0.2288053841,-0.3546989541,0.3966037279,-0.6723181741,-0.6814525698,1.542924204,-0.0308400016,0.9474831619,0.3337113312,-0.1174798276,-0.2473248212,0.9690937676,0.6440283373,0.2832195665,-0.5860376103,0.9673657323,0.4234010255,0.0571386516,-0.6495298885,1.7570329597,0.4411405747,-0.6061965456,-0.2136454131,-0.4052370206,1.7322367186,-0.4380149814,0.7598825687,0.6454382481,0.1676539915,-0.0197772778,0.7924815706,0.7892056008,-0.4453891262,0.0313373614,0.8511917472,-0.526431062,0.0327689766,-0.4379418593,-0.2532429188,-0.2640428566,0.062246725,0.3714200782,-2.7420049436,-0.2041478502,0.8343959527,0.2968041745,-0.6002220977,0.033180402,0.1219539488,0.8705783072,0.5295423945,0.5410807745,-0.2453636278,-0.7951255369,-0.5222631901,0.7759866205,0.9142308438,-0.4874351141,0.3772213779,0.1020413459,-0.6052263517,-0.8540642148,-0.7700590579,-0.5800256678,0.4453793028,1.4977217085,-3.0435667436,-8.9707675542,-0.2812759139,0.1380654496,-10.1175908581,-4.437733982,-6.8915534114,-1.0312233711,0.232071111,-0.7072839053,-2.2699871576,-0.6384931495,-0.4441129425,-0.0966669532,-0.465889461,-0.5387569708,0.796559316,-1.1087494713,0.1630819349,1.1219081616,-0.544148851,-0.4807963246,6.3709867883,-1.4755728482,-1.1773446178,-1.0341379359,-0.0913869507,0.6649322508,0.4255218127,-0.5775345032,0.4637144133,0.4912716392,0.2215625536,-0.8469397263,0.6489931429,0.4560219068,0.3121844286,1.2249291206,0.7205786616,-0.7317285506,-1.1475030068,-0.4860716957,7.75746502,-0.8081078898,0.9987883464,-0.429459075,0.421034832,0.5740887788,-0.3918137093,0.8070500453,0.2675817283,0.9431089236,-0.129149374,-0.1802917871,1.0474746075,5.8184376984,0.0205621487,0.4744387509,2.2426293856,0.2219957242,-0.343715437,0.761181701,0.4311210758,0.7054091802,-0.6607019956,-0.1413227441,2.3335250167,0.6349452942,0.9491450579,-0.7270087922,-0.0585392718,1.4655208246,-0.4971402796,3.4392155196,-0.0126383113,-0.5183408116,4.0095998579,0.121202363,0.8013277098,0.6988645692,0.1565076569,-0.16621366,-0.0351594497,-0.195624875,-0.2240392342,-1.9821353905,0.8559390304,0.0502746288,-0.3351278732,0.4883353877,-0.9659516244,0.7366651303,-0.0356988084,0.6126690263,0.3627487969,0.9795208219,-0.3902064206,-0.3598530006,-0.1734990892,0.3580061418,0.0061702796,-4.596829023,1.0078570799,-4.9927469737,-0.2751098485,0.1576472313,-4.5243636395,-0.8423829192,-15.1474620698,-0.1371791692,-0.8817252296,0.2113455792,-0.7326491616,-0.5720874724,-9.2571044304,-0.4309339605,-0.6380827359,-0.0122017436,0.0099085573,0.225045398,-11.0756116666,-10.4466114657,-0.8363787752,-0.6570677464,-9.7034727909,-2.7420579259,-0.8512602838,-0.6149820878,0.8021939319,0.8471749889,-2.6745621174,-2.6008463735,0.4959673482,6.6312092409,0.8307507156,0.8529591894,6.0734929803,0.3040650954,5.569198606,1.9326898891,0.189904968,0.333712151,0.4940063257,0.6092485966,1.0991559019,0.0384062677,-0.5252486421,0.0255793702,-0.3175232573,-0.1016681894,0.751431089,-0.6543123771,-0.3943536333,-0.0968674481,-1.0018078763,0.0051523809,0.655554897,0.54735825,0.6340726652,0.5203119924,-0.3482671803,1.0038039255,0.8455090903,0.0338004452,0.5922759231,-0.7521466637,0.2406200065,0.303434733,0.6114826601,0.6629477302,-0.9914726611,-0.0615512881,-0.9144480548,-0.9222105177,0.2976564653,-0.9183544261,0.4678740296,0.0508922354,-0.8749426972,0.4523665977,0.1589120167,0.6010496447,0.4337858304,0.7644598967,-0.0928956619,-0.6162772537,0.7947763429,0.5050654477,0.6415021185,-0.8852261851,-0.3576109773,0.1928162605,-0.4633656397,0.3833164098,0.7519304337,0.4302506464,0.0814902214,-0.0083122242,-0.8020293811,-1.3991345919,0.5635802173,-0.9596902811,-0.95388304,0.6222230845,0.879812422,-0.1323678147,-0.1642569952,-0.9805187175,0.5559821642,0.2160616577,0.0776066991,2.3182990439,-0.3491385577,0.6057386815,0.5229420076,-0.3049568722,-0.5281648853,0.8125691024,4.1948918459,-0.3500244025,-0.6155812341,0.4635279535,-1.4536925204,-0.0072633343,-0.839210678,0.2362922858,-0.4526294573,0.6672211417,1.9190334978,2.8599320886,0.6408191362,-0.1397247735,0.0490578702,-0.9924223629,1.4661105045,-0.9209762549,0.488383064,-0.7999354884,0.3408571864,0.7187816319,-0.1657019587,0.5160257143,-0.1855741411,-0.1059149416,0.6013711869,-0.7208364028,-0.6691078521,-1.7914407874,-0.4728092654,-0.7269073173,-0.5149139493,0.066572612,-1.1640971427,1.4467829436,-0.8076396588,-0.0674965315,-0.2871744568,-0.2647970661,0.10532194,-0.7584573652,-1.0904864823,-0.6792495329,-0.5897480092,-0.6351553648,0.8726639557,0.5812398085,1.7271093371,0.8565371345,0.6006641343,2.7210011883,-0.7825871326,0.0238998955,0.2964146011,0.4193445575,-0.2416581466,-0.6863445386,-0.4473041477,0.3409198694,0.4684462087,-0.7985243711,0.8286877714,-0.9610742872,0.8063870068,-0.3779492926,0.7168866357,0.6398250949,0.6214157279,0.5489026926,-0.2931731058,0.1738134918,-0.1995407155,0.1111050932,-0.0169638665,-0.108821513,-0.2748251092,-0.253232485,-0.1344536731,1.0357098164,-0.3451118051,0.0164062766,-0.1521800965,0.5815905098,-0.5726313957,-1.0473146662,-0.7770309832,-0.5655800744,0.577563854,-0.0732125776,0.8426330325,0.4979778847,-0.9341904216,-0.4879568999,0.5043647207,0.7654897322,0.1611476185,0.7125807076,0.7066475853,0.3520950516,-0.081542955,-0.1218538066,-0.2125246612,0.7576093378,0.4761471945,-0.1958007565,-1.0095592926,-0.0630086562,-1.0656818364,-0.8926028474,0.8919156186,-0.6050474971,0.3596237402,0.068133555,-0.9117366916,-0.6908605773,-0.3389334,-0.5143009637,0.5856022863,-1.388703742,-0.0598148348,0.3271139725,-0.2879192355,-0.3380211826,-0.5020963765,0.2965376817,-0.3284702577,0.0855079812,-0.8377871543,0.8208103643,0.300017751,-0.4287814123,-0.0103313815,-0.4440627364,-0.3733042116,0.5755994669,-1.1067204153,-1.0798148714,-0.2642461321,-0.0626113323,0.775991724,0.8218929607,-0.9197612189,-0.6170170277,0.055321462,-0.4732765278,0.5473398223,-0.8757600021,-0.4413520466,-0.8103754814,0.0020723069,-0.5063692731,-0.0831489815,-0.4534089769,-1.0219810898,-0.062913655,-0.5538939575,0.1511327867,0.6383996151,0.5614264827,-0.8768297724,-0.9125574359,-1.1047142176,-0.632292717,-0.1444382435,0.5558210497,0.1846729236,-0.1579631271,-0.3009105221,0.7219126245,0.9928507835,-0.081142174,-0.6935872629,0.01106936,0.6317785722,0.3515497051,-0.1675005435,0.1924927427,-0.7282131238,0.1100717916,-0.968895066,0.4675182848,0.1830390608,1.0228513712,0.4885687581,0.1790152862,-0.5263122836,-0.7066275508,-0.9540746205,0.7362298388,-0.8171984381,-0.6496131965,-0.6002866349,0.3601192234,0.6864615485,-0.8136677759,-0.603684014,-0.4037910485,0.6674747405,0.1288901368,0.5152677792,-0.3877136731,0.6042389321,0.2299092434,-0.8748232359,0.9626939092,-0.8134520363,0.4018601235,0.1716043721,-0.9610299417,0.6984184004,-0.2979110373,0.8194031503,-0.2960612309,-0.3810041036,0.3312514219,-0.9463482888,0.4372595345,0.7484418928,-0.9023054477,-0.1470466719,-0.0916548961,0.7195117868,0.3756687138,-0.2900625198,0.5867362123,-0.4399801377,0.0749134911,-1.0095578231,0.6844999728,0.8697820373,-0.818293495,0.3841666939,-0.0777384742,0.3867372258,-0.9187098801,-0.4005125008,-0.4391840128,-0.6603134833,-0.0469830051,-0.7036528542,-0.4238428988,-0.5935165334,-0.8059947895,-0.4320085544,-1.1219319855,0.6204946282,-0.1648738524,0.9249619294,0.4529876731,0.3853498216,0.672037931,-0.2255276876,-0.1526863115,0.3735188684,-0.152369894,0.0702124702,-0.462010545,-0.0439752192,-0.639101458,-0.6141572661,-0.9237539318,0.6517300247,-0.8867342171,-0.1418335369,-0.3821258306,-0.3793002042,-0.2495447124,-0.3567876847,-0.6873413902,0.8487062737,0.7004798646,-0.9425336302,-0.3767125902,-0.7676810671,-0.5455980593,-0.6639115805,-0.4666436963,0.3834579206,0.7591655292,0.1357176819,-0.8320143703,-0.7857511308,0.0975103951,-0.6206949643,-0.5934887269,0.1597906989,-0.8763285435,0.0996338302,0.278073065,0.7086262807,-0.6896933212,-0.0290587409,0.9522737453,-0.3668599064,-0.6351135007,0.018247922,-0.3572979719,0.888764742,-0.8796235195,0.9045297068,-0.6313203561,0.7552205317,-0.2255490032,0.0713642361,-0.3103422151,-0.1673907782,0.0778002199,-0.3931175387,0.052044922,-0.0218500677,0.2169211726,-0.9292270497,-0.5787018935,-0.029779804,-0.247575285,-0.8221243613,-0.6048386732,0.1294497093,-0.8302260993,0.3567755791,-0.6275802033,-0.1031332212,-0.3831774188,0.1669861512,-0.3377035969,0.1393499142,0.3779851274,2.6274306274,-1.7532327325,-1.2054529172,-0.3715546542,0.8608852227,-0.7718679516,1.3683289863,-0.7242759147,1.7741560856,-0.4979317849,0.2999741239,-0.7696709225,1.1345688581,-0.3913150042,-9.1528002113,1.9003365209,-0.6668692594,-0.4015294184,14.8437250429,16.3069261389,0.0561669086,1.9743423097,0.816013488,-0.8935286256,-1.944191046,2.9448099568,-0.3848278523,-1.9934446642,0.1390350827,-0.6811424626,0.7645351693,6.4194808905,-0.5442081715,0.9058179953,-0.7727838765,-0.8290333862,-10.0690427542,-9.4095364406,0.5153690191,-0.765314479,-0.737055299,-0.81999282,-36.0040827312,0.0763406905,0.4255172113,-1.1663688519,0.50237844,-0.9317722099,-1.793751183,-0.018833798,-1.3724939986,0.5368512276,0.3190637675,0.0794452969,0.6918268964,0.2337645922,1.6738550427,-1.0441587408,-0.7164445997,0.7701825464,0.1383040917,0.9601455719,-0.6925148311,-1.0067198725,-0.3890407622,0.5566654486,0.5425544197,0.1676905623,-8.1038902165,-1.4446566729,-0.4120237652,0.7989294233,-0.6472354252,-57.8892989215,-1.5780015097,-30.0173740823,0.1678081659,0.7032852193,-8.6580244198,-0.550754377,0.0880237791,-1.3570560051,0.1789418157,0.8243941108,0.3293462305,0.9309104656,-0.7070431588,-0.7692614671,-0.9849754533,0.4482024667,-0.2043242186,0.4699490375,0.3149217861,0.1141156372,-0.929239406,0.636985697,-0.2701818449,-0.9215683811,-0.2109304686,-0.252636326,-0.0457342739,0.217751572,-1.0021403565,-0.8049948483,0.75697663,0.2782038749,-0.7065042276,-0.5047470817
