encog,BasicNetwork,java,3.2.0,1,1375788613506
[BASIC]
[BASIC:PARAMS]
[BASIC:NETWORK]
beginTraining=0
connectionLimit=0
contextTargetOffset=0,0,0
contextTargetSize=0,0,0
endTraining=2
hasContext=f
inputCount=354
layerCounts=2,19,355
layerFeedCounts=2,18,354
layerContextCount=0,0,0
layerIndex=0,2,21
output=0,0,0,0,0,0,0,0,0,0,0,0,0,0,0,0,0,0,0,0,1,0,0,0,0,0,0,0,0,0,0,0,0,0,0,0,0,0,0,0,0,0,0,0,0,0,0,0,0,0,0,0,0,0,0,0,0,0,0,0,0,0,0,0,0,0,0,0,0,0,0,0,0,0,0,0,0,0,0,0,0,0,0,0,0,0,0,0,0,0,0,0,0,0,0,0,0,0,0,0,0,0,0,0,0,0,0,0,0,0,0,0,0,0,0,0,0,0,0,0,0,0,0,0,0,0,0,0,0,0,0,0,0,0,0,0,0,0,0,0,0,0,0,0,0,0,0,0,0,0,0,0,0,0,0,0,0,0,0,0,0,0,0,0,0,0,0,0,0,0,0,0,0,0,0,0,0,0,0,0,0,0,0,0,0,0,0,0,0,0,0,0,0,0,0,0,0,0,0,0,0,0,0,0,0,0,0,0,0,0,0,0,0,0,0,0,0,0,0,0,0,0,0,0,0,0,0,0,0,0,0,0,0,0,0,0,0,0,0,0,0,0,0,0,0,0,0,0,0,0,0,0,0,0,0,0,0,0,0,0,0,0,0,0,0,0,0,0,0,0,0,0,0,0,0,0,0,0,0,0,0,0,0,0,0,0,0,0,0,0,0,0,0,0,0,0,0,0,0,0,0,0,0,0,0,0,0,0,0,0,0,0,0,0,0,0,0,0,0,0,0,0,0,0,0,0,0,0,0,0,0,0,0,0,0,0,0,0,0,0,0,0,0,0,0,0,0,0,0,0,0,0,0,0,0,0,0,0,0,0,0,0,0,0,0,0,0,0,0,0,0,0,0,0,0,1
outputCount=2
weightIndex=0,38,6428
weights=##0
##double#6428
   -0.0683613185,-0.2283329107,-0.0571392989,0.4347912102,-0.1846201274,0.154139273,-0.1833233692,-0.5808250912,0.2292323115,0.1408493169,0.1998851998,0.2548294189,0.1970019497,-0.0742422239,-0.0946591425,-0.0145424802,-0.2582566622,0.3938462786,-0.7075591795,-0.2263207226,0.0691836244,0.0871894136,-0.7604274787,-0.0836568672,0.0529810004,0.3370012946,-0.3395611698,-0.0894602616,-0.5517258063,-0.1942452616,-0.4059742571,0.1182203343,-0.0661848163,-0.0301732799,-0.108768983,-0.1419873368,-0.2553193966,0.6647988218,0.398224028,1.9014548277,9.5670388073,-14.7282984561,1.541450573,0.2372997682,0.2008444184,0.6069286571,20.4253811456,-36.0430537403,-9.5665016827,0.3229067293,-0.1549970302,-13.1116843675,-4.0507246708,-5.4574477711,-1.4686524697,-0.2443134795,-0.5639321804,-2.0996716613,-22.4996042917,-34.1051323558,0.0196804446,0.381433917,0.368461976,-0.0317028126,-23.5259185463,7.8204683057,-22.1093481744,0.8544066232,-0.6541950815,10.8865423302,3.70491958,24.0310704557,12.8947899338,0.0137487416,-0.7727739234,1.6949207987,-2.9966352855,9.955399297,-4.72388398,0.6316440116,-0.3938998207,0.8696245822,-7.3952150855,-2.5113402147,8.6747444097,0.2702405748,-0.4725455176,1.8211876632,-4.9815048876,-6.4644162932,-2.7159660227,-1.0357439334,0.2502978706,1.7193453641,25.7692495396,-0.9766634397,-6.6869298661,0.4609814154,-0.5388781671,28.1165629472,-39.8733148699,82.0279021079,101.1228760005,0.8391727757,-0.1551766842,37.6185671052,-34.1395109603,-2.923937688,-1.865848399,-0.8110625354,0.4192994481,-0.0215265845,3.4955790189,3.6655027165,-0.349325387,-0.1171661167,0.5399641434,0.6285731166,3.4508970782,1.556609909,-0.9410618,-0.1833698387,-0.0195634234,3.0274513745,1.2184645492,6.1772026333,1.9744196222,-1.0066563774,-0.0043484642,1.9303861796,3.421172622,3.0894476103,3.6912336201,-0.3977111547,-0.2263583522,2.8380960643,-1.3725015501,2.2211166105,-0.7279134341,0.3761120041,0.1822414809,-1.1024903816,0.4362073704,-0.2916582928,0.1976525612,-0.0918806921,0.2169635204,-0.3156303506,0.725053725,0.410468629,0.7602608696,0.5972247899,-0.9437039794,0.6278883435,6.4541901196,-1.4341563442,-4.7558681799,-0.0455822767,0.1306727325,-3.7039900445,1.7066296553,-1.5631740142,-0.5055019319,0.4981481124,-0.8886354976,-0.7225704021,0.4031634784,-0.1573700873,0.2762111912,-0.2070225422,-0.774457248,-0.5813757488,-1.0616264575,0.1093792378,-0.4761734603,-0.1090165764,0.8037648278,-0.6446770564,-0.2358932053,0.2077644985,-0.3753784709,0.678351067,-0.5338687729,-0.8954163058,0.2673553411,-0.6725421667,0.841944134,0.1348852764,0.8533647026,0.2131519793,0.4768564534,1.2234630595,-0.3604124697,-0.058421047,-0.6909387652,0.8112728196,-1.4332213989,0.2929814354,-0.7052851296,0.4546677919,-0.5806371123,-1.3942651001,-3.8885159007,-0.8578621556,6.5278862804,-0.8572126041,0.8163025326,6.0613076335,4.8137780762,1.104720715,0.652867476,0.8305812561,0.1510704496,0.1214822677,1.2989837143,-0.795575145,-0.3844410177,0.5681326454,-0.3565471936,0.0715623934,-0.9695340271,0.2450608705,0.4111909945,-0.1869543684,-0.8863079921,-0.2780343057,2.6016656247,-0.3663899731,3.4702589698,-0.3092516368,-0.0969810764,4.5900441986,0.1200410664,1.8655243945,-0.619186557,0.1077900103,0.5891069884,-0.6049827444,-0.7601271175,-0.1590137038,-0.0806895112,-0.2904602917,-0.0973018202,-0.7134350264,1.2358415266,-0.8510232081,-0.3010143746,-0.0376443068,-0.2483491301,0.7806191225,1.002692895,0.6368311697,-0.1905603478,0.8367076932,0.7586595512,0.9455192564,-0.2223974002,0.0765543372,-0.3844604436,-0.7106795256,0.2188964376,0.0807435279,0.1402812984,-0.0039912534,0.4297477442,0.7547368669,-0.1161750573,0.0635260512,0.6580855922,0.1558004163,0.7861240891,0.0543389197,0.4774350303,-0.0765314067,-0.0930727919,-0.2655244788,-0.4223282176,-0.1891343428,-0.64884956,1.5089845638,0.7188592816,-0.1616591719,9.0900562012,-0.7198589744,-0.8163422086,8.5006045821,-0.2732877639,0.6721288905,-0.2427658415,0.0107161247,-0.868092442,-0.3959153137,-0.2778019736,-0.4439506589,-0.1030877774,-0.9711376236,-0.6604630799,0.0023552882,0.9620905781,-0.0257779165,-0.022511886,0.9838920893,-0.7910355088,0.0018589134,0.8643539063,0.0364960613,-0.741455991,0.8216914025,-0.6565930807,0.9270974462,1.1095387939,-0.782583859,1.1086721361,0.2842688161,0.5650673641,1.6564870174,0.8436990069,7.2630473388,0.4898322232,-0.7100157895,0.9157458472,0.2492881438,-0.7040436819,-0.463949458,0.7130950779,-1.0212021595,-0.9538785202,0.1923644418,-0.6482337693,0.4989184828,0.224179033,-0.4470432362,-0.1000434346,0.9208566874,-0.1785783173,0.8723158436,0.5531911214,0.532696823,0.0994725731,-0.6149516233,0.5932575406,0.0291725293,-0.6992335476,-0.4913824435,-0.061852008,-0.7777274136,-0.3303931703,0.0218723835,0.4051622587,0.8392262976,0.3871880567,0.081915741,-0.8850851346,-0.7288190907,0.3946966375,-0.6893514088,-0.9780836516,0.6558861812,-0.2830350592,-0.5965277581,0.5356304201,-0.2522715588,0.2743382735,0.9241340992,0.2439549679,-0.8767774786,0.1645079499,-0.8363345878,0.918126412,0.0683226763,-0.2860417161,-0.9644217334,0.8838134535,0.4346902214,-0.8077222538,0.4689322026,-0.6385065827,-0.8883159569,0.5193233623,-0.7343329618,-0.5303072371,-0.3673717612,0.8238144613,0.2672401417,-0.7789191679,0.2789493829,-0.1230735722,-0.3444591751,0.5114164815,-0.4928438884,-0.6226861968,0.223087338,-0.2286389619,0.6737488832,7.0610830341,-11.8582948863,4.790244112,-63.1357584962,-0.7841806002,0.4612084075,-3.2705158499,23.5723000572,0.7499390638,0.3419975396,0.5810414005,-0.7951416313,-1.9390006657,10.066694369,0.5253951188,0.435859631,0.419302674,0.8182925366,-3.9722397829,-1.8432690012,-0.600878764,0.3174413911,0.4214660167,0.5697418254,-0.6705101833,-0.9619685547,1.0238869399,1.9513914422,0.1303168826,-0.5349911335,-7.4175559674,7.0505844615,2.9996089581,-0.216602025,-0.5414997792,-0.3168630464,1.7458433281,-0.3925410795,-0.8761980727,2.79893609,0.3261081765,-0.1539366389,-1.6711421188,-2.0739947331,0.5891220806,-0.2027268776,0.8596426062,0.4035070415,-2.1773037179,10.1335742914,14.881388935,-0.5877527689,-0.8265242682,0.9143406943,0.2926739246,-6.5879858547,-26.4185758623,-2.2592981931,-0.656589293,0.505697212,0.4736267498,18.0530528058,-7.2121841759,-36.9900180503,0.0333784993,0.2910605005,-29.651031071,17.9884629299,2.9725003328,-77.206521272,-0.2967348342,0.0285906742,-79.7069333361,3.722524465,13.0654408066,-40.0781093732,0.2243196795,0.8009336263,0.5071135036,-1.2579755936,-0.0923127333,0.5666928793,0.2337905425,-1.0022350267,-1.5245938982,0.0903622449,0.5152669999,1.0286119655,-0.0371861792,0.3823183782,0.6377982971,-0.2356376711,-0.4558950201,-0.9180234492,-0.9545706402,0.5231482412,0.4551387197,1.8669296278,-0.5398791871,0.2200024252,0.3996006963,-0.627623226,1.3002433571,1.8578307384,-6.0936829857,2.10448354,0.0902637048,-0.7283245563,3.0553558338,0.7555300392,0.5260158868,0.7230730136,0.2345312124,-0.8327692073,-0.464747742,-1.4815531013,0.9718506666,-9.6238816379,0.0009003184,-0.6850553654,-0.8606164631,0.4198902078,0.950157995,0.7172099195,0.0973886845,0.2571186244,0.5581762842,0.8774837843,0.8842757327,2.5174339041,1.0004219819,-0.6481267973,1.3922061691,-0.1611599988,-10.3113751714,0.0191439713,0.0777294361,-0.3634490813,-0.3966185614,-0.9631709621,-5.7208798302,0.3602381051,0.195866701,-0.6936458773,-0.3751552058,0.6241623735,-7.0453100122,0.4834954386,-0.6093202279,-0.410532962,1.0950683166,-0.9539358463,4.0932065989,-1.5546491549,0.6184456631,0.2999122056,-0.6062856757,0.7846557677,-3.1208833016,-1.6428583682,0.6427599091,-0.1506086955,-1.5406810681,-0.1205245845,-18.9528917546,-0.1577489579,-0.6724508714,-0.0006396522,-1.538862696,-0.4721761698,-13.2018213503,-8.5365336902,0.3330751623,-0.8654107485,-1.5879270865,-6.3219080303,0.0535799805,0.7856230415,-0.1007322731,-0.6605442181,-0.5097774126,-4.5047065173,24.0901880433,-1.1599161642,0.2796084554,0.058223874,1.6156111142,-1.1114913665,-12.2373669361,0.3449390673,-0.0896128256,0.6205563273,-1.264158699,-5.6528792021,-0.5220304158,0.7087122252,0.0063586256,-0.5864881235,0.0169147409,-0.4523036007,-1.842774698,-0.7558394519,-0.5212682497,-1.0187233627,-21.2773681969,1.8612297316,0.9947198492,3.3970177959,0.2669484214,-0.1661200741,4.5823667161,0.7443643824,1.9179711856,0.5282768227,0.0698614875,-0.7538555465,-0.2607014281,3.4519020668,41.2470571031,3.1940335514,0.5449805156,0.8281208992,4.7444709184,1.2461492903,1.6199592327,-0.6794801696,-0.9801162026,0.148256852,-0.4969405211,-2.2344331193,0.7035690566,-0.6593755523,-0.6151701061,-0.809449866,-2.0124528615,-0.1985861473,-0.2064892216,-0.2383318732,-0.4797480659,-0.0730635052,-0.8833027002,0.0917931152,-0.6128690316,-0.064742003,0.916369046,0.7861616805,-1.0390918419,-0.8524472719,-2.3603143673,-1.1771838256,0.3676032928,-0.6996121197,0.2272576967,-1.5093585065,0.6309048286,-0.7542413345,0.8357759928,-0.2892154524,0.3400112601,-2.8154033674,-0.8420010472,-1.6711273094,-0.1478601882,-0.1866464069,-3.0359821456,-8.0011512642,-3.31429928,-3.4496647483,-0.0455872284,0.8262389571,-3.4999275686,-0.6854627687,-11.8211873703,-0.2923016879,0.6631305222,-0.4402294471,0.8425977044,9.4930418664,-41.2021130005,0.8449226953,-0.0516819325,-0.32950741,0.675099358,-1.9877008846,-14.6548699635,-4.0641341195,0.1724433287,0.2804262663,-5.6558727742,-2.716187744,-18.0807236092,-6.5187022693,-0.3691142146,-0.2571831601,-37.4961321443,0.2934409742,-0.9706935757,8.4196778254,-0.7384001153,-0.1643849252,0.7863822924,-0.2753399353,1.455427475,36.6509511248,0.8068258292,-0.8360569399,0.7181350549,0.376730521,2.9460287956,0.1376494354,0.078372264,0.0527944068,-0.1200675279,-0.3791765293,-0.6663161994,-0.8985416706,0.3314989113,0.7112188161,0.3451125556,-0.0239649714,-0.0378123209,-0.9684602689,-0.3760127679,-0.050758974,-0.3713308447,-1.0004777867,-0.9495843468,-0.5140683702,-0.8264853445,-0.7712358679,-0.1557114724,0.6035132471,-0.2456412561,-0.0220560191,-0.9983195258,0.3297072823,0.8322421453,0.6539944764,-0.0108747884,0.1340076017,0.5284224702,0.4126277461,-0.0699834194,-0.1856007179,-0.7175441594,0.7325540789,-0.5498098289,-0.2409226386,0.0024043523,-0.0366057636,0.3735404843,-0.3365731241,-0.7310016142,-1.0290566456,0.7440623389,-4.0515853989,2.7641468204,-10.0032341475,-0.4855881963,0.727624888,-0.3170536471,-0.3013514819,3.3025855362,0.0705902677,-1.4788896035,0.3739863962,-0.9388581584,-0.7683855573,0.11355707,1.4123954503,-0.9507875322,0.6956820953,-0.2117495065,1.5506852202,-1.1186409625,-2.6529733738,-3.7248219743,0.5454246973,0.8238541604,-1.3029739353,-0.3532740038,3.6771048426,-0.8082468044,0.7942284602,-0.6451169787,0.5051261118,-0.2250586211,0.2134520333,0.634297334,0.5060973246,0.7210306236,-0.9428758496,-0.7345826819,6.7638923628,-1.7307792646,-0.3889344686,-0.755534207,0.9639088914,0.4179177556,-1.4251287629,-3.0181965468,0.8248122178,0.6200914279,0.2836761023,4.3567257009,-1.5803031526,-0.2706984133,0.1696319725,0.0226001579,-3.2391420788,-1.6539022213,3.7106558358,-0.1868427486,0.3868110532,-0.413423113,-47.5054939693,0.2819674611,51.6795394846,0.4694445302,0.5074463511,0.4158982065,-0.108289074,-3.1258107544,0.155664143,-0.4736430155,-0.081853329,-0.2213213177,-26.4088140004,1.1079415959,-8.624378383,63.722347968,-0.2144795379,-0.355985978,19.0928744107,-1.7903236972,6.4406566162,-0.8976790196,-0.2568327402,0.2167711116,-0.1594057144,-1.2894202035,-0.1616832101,-1.4414933119,-0.9896531487,-0.3733250698,-1.2499307742,-1.1347015405,-2.8005074296,-3.2222092966,0.1169129395,0.4279423401,-1.6439393777,2.2529684436,-10.7416192276,2.6170805899,-0.4509885231,-0.9342872515,2.2022722352,2.7096018848,-3.2510680929,-0.3881092663,0.4139008701,-0.0344743499,4.4806906983,0.1519062704,2.1641365886,-0.4599353803,0.1590554783,-0.5979049629,0.4114456021,-1.443539697,1.0745788575,1.1821766484,0.6787146777,-0.1963693084,-0.3806384939,1.1632538276,0.7888674006,2.3914013007,-0.8120911451,0.6479563479,2.0764409528,0.8528866191,0.1007604253,1.024694066,0.5179034553,-0.3933252687,0.2989501701,0.438266095,0.3755248814,-0.6018111317,0.7275395247,-0.9063705257,0.2503572291,0.3191755994,-0.6788515578,-0.0802667212,-0.8286080047,0.8739139037,1.230454478,-0.6672386832,-0.2871417196,-0.9382929607,-0.7929261702,0.889676704,-0.2959860909,-1.1488886745,1.1265982016,-1.8997630777,-0.6663851032,-0.0410255411,-1.3744246768,-0.9707901041,-0.9755097701,-0.6653342632,0.6192664766,-0.4960789358,-1.8878318964,1.4352119487,-0.8089275275,-4.1785933658,-0.9608530675,0.9643840165,-3.2628413605,-2.7799849516,-2.2587565103,-1.9298062863,-0.1195878979,1.0534775769,-1.2172898105,-1.2211983117,0.1333403762,23.6572372305,0.3019480533,0.5111028113,23.2429112005,-0.3788749659,-76.9308547529,-0.1449094876,0.0929006233,-0.4882154962,0.3681255139,-1.2094410815,-0.894024078,-0.3880615718,-0.0293096559,0.3830549464,0.6582184452,0.6953028164,-0.5770809949,0.2523988773,-0.400065257,-0.2093653989,-0.5134041336,-0.2410785987,-0.7768420698,0.9683280385,0.3288860033,0.0466596416,-0.4588811883,-0.3955218453,2.7798246029,1.4686216749,0.9307518972,0.6972063658,0.6737704049,0.7590958838,1.3214500322,0.7278647884,-0.8373043582,1.0453624846,-0.6201267187,1.20665509,7.3423108701,1.2265453195,0.250268076,-0.2339047132,2.0582318004,2.2428619871,1.0716766896,4.1434273003,-0.4309603153,-0.7308333213,3.8230639851,-0.5365038479,28.3389070625,0.2298063611,-0.2899601366,-0.0336549033,-0.5163779212,-0.4921555921,0.0937990351,0.4737704817,0.2301376264,-0.9008357036,-0.0444742563,-0.610471073,-1.9243830079,-0.3939353131,-0.2117165895,0.2834790189,0.3171418655,0.5227288168,-2.9795159854,-0.4728434555,0.4026077676,-0.5729324738,0.0781328389,-0.3198136104,-0.6225951284,0.0537176564,-0.4654171972,0.1765310194,-0.8379464401,-2.2898149167,0.7131411488,-0.9161458048,0.6826030429,-0.4502600761,-4.4532093536,-25.900707934,-2.8883939253,-1.288460461,-0.4871028506,-0.0899229434,-1.6626759833,0.9243241721,-4.7844551163,-1.1405099068,0.6581368937,0.9387276628,0.0129066668,1.0361018831,-63.8097167719,-0.2099948698,-0.4227541653,0.7612663311,-0.7053659063,-2.4515362498,0.712031976,-8.0602898624,0.9169414804,0.8847907828,-8.0070420654,-19.8129031756,-11.8614546833,-0.4934593564,0.3407323029,-0.8981474652,-2.8392688329,1.7359665137,-0.6279207122,0.9921130978,-0.6920141806,0.0174344412,-0.0239579596,0.9614824772,0.5318138696,1.3430868253,-0.8518813337,0.3552251037,-0.9064200002,-0.1419607681,0.2609376953,0.8651431435,0.0602740028,-0.3005598368,-0.4554565553,-0.0524123714,0.6671138629,-1.0531387157,-0.7540075225,0.828440464,0.7945867963,-0.7973585887,0.4520609899,0.298666599,-1.0505413268,-0.7036029095,1.0339609869,-0.7392069413,0.0734105722,-0.4057030411,-0.7209312975,-0.5807467154,-0.621655228,-0.4183072517,0.0673056056,-0.7547691161,-0.9286767901,-0.6787667679,-0.8543998137,-0.739266816,-0.267126024,0.3412654258,0.0537860224,-0.8018522723,0.7919297683,-0.7118216636,0.2601210175,0.5900860232,-0.9011528664,0.4537467145,0.3934386036,0.789514722,-0.5164827223,-0.93358265,-0.2054712552,0.8653686968,0.6317873711,1.4803564226,-2.3890178468,2.2285322112,-2.7757505411,0.4292570058,-0.3413680214,-0.805294865,8.3165842589,0.8496605244,2.0320079886,-0.5336019468,0.1677326114,-0.3860491703,1.9499661906,0.7314941989,0.9514290969,-0.2179457108,0.1696869751,-0.4259821013,-0.4240571465,-1.6828722107,3.2169572697,-0.3773767721,0.1268368551,0.2111084721,1.3270025796,-2.7595921691,1.8719629868,0.1112432392,-0.0261020008,0.6463967344,0.7624670147,0.3301812188,0.7340785893,1.1093662551,-0.3243006244,1.4546109605,-1.9106668871,-2.3342311793,-0.1857891661,0.4387342204,-0.6467181948,-0.9181362729,-0.7809560034,1.8512130493,1.4358735263,0.8284137129,0.5096059705,0.3080085324,-1.4402746499,0.8236412887,0.736553956,0.1752998031,-0.6138802041,4.2197693139,4.6377713698,-0.676243688,1.365315322,-0.3020974978,0.9814352098,-2.9450938629,-9.6629347084,-16.8055481797,-3.1522743664,0.1020862493,-0.2366357278,-3.3637954148,5.1083267206,2.9790515393,-0.48355435,0.7012755347,0.6055646876,7.0500014759,-4.7590349906,26.055139403,-33.9326923625,-0.594612193,0.9800446838,-40.3026978729,9.0395311122,-14.1812932929,3.7656992069,0.182437587,0.9367772716,4.904964612,-0.3036450036,1.9797405352,4.7456763101,0.1089249216,0.9016738779,2.1005906096,0.5878430266,0.8396757734,1.6939594812,0.3027403226,0.8241673525,-0.01627232,-1.225065191,5.1613469162,-2.2208734949,0.2620463045,-0.2943456489,-1.8800861342,-0.1891837179,-4.682451009,-0.7183390256,0.6980847832,0.0400470943,-3.6318948187,0.3961728855,-2.457653937,-0.0030766707,-0.7519733728,-0.8023155016,0.1787711616,-0.3420043177,-2.2949720366,-3.1751493234,0.8209225648,-0.7161473148,-1.9614116265,-0.0150454679,0.084903745,0.4601591638,-0.2008513456,0.5031648634,-0.2049251037,0.1973089276,0.8980883567,-1.0934198196,0.8446955314,0.5610505866,-0.4771905725,-1.1977124797,-0.4832237728,-0.260181272,0.3812064426,0.133604387,0.3930712214,-0.5504847044,-0.2520185448,-0.6042065097,-0.1263932384,-0.0629562176,-0.815022684,0.1834604033,-0.7281724423,-0.3211639877,-0.4271298526,0.4280266596,-0.718067403,1.3534848565,0.4625799553,4.4389456464,-0.5378508624,0.6660780313,4.3204398432,-0.9646867195,1.8831316409,0.5247450524,0.1563527348,0.3693761697,-0.0324903731,-1.6862551451,2.4830832274,3.6675250041,0.0696379951,0.6951481144,3.2634782197,3.8725261183,4.1754145636,8.724255636,-0.2139507129,0.7759245544,8.7154983296,0.093949077,0.5262696597,-23.6302557863,-0.1849593193,0.5429040866,-24.2017141658,-2.3462912912,26.9982752557,2.5848582758,-0.6894133906,-0.1323231514,1.3578292809,0.5184433149,-0.2319355332,-0.6565392515,-0.5301221516,-0.4464424737,-0.2894506269,-0.0709848392,-0.7747039109,1.4061539487,-0.2836077355,-0.7922222634,2.5131360891,0.7519105101,0.1249529532,-3.949817607,-0.6536784951,0.5257877859,-0.3532939566,-0.5017006128,-1.2072284438,0.3564942077,0.0906038739,0.018917801,0.5916345798,-0.3379980153,0.4426894552,0.9499992047,-0.4831565219,0.7166482399,0.2431459386,-1.4855410882,-2.0559820555,-1.2162246049,-0.0461756267,-0.1252602282,-1.7711761826,-0.480368916,-1.8258193714,-0.221830489,0.1792150104,-0.7795274631,-0.9977775991,1.8470358533,-9.8171787985,0.549929881,-0.3558615342,-0.2337552215,0.0835321663,0.6385055565,-0.0302625486,0.5921973386,-0.1720039961,0.7227808501,0.688274043,0.4139957822,1.4315573916,0.3725641577,0.0163164816,-0.4568014015,0.190918117,-0.8437585113,-0.5405293533,1.1049780778,-0.6840115216,-0.3708138764,0.426388789,-0.1710749486,0.3324557156,-0.0218611403,0.2463517557,-0.2694620918,-0.174969178,0.5129355023,0.8043878259,0.011497554,0.0122007688,0.5693003277,3.5170469733,1.6800557674,0.5644506685,1.4648011101,0.0152322145,-0.2802234683,0.2681933101,0.6473325171,2.3133793432,-0.4502211456,-0.7802482397,-0.7243592963,-0.4646791344,-0.4113855233,20.8057412235,0.9940312976,-0.6065982678,0.3354116922,-0.1972769533,2.2192600434,0.4321273458,9.2936552883,0.8660819928,-0.1624639816,8.464126525,2.8636387745,3.3074142435,1.1939739718,0.5304325402,0.7763302608,0.0824330792,-1.3820049874,-0.9937059684,-3.7922631692,-1.0617217029,0.3300328107,-1.2791805191,-0.0259279432,0.3852850134,-3.3679092515,-0.1580106073,-0.0677849929,-0.9691905605,0.0175176204,-0.5935794427,-1.2125546734,0.1795490357,0.8178016435,0.6078745828,0.0165768139,0.5044708788,-0.7310278786,0.9736427286,0.0749508498,-0.1838479588,0.6705837888,0.5378193587,-0.2393682431,-0.5804450947,-0.2659566477,0.1238412104,-0.0927408951,0.2442357886,-0.0700460932,-0.4141947745,0.9250311054,-0.4448601743,-0.5364019126,0.5027017065,0.9686733621,-0.6666629939,0.6343952979,-0.7363986269,-0.5235808545,-0.9572734822,0.565373339,0.5029144506,0.0929637385,0.7607727845,-0.6913628393,0.9345806049,0.9624331839,0.7001954031,-0.6741623879,-0.4497094238,0.3913674412,-0.9132861745,0.3446373087,0.1887193352,-0.1043223868,-0.8570952742,-0.2571448793,44.1432996796,2.5450136832,1.1693385747,0.5250074675,-0.0514716141,0.027343191,-1.9528126677,3.1463724387,-0.6954988122,0.2335005244,-0.5814762553,-1.0720222883,3.8805865696,6.5644267222,19.0381431092,-0.0709931703,-0.4894690262,0.468367196,11.8343746917,13.0414790741,-0.3724858924,0.6910696018,0.8480761697,-0.1493266078,9.734678662,3.5261266352,-1.3437703154,-0.292602387,-0.0932714202,-4.33206101,0.1169763295,0.4723348666,-9.3272286284,-1.0611192932,0.7451797066,-4.9278106556,-1.2148803049,3.8289873312,0.903777646,-0.4314673821,0.6874942811,-1.2209731796,-0.1020039204,0.6023565878,-0.5573353992,0.9724024027,0.8627831167,2.3382185094,1.5595529326,1.0696012059,-0.2407179173,0.3359470124,0.0085478343,0.9385734159,-10.5905488237,-0.1289443482,0.6543000408,0.6427340053,-0.5560525348,20.6856045725,-18.2498566693,-0.3781060399,-42.8792034575,-0.6470515553,0.6192369269,-15.0407435979,-0.1277415063,5.7811762236,-11.7982259321,-0.0375150167,0.1476273734,-1.3587034801,0.6073707913,1.2230199532,19.6314506938,0.4505377957,0.7258184248,6.8044170717,-2.8918443325,21.7294077229,-2.0903697713,0.1281267789,-0.1505477343,-1.2639509593,-0.2023054274,2.9372656799,0.3190890396,-0.2914843264,-0.2702603758,-0.0519229584,-0.2986317192,-0.1381300864,-0.1494721193,0.7968017963,-0.6824923782,-1.0601768056,1.0364400368,0.9863349809,0.1243999301,0.6482494722,0.8409195015,-0.3572754842,-0.2531859436,0.5564709937,1.3651030396,-0.2886344667,0.7631162269,1.0199533947,-0.0255537137,4.106625302,-0.6142795532,0.2237600268,0.5660299615,-0.8683919039,-0.5789633525,1.9401767989,0.0904227521,-0.4092099463,0.266619419,0.7678215172,-0.307330767,-0.7859671218,15.2808835747,-0.2206952854,-0.9282229105,0.9441845258,1.0248076428,0.733380405,0.7931315417,-0.8285345472,-0.9218416578,-0.0932193887,0.6502554656,0.0241527282,0.0891801835,0.5736767388,-0.5768175991,-0.9864751607,-0.6209113036,-2.6533050387,-1.138347986,-0.6358239097,-0.2065448043,-4.1846735235,-0.3225931792,-0.6406338161,-0.6006287326,-0.4381043368,-0.30313591,0.3175431182,0.7492080279,0.4076520916,0.180969762,-0.1659687352,-0.595405518,0.7718080287,-0.8109605676,0.0964166805,-1.2556835642,-0.1843077319,-0.0306817189,-4.3714065372,1.6872571929,-3.4911157561,-3.7585981342,0.5219961187,-0.7741957409,-1.1759048661,-2.4872273192,0.264678446,-4.5603550511,-0.0668579741,0.180200278,-0.3635906713,-13.0679633016,0.5603933833,0.341625897,-1.0279685424,-0.3057626103,-0.1949900995,0.0080595553,-0.5492131197,-2.0443666396,-0.1450168797,0.8706058146,2.4317315854,-1.1635834542,-3.6720150681,-19.6170179532,0.5905014476,0.0457527909,-1.7573257389,-15.966414655,-0.9371293733,-1.1438718229,-0.5582468986,0.7963523039,-1.4172838683,-0.326093092,0.3988612343,0.4061461708,0.319734034,0.8656966848,-0.4246595036,7.216556551,2.9549877122,1.7035163375,2.8608863255,-0.5837399112,2.4696282365,-0.6728909261,0.9271664901,-0.5921864631,0.4130886199,-0.4853161526,-0.1107216029,-0.0899627081,1.8230119854,0.2739817841,-0.9081364922,0.2554336928,-0.7346918988,0.2925835913,0.5361710415,0.1655605821,-0.0496292856,0.4293788609,-0.3454845778,-8.6646466936,0.8443821178,-1.0785845269,0.5689000132,-0.8564569326,-1.265056178,0.0026653082,-1.2394783347,0.4244797633,0.1229487123,0.2982773606,-1.0401773171,0.0584340084,0.1476169263,-0.468638713,0.7077825375,-0.6718951547,-0.7605505141,-0.4427623835,-0.3789238235,0.5918489735,0.965873507,0.1124872875,0.4893064111,0.145604922,0.9482545465,-0.0150873585,0.6486523557,-0.537236412,0.9753332419,0.7084247801,0.8348044216,0.7223298025,-0.8626099152,0.0915101368,0.0979359173,-0.5398565122,-1.2056997305,-0.9009337367,0.7285289586,0.4705730372,0.6662241931,-6.2252196488,-0.2780316987,-1.0110622332,0.6477636076,-0.5159777915,0.4284887249,5.5648284495,-0.8167876531,0.0945246816,-0.2064479258,-0.7177226366,0.3002008482,-0.3397295114,-4.7414999826,-32.927828634,-0.5193201915,-0.7563441424,-30.9156202239,-1.545551277,-6.1517745147,-9.2011397949,-0.5744611273,-0.5504075819,-50.0339938435,-15.7576730804,0.0871427971,0.0442496048,0.0579146252,-0.4202192565,-0.2964554037,0.3067756402,1.0900240663,9.9478278905,0.5623451808,0.6334869818,-0.2577924975,-0.1015509852,1.8184826359,-0.0391944279,-0.289915353,0.3832850803,0.6275176856,0.6812918082,-0.9255998162,-0.5657623558,-0.3800876624,-1.0325359861,0.5452455519,-0.3218956774,0.9500744719,0.2897765443,-0.9466806156,0.5273568866,-0.742625948,0.0494039424,-0.2796539645,-0.0587670606,-0.1734267629,0.2958419055,-0.489279421,-0.2012494643,0.3045909966,0.0355017617,0.7861576028,0.0432652358,0.8861209522,1.0168409148,0.8311140887,0.2039480295,0.883853558,0.2870357253,-0.8425617945,0.8918790868,0.5644781145,0.1255752623,-0.7221286762,-0.8288584939,0.7639106925,-0.6452275522,-0.5381506745,-0.0954691057,-1.0209412501,-0.5781615274,0.0046136456,-1.0051550888,-0.9429455914,-90.3051845601,5.8667075638,-1.0058803509,0.3973073459,0.3235956765,-88.3669607323,37.9765047555,-3.3154430393,0.8265611344,-0.9123649784,-5.6844369942,-5.0238955712,-80.7891810347,-5.1165192758,-0.6360725823,-0.9451891352,-33.7609498104,-2.2139150526,-0.1275362861,1.1087044787,-0.106811027,-0.7302288264,2.57784784,-27.6980270507,-15.0967361779,1.1207095357,0.7183580209,-0.8261879515,13.9416778878,3.9639780613,0.8690850254,13.1316973591,0.6730322174,-0.4462885371,23.4726654919,-3.8926270033,-6.756565533,0.9984731206,-0.240278105,-0.9054142926,4.6826965167,22.6879893641,-2.275873502,0.6462000951,0.0822614647,-0.6082697883,7.3919010196,77.0206471433,-1.5137175442,5.5629693944,-0.4753296565,0.7026947387,-0.8288643334,37.7717080233,-13.5296447189,-7.7141819912,-0.3851731311,0.220842954,-13.2212100626,-12.9397737264,17.2905434319,0.8110637468,0.2898942027,0.151646374,1.5866686245,-2.9795178472,-9.7055036596,8.5676183295,0.6175190277,0.3729626837,1.4575410018,-1.3230945789,-20.2953325516,6.2287653765,0.6254021562,-0.0394515673,-4.6802139856,36.1443322249,0.1932349256,4.0637467973,0.4934321533,-0.6399438939,1.7097850206,0.3510893616,-4.3769794421,-0.6000250912,-0.3677718704,0.4867655694,0.991124204,0.164692847,0.7880358448,-0.7165693072,0.1522245462,-0.4657001122,0.6076970141,0.8813402519,-0.9575685726,-0.7441733366,-0.341927563,0.7735755243,-0.541858174,-0.7931574807,3.1206594948,-7.051670669,0.654042644,-0.8767630942,-5.293671292,-1.4286895771,-19.1804347091,-0.5932250033,0.8778843617,0.7728253737,0.5460018799,0.4208619035,-0.8840759728,2.8170175422,0.4024071233,0.6399324987,0.7939158998,-0.808999482,-0.938290326,-9.8001752512,-0.2474002321,0.9425877803,0.0690663257,-0.2124472443,-3.0250223002,-1.1730358679,0.8482359897,0.6681307148,-1.3450510888,0.8999811302,-0.1127282969,0.3079916921,-0.1670665624,-0.7801827583,-0.0117044588,-0.7188550184,9.3421620299,0.7173462612,0.6455398867,-0.9775894359,0.9240602962,-1.1543525251,0.8453734624,-0.6264471241,0.4999129814,-0.6319936569,-0.88274024,0.5838019563,-0.7135665693,0.9970967886,-0.0293407035,-0.7166577316,0.0576469225,0.5715534364,-0.4491854352,10.7666808541,-0.5380831468,0.6998420045,12.605712967,-8.7777807351,4.7268721675,1.3971997266,0.1791453906,0.7076435093,-0.3763018895,-0.5304614142,0.8945634794,2.2831613588,0.9203391064,-0.825138269,0.242166567,6.7016391092,0.3561126248,0.1656129945,-0.1445123504,-0.4866643212,-0.7596108873,0.1140568229,-0.3473295947,1.5848785566,0.4992857242,-0.1278901341,-25.7981652571,3.3245880809,36.2403800026,19.7061524713,-0.029877603,-0.4600998684,15.9681004619,0.236847656,-2.2833255295,-0.7225275171,0.2545327658,0.8377938368,0.0642674457,0.3258221092,0.6275765728,0.0885958836,0.6575295598,0.2834344323,6.5687253453,-0.2253977132,0.021350983,0.539422061,0.6554071799,0.307940407,-0.3924263137,0.6108247419,-0.8779732143,0.130875385,0.0326457087,0.3068086061,-0.4024997012,-0.3981718273,-1.0982169793,0.66840961,-0.3561828716,-0.6939480733,-0.8000307198,0.4417103796,-0.5744028321,-0.2668798459,0.3734981884,0.0248213897,-0.1615821108,1.1574133932,-0.3528167455,1.5472041858,0.0414885255,-0.3842374178
   1.6605932496,0.3151963244,2.0501946232,1.9911289857,0.0717302224,-0.1356435193,1.709064847,-0.0006679803,-0.6577475004,-0.0600053379,-0.135592044,-0.8715053555,0.2759426983,0.0877623668,2.9692193077,0.4628688654,0.313670574,-0.2004612124,0.4091485969,0.8551341374,-1.6508417324,-0.2947512543,-0.312695897,0.5661147222,0.6546893263,0.4551833405,0.6444013826,-0.026117831,-0.1351791535,0.2618906799,0.7624404099,1.7546011852,1.6449551492,2.7452139551,0.0209521112,-0.4214099924,3.1680077862,44.0999468806,2.6087711585,-0.3754379284,0.4780469816,0.4254882376,0.2548582212,-19.1609344327,25.0139919974,-0.0344260421,-0.2560434402,0.2166445314,-0.8835476822,1.2978130772,24.8098481047,11.9517389512,0.2133691156,-0.132882498,10.5132097107,-0.1495416415,5.615724583,0.1490967884,-0.3434231308,-0.2205845917,5.9203322323,5.9725285991,0.2396348166,0.4970814189,0.2667942163,-0.3985692746,-0.5169048328,0.5580485175,-3.7617752296,-0.9436659666,0.6169699352,-0.96289091,-0.4499202193,0.893176197,-0.6958910628,-0.3692067316,0.9676846013,0.4911026213,-0.3320104786,0.0518901686,0.5543394121,-0.2476365024,-0.5533864991,-0.1713423858,0.9145418252,-0.9659255687,0.6610946575,-0.5182023066,-0.9612373458,-0.9680133872,0.4422122569,0.8086670734,0.2174921122,-0.0018382368,-0.4708379384,0.0343748538,-0.7506687743,-0.5912714786,-0.5939372824,-0.5514986812,0.7087057544,0.5132710862,-0.2858582985,-0.8083532042,-0.7922027008,-1.0222445093,-0.3683905441,-0.076387232,0.4142572222,-0.0412516443,-0.0204471357,-0.414879376,0.3446001162,-0.4473643637,0.0836115286,0.2530682469,0.9630403067,0.6761338473,-0.2145158433,-0.1225823479,0.7464557658,-0.2644054155,3.2022092373,-2.5504088739,0.1964337611,0.6952032957,-0.3913915146,0.4611439016,-1.4046652174,-1.4648377449,-0.6555423863,-0.4675041936,0.1344984726,0.0873602244,-1.0800947745,0.8030381235,-1.8560483355,-0.1577824763,0.6949472031,0.4636954288,-1.9001502272,1.0812594681,-2.5036332629,0.6336393028,0.4655170584,-0.73689099,-2.0816427406,0.85352228,-2.0287158376,-0.1172805411,-0.964479885,-1.1246190735,0.4071086268,1.2750503145,-0.7756062342,-0.8152428822,0.2338238091,0.4174616335,1.2727177513,-0.348681463,1.4937579004,-0.1230868637,-0.1722965266,-0.8451199887,0.8377615245,-3.0469766235,-1.3260342034,1.0389127896,0.2509917536,0.0303851037,1.6012504769,-6.046280854,-0.4984987887,0.3853960642,-0.9822251042,-4.547836621,-4.429547891,0.2508104256,0.2807590187,0.9056542258,0.9778859126,3.8094862696,9.5835936969,15.8592603369,4.5046820331,0.8864204864,0.0704446186,3.0750328502,-4.3362876221,-10.714104218,0.6773890105,0.6989025434,-0.2683054514,-7.2038152669,13.0418905493,-25.4080894811,99.5889746833,0.58805074,0.6133867441,56.4350167833,-0.5597691321,14.2027647082,0.1784697505,0.0504494799,-0.2320395827,-0.1023328405,-0.4404684424,-1.1918030076,-5.7339126188,-0.4351940094,0.9567704923,-2.6803482662,-0.8492003307,-2.9787876702,-0.6494324111,-0.1087763663,-0.7623879844,-0.7256074625,-0.0850216954,-4.5324431668,0.7597596711,0.2136983503,0.4877914501,0.5306467594,1.2688805562,0.4924874418,-0.277781843,-0.6849157732,0.0189948336,1.3736919768,0.6585057417,2.9996050236,0.207653739,-0.4857288331,-0.0597971778,0.7137882645,-0.231549066,1.9725747824,3.1689326677,-0.5619088697,0.4249026024,2.0482909362,1.345051341,0.6043114253,1.0140539423,0.1185292492,-0.4611533199,-0.0574107197,-0.1304274589,0.7347535601,1.0094055567,-0.8366802791,-0.2153914541,1.4302100395,0.0227253194,-1.226818584,-0.3277664573,0.1198248218,-0.9808147875,-0.5675239517,-0.1079522718,0.3111848711,0.1762145906,-0.3003251385,0.9008966307,1.1621001323,0.445332626,0.2784888285,-0.2512324126,-0.2275526606,-0.4781680245,-1.2372133287,-0.1145647424,-0.3581390315,-5.5076918804,-0.2247488361,0.3820928143,-4.4779462885,-0.9475564398,-2.4515794011,-0.0123065343,-0.3091853757,-0.6379168582,0.8115016372,1.3798298,-4.1187403641,-4.1275350921,0.642666703,0.8490962977,-4.3189345438,-2.1349558485,-1.6221092373,-0.7427383661,-0.5500328281,-0.325551248,-0.1929998063,1.4388704206,0.8165421973,9.1484296995,-0.9951970268,-0.9825892271,7.4519778556,-0.1390801876,-76.9613415913,-0.4081108807,0.7646161106,-0.0678160365,-0.5093255767,-6.6410273187,-0.099096196,0.4114714034,-0.3070263956,-0.3458243244,-0.4062809619,-0.9896211267,-0.213703163,-1.508055803,0.3226941842,-0.6581796993,-2.1245416499,-0.4017290593,-0.0628433401,1.5719035986,0.0189398216,-0.5898025677,0.2197603139,0.1704451628,0.8897688575,0.8177159657,0.4938155977,0.1126969059,-0.1750395093,0.8811636537,1.0789929196,0.185394945,-0.2866060015,0.5269807124,0.4289960153,0.5495696548,3.3186903924,4.0049085769,-0.3694834774,0.6014917879,3.4335681664,1.7646054521,3.7838086494,2.4455026832,0.3250134566,0.418759677,3.0321802759,-2.3999170195,29.9577378664,-0.517727364,-0.9296615118,0.3317530727,-0.1878191702,-0.6848340782,0.0382983278,-0.8379393789,0.6957074494,-0.8704707706,0.4254013643,-0.9790827896,-2.6478803437,0.7879129603,0.5670860022,0.8884302541,0.6637963831,0.3651930843,-0.5425078551,-0.9393964216,-0.3570652557,0.6650762664,-0.2338549495,0.0310779036,-0.2117834364,-0.4702180807,0.8282818182,0.6874054423,-0.8730000774,0.3289504595,-0.5824326409,0.6064338391,0.5672066552,0.2000109249,-0.2159032954,-2.0176698282,-0.9684558982,-1.8307667903,-0.435236587,-0.3799753849,-0.6646325815,0.4297943505,-1.2518787197,0.4054550836,-0.0105835747,-0.8402021648,-0.9258806754,-0.2843963374,-2.1661216778,0.3060923537,0.1752918863,-0.427371132,-0.7940464875,-4.2004357422,0.1172087804,-8.2550577522,-0.6545308053,0.1777873703,-8.9743052024,-5.1204644697,-2.4282476606,0.4197434213,-1.150821535,0.821085663,-1.0834567456,0.1061158858,0.7478134298,0.6170191893,-0.5165513007,-0.072753106,1.7553094267,-0.6355833157,-0.5622024977,1.2889538188,0.6691310867,0.3003200789,0.334152364,0.9163601486,-0.2031706055,-0.7228859242,-0.4802635614,-0.1716079868,-0.0187544355,-0.9126380552,0.94014156,-0.5874915308,0.524746044,-0.2511539374,-0.9708358077,0.6476352889,-0.7115902509,-0.7002637041,0.0815579828,0.630417827,-0.5724326613,-0.0455823529,-0.0461106708,0.1348639422,0.0909548432,-0.271702322,0.2898255143,0.0802536563,0.9823733256,0.8401502617,0.5199075457,0.8685301761,0.7875376301,0.9919120581,-0.2704220031,0.5997568252,-0.508745321,-0.4820396442,0.4089538496,0.1619607949,0.5548854046,0.4124568229,0.0677884224,-0.8040231065,0.9755516783,0.2347571639,0.7370837605,0.9346781154,-0.7772040273,0.8843021444,0.999000682,-0.8769354047,0.1880813728,-0.2630132244,5.8561330511,-0.2085189939,0.8939915005,0.4476556502,-23.8872321015,11.9412445843,-4.3050010466,-0.5415119707,0.8803782635,2.1548829948,0.7473603698,7.2309787321,-16.0619893102,-0.191969559,0.8784342747,-3.2729561611,0.9977210415,13.3841812555,-1.4325056414,-0.3827991717,0.5915978163,-1.7049767133,2.8507074519,0.2475056953,0.5402719093,0.6907974403,-0.4240698441,-3.2091833639,-0.3992753704,0.7426658695,-0.8790619083,0.6680040771,-0.0595670695,-2.3517733347,0.047284364,0.5085497128,-1.0830011074,0.2228112748,0.2094749028,0.2427713557,5.915242422,6.8145551198,-1.0793332971,-0.5685102206,0.3785780951,-12.8855591594,5.0894080609,-0.9039840032,1.9191166289,0.2914493902,-0.3051867037,-1.1117364265,-0.0840980958,-0.0413931339,0.9456536017,-0.4493660167,0.1930549464,-13.0797779297,3.8150250965,2.5412737807,-6.5629753112,0.1291048369,0.5193453919,-0.3268029333,0.7972304602,-0.4315125898,14.1395668977,0.0018335971,0.0726185201,-10.9077166081,5.5168846105,57.9375952378,101.488897571,-0.1642467358,0.9960327674,26.2231174088,-0.7189333325,36.0722328717,-1.5926766606,0.8835490632,-0.9508365002,0.545100929,0.901695283,3.4698962754,0.1251165434,0.6475492996,-0.1076952255,0.0128512426,-0.1324301695,0.4972215694,0.332362291,-0.3723067916,0.8141304687,0.2333923229,0.2279984379,1.1103517541,-1.0362379456,-0.8812651006,-0.566035211,0.3989423423,-0.0365603445,0.037660205,2.403811286,0.2863690171,0.4099121562,4.2257001358,1.0656919368,-0.5686542498,1.1235391094,-0.0870009782,0.6840964597,0.3851057561,-0.7089032321,-0.1565542733,-3.0278539108,0.6899368381,-0.703740308,-0.7102351348,-0.2673038276,-0.7531375271,1.9260994817,-0.5124439463,-0.7030300423,0.7643236256,2.5822019538,0.250892222,1.5045383256,-0.3042412225,0.7916888543,0.3784418683,-1.1936366814,0.8219437578,-0.622675453,0.3619374759,-0.3530517704,-2.6484467322,-0.7931137457,-6.2509389005,-0.5689457932,0.7617094275,-0.1101136821,-0.9953618505,0.337506092,0.5943687207,-0.3888207351,-0.0225895523,-0.6676067561,1.1568997829,-3.7319200253,0.3148876531,0.9201920154,0.6224327366,-0.5488840918,0.0677704623,-3.168526499,-0.5960251917,-1.4387432295,-0.1107461593,0.0545722435,-2.2583425805,0.2903976802,-9.6117956386,-2.3392569611,-0.4682906241,0.7686248481,-1.9412928856,0.0835933645,-0.2136411537,-3.6878368101,-0.0041476332,0.8715639938,0.1353653578,-0.954290262,-0.2475388735,0.3743048757,-0.0589963713,0.5100500084,-0.2630448883,-0.8549660481,5.4623018377,0.250002357,0.1737299735,-0.1728349662,1.6443045647,-0.9002715314,-1.1724111549,1.9197843575,-0.2284952682,0.033824159,1.3472205854,0.075476867,0.683532186,-1.3352030954,0.4121576982,-0.045204073,-0.3085361262,-0.5859468758,0.477330897,0.33956304,0.0302239278,-0.9194177818,-0.9394061486,4.1760200911,3.8675793807,-0.7587412894,-0.7240793274,-0.3435924909,0.7113940259,-0.3070564479,3.6903225649,1.0000818191,-0.298316508,-0.1604324969,1.0171296459,-0.9414757693,1.5989338646,-0.1416825836,0.5341034078,-0.5436128601,-0.0811552295,1.1113987392,0.3700252536,0.5014148072,0.2081929518,-0.6099620219,-1.056521057,-1.0918360528,0.1288773229,-1.3027583392,0.5488330572,-0.8695350476,-0.2136812113,0.1263610038,-1.2828650624,-0.0747080075,0.0102110391,0.5176725074,0.4910362664,0.0277402505,0.2710490767,-0.7138209891,0.1388326665,-0.7903798967,-0.0415345487,0.8133023531,-0.0633195643,-0.8098387339,-0.8072739063,0.9059771024,0.3049049032,-0.9166365693,0.0699483348,-0.0523412624,-0.6627285286,0.8589870226,-0.8506285078,-0.2846995196,-0.6722829547,-0.1619769429,0.0111623482,0.7026911735,-0.8715165099,-4.5340643911,-2.1289780601,-3.8254125609,-0.4460992741,0.1317616629,-4.9407693324,-1.1188490975,-2.0878403934,-0.9810283888,-0.3257317591,0.4611937798,0.023935699,0.9977388752,-2.131276774,0.959285585,0.0200566811,0.5981077518,0.7381496669,-1.630896787,-1.2504288178,-19.2750922451,0.8966638826,-0.5430901218,-19.059555022,-1.6776303183,-5.7540880702,-4.828095083,0.0928615681,0.3490630391,-8.0921719895,-4.2422151151,-0.2865428985,0.9120438297,-0.1913554935,0.3787165753,-0.8541554607,-0.4037589208,0.0106378877,1.9412470182,-0.8100765129,-0.6245544515,0.1185637014,-0.6368664106,0.0271071616,-0.3950202273,0.6940645528,0.3953493743,0.5301666235,0.7231183019,-0.7870360733,-0.9241282921,-0.8856125986,-0.6782401725,-0.4654794343,-0.1399075554,0.1188241441,-0.8353959434,0.9119342673,0.5968084283,-0.3829033066,0.6498427097,-0.1807060324,0.1607826112,-0.4080128547,-0.3848968035,-0.7163851829,-0.8724861573,0.8289596377,-0.8070826306,0.4672181749,-0.1892352121,0.1629168143,-0.9533688984,0.6101493197,-0.3181091155,0.1339614851,-0.0309280006,-0.6374425524,0.1628090946,0.9855132973,-0.1369818485,-0.5296876551,0.7939666532,-0.9476123071,-0.8965320811,-0.1385349936,0.7759496108,-0.4706843001,-0.7373321466,0.8459299695,-20.4372958782,13.2725671717,-10.4560508135,4.681661766,-0.8549510203,0.278498797,1.0481442471,-8.4785767757,-0.5290730935,0.0304179029,-0.4498673966,-0.3599012716,2.8919598057,-8.7243814329,-2.6053730187,-1.1287342488,0.091516433,0.4453538827,2.3522597857,-1.4914631212,0.6467440441,0.7311834134,-0.1953828033,-0.1878477669,-0.0705245311,3.8052107828,-0.7673693761,0.6424567947,-0.6951641152,0.9700684608,5.0199521424,-30.5376605806,-2.8974545328,1.3197801702,-0.0915956902,-0.467541322,-7.7991394177,-18.2559974634,-0.0215042165,-4.682319536,-0.0975279257,-0.5615229662,1.9438410156,16.0843890931,0.1405001457,1.2810326417,0.5866514806,-0.0287358126,11.8878729594,-14.5838887733,-26.5446841147,1.2213092036,0.7509520933,0.7585576609,-1.4777037455,61.2121078253,-15.9069951552,-0.2063997651,-0.1047660073,-0.838025935,4.1513075124,21.6756398017,39.409209859,-15.4076844238,0.5375609025,-0.0387867967,19.1315498292,-18.7904106153,-8.5552612328,22.3800663303,0.3588401873,0.7394340452,105.3845615076,-28.6370390602,-519.8533960313,80.7754399166,-0.3678432001,-0.1239474209,-7.1273593445,4.0151384346,-1.3987943339,-0.5966335082,-0.2711039176,-0.4467884599,0.8876482855,-0.8076681982,-2.0530586693,0.6376840254,0.05898755,-0.3178279901,-0.1431015663,0.3742969655,-0.5912449026,0.6224161081,0.3238775383,0.1558768938,-0.464547578,0.7967574295,0.4122883788,-0.2678571464,-0.7176592749,0.3339362725,-0.6972358371,-3.3519789971,18.1732147058,-6.6836132773,-0.5177433748,0.1662846285,-6.6750522759,0.5703719521,-2.2000721019,0.1843419167,0.0853186068,0.861759948,-0.0824228451,3.2708610519,-1.204183719,21.8809951298,-0.2096359481,0.5078546967,10.6878228353,-0.4594845701,-0.9329397013,-7.5337033906,0.298742521,-0.4521113279,0.1122416449,-2.8931806086,-2.7580650384,-5.9995530403,-0.9302124464,0.5218537304,-6.0844372594,0.3403611819,8.4118611965,0.6902637479,-0.1834508865,-0.0228196138,-0.4473708312,-0.4387777973,1.0904112354,-0.7103972134,0.3376270331,-0.0443237087,0.3461520251,-0.8718963845,20.3420887183,0.6292459409,-0.8420623185,-0.0371134149,-0.5854075717,1.6095110471,-3.1024869375,0.5539523289,-0.9078656463,-0.1738738789,2.099601229,-0.3339257652,0.6893314181,0.5368478323,-0.1251238142,-0.652566431,-0.3664090168,-1.0355856624,18.7402508137,-0.7037285631,-0.4989656698,0.157697391,0.756822669,-0.0780032241,6.1990122592,3.1246837314,0.1859395394,0.678203693,0.4132709992,6.5639734199,-0.3859510198,-0.7185908494,-0.215758663,0.5958559517,-0.1485070539,4.0733685465,-22.7666675581,0.8706809218,-0.8323067344,0.758316616,-0.9061805203,1.6144998597,3.6632425609,6.078843543,-0.5811584073,-0.1046794167,3.7934800767,7.5084291172,0.6758888572,1.2552096193,0.9488608592,-0.9275894482,0.8243354474,-0.3703527703,5.1954595174,-0.1559442826,-0.1867751697,0.2833442467,0.7160086507,-1.3651138835,0.0915192016,-9.7053059327,-0.1508762638,-0.9125764798,-18.145966222,-1.1128973172,-12.4835531679,-2.1819872501,0.5527777784,0.6979953315,-1.8574897039,-2.7385572637,-41.3890500921,-0.5361430963,0.8203705654,0.4283745944,-0.9998471332,-1.1867852653,-0.8225645515,-0.079078649,0.0687793578,0.9014389072,-2.9439916423,8.7929556669,-12.3367357183,5.0260894969,-0.2942715541,-0.0708548481,4.7771027711,1.2694168089,2.5923992227,0.8625207583,0.1553976096,0.468217973,1.0301225381,0.9002268618,0.9728694746,-0.2544115968,0.1200085194,-0.4417398739,0.7679781577,-0.891726123,0.925269088,2.7358840228,-0.2455929932,0.6485347081,1.0224069859,2.5318416994,-0.8315382355,0.2350666163,-1.2690552649,-0.7803307455,-0.5406638473,17.5226149698,0.6126542534,18.9777678624,0.3007848206,-0.8934682794,17.9390807772,25.3230322249,6.7741136171,3.8899497351,-0.3773678863,0.4285283297,2.9266503421,6.4426586396,11.3823181064,-0.1231960632,-0.59886805,-0.4664267003,1.1028422675,-10.0955082689,132.1951308706,-0.0334248402,-0.4564339995,0.861980448,0.1396859604,1.3960757184,6.3453693474,4.3203548243,0.3614845575,0.1365266631,5.7159612291,8.5242349589,34.9284135872,5.2336760484,-0.6287021604,-0.2150627392,23.0806742098,13.3181139323,-0.3021277848,-63.2248589305,-0.2965428695,-0.9989567921,-8.3539077921,-0.8401215267,-39.2079698446,-4.0209997379,-0.1164639487,0.3508602253,-1.0864340159,-0.3073993757,-0.3256830703,0.2122462654,0.2625616713,0.3298397626,0.0465955057,0.6483787368,-0.3297702799,0.3260286053,-0.7671961011,0.777541852,0.8563264743,0.4699930711,-0.7644471088,-0.1493178884,0.8752888241,-0.4440201669,0.6204209434,-0.4577123242,-0.8099734401,-0.6588587351,-0.4757779202,0.3978869564,0.3250565578,-0.704807423,0.2484130294,0.080142367,-0.6143774082,-0.6688451431,0.9160975185,-0.5572052159,0.5814756997,0.3521614972,-0.290652491,0.5856939092,0.4959939954,0.6850519445,0.2644201734,0.725892017,0.4188996454,0.3889654505,-0.1876856804,-0.1151989045,-0.6699832844,-0.5492778559,0.1471775316,0.5564358852,0.0618073416,0.3731540962,-8.8278733353,-0.5315224371,0.7989065213,-0.3734456277,0.8787283096,-0.6177347347,-0.5486581635,4.8923123251,4.0794889951,0.3574453131,0.872652512,-0.2417878066,5.3242233487,0.3736016793,11.5019676473,-0.5508269555,-0.4104868047,5.8730040676,2.6327310532,-5.4277107634,1.4682911804,1.1149390629,0.3036600499,0.9881569393,-9.6832936737,1.166409018,12.4384173979,-0.6244805363,-0.3765499726,4.3991197256,0.6704887129,-1.0054174988,1.6534935792,-0.8443852036,0.3370725399,2.3453551779,-1.2494092819,-3.2682661771,0.5805557286,-0.7824909593,-0.7201409735,0.028642145,0.2231193067,-1.5604172884,-2.9423317864,0.098886424,-0.495673098,11.2855773944,-2.93066831,2.9965596727,-0.1673709767,0.1012021517,-0.4657921254,0.4755926563,10.8729015832,-0.3508033841,0.3967454132,0.73121749,-0.0162893573,-31.8230441713,-0.5543090141,-3.8176192557,-14.7187576263,-0.0221984799,-0.6767320358,-3.9781897509,0.9102179518,-25.7892258943,-16.7348391033,0.7967088257,0.0730181036,3.4475809465,1.6635020559,2.3174781667,-72.6781618376,0.9348964816,0.2052706497,-19.4892622729,5.0135455809,-1.6792922594,3.3213885347,-0.5032940611,0.0372067129,3.3221757056,0.6654966337,1.8630664674,2.214229387,-0.7000318985,0.3950634951,1.2105347977,-0.0112315391,0.1206230393,0.2053914739,-0.6600874858,-0.6689467658,0.0542609186,-0.3925093182,4.6711151332,0.0974165172,-0.0488745568,0.1742665263,0.0889031524,0.5275285698,-2.0752817792,0.0259994089,-0.711649713,-0.8031899822,-2.1011624353,0.7191776864,0.5603513214,0.9246339137,0.7425365296,0.67642848,0.5912777127,-0.1846465539,-16.0017069092,-21.9716453826,-1.0202748853,0.6368612497,-9.9185685598,-1.5708683904,-2.5965234961,-0.1911632918,-0.1224783405,0.0471830533,-1.7167619443,-0.6985114916,-0.5349584353,0.4877351121,-0.4709418272,-0.2386207993,-0.6057560162,0.4217246019,0.1508494766,1.1827715742,-0.2033203405,0.9794051554,0.4341865885,-1.4050723981,-0.0577521846,0.5014342137,-0.7891420533,0.5109804793,-0.1450851715,-0.5597182285,-0.9950131102,-0.4356479788,0.8559628834,-0.3766328454,0.9233019196,1.1771812931,1.2279469938,1.2685311627,-0.4208526193,0.7543822787,1.3833353712,-1.187482857,0.7352487045,-0.105644737,0.2884383089,-0.1281048677,0.0035138814,-1.0087884272,0.1384252096,3.5164159565,0.0353717616,-0.2389413717,3.097550195,9.4446995226,2.3213598041,5.3016867309,-0.5886570134,-0.979474871,6.9858417503,-0.3992681904,-0.1985712678,-8.1964867311,-0.3851565003,-0.9511033562,-8.2448093112,0.3808740342,32.5278248221,0.7003600685,0.4867159515,0.8026593979,-0.1921976481,18.6014063635,-0.324613405,0.7616289982,-0.3497176366,0.6068527772,0.751995461,0.3768078272,0.6386982158,0.9603512246,-0.100858475,-0.2002773493,4.3443300998,-1.038583257,0.8105050901,0.4349151553,-0.0531968812,0.4926090649,-1.1111669595,-0.5315230024,-1.5580860377,-0.392842558,0.5636216582,-0.7736816876,-0.5539031369,0.2224320626,-0.255579015,-0.3270474347,0.2539459845,-0.1947706196,0.0205553856,-4.0651057076,-0.9689729545,-3.6654455731,0.7651624327,0.0903847681,-4.5439360953,-0.3705565522,-0.2889291231,-0.8089397524,0.0919339891,-0.9671843168,-0.2442796857,0.4451889151,-2.8173876507,1.9843639875,-0.3157270085,-0.2716483868,0.628140497,-0.6955804007,0.6592573024,0.1526969066,0.5629560308,-0.2248357314,0.8655705023,1.7000679646,1.1530270907,-0.2823582446,-0.1409800426,-0.2847040951,1.0054988911,0.5271946677,6.0124809248,0.7257492589,0.4866775479,-0.1585779826,0.2920747765,-0.7209887008,-0.4033473218,-0.5844313183,0.4462382028,-0.8499015891,0.7177372133,-0.1745871632,0.539934419,1.0324073895,-0.8311594717,-0.2772573534,0.1717559976,26.3985558706,0.0611961624,0.901039247,-0.6643376405,-0.6844001398,1.3363743062,-0.3843898241,4.2768436654,-0.0810457996,0.8749701064,0.4399429596,-0.3750130032,-0.0773050198,37.8303823139,0.6541645755,0.4984312334,-0.2862428076,-0.6344160713,0.007314603,-0.4187012085,-0.381883091,-0.3073392421,0.7661590948,1.087363991,0.6032425489,0.2187736469,0.1320889902,-0.9010723427,-0.5242001921,0.6461447668,0.277006215,-0.1707590013,-1.9145603998,0.3201383766,-0.175497223,0.0511228514,0.2385642651,-0.0969006718,-0.1886976789,0.6681867316,0.1473858187,-0.753052407,0.389619203,0.4289002512,-0.7627520374,-0.3939512108,-0.9392824327,-0.4446522457,-0.8707164968,-0.3363651934,0.9592608875,-0.5534835508,-0.1512417032,-0.3350202332,-0.3941884463,0.3514136438,0.5967901031,-0.3129830438,-0.4091648873,-0.111205322,-0.7741371602,-0.2766869434,0.4551256,0.720145056,0.8099015261,-0.3082321839,0.8246654681,-0.3467096289,0.4684910298,0.7253522136,0.9238313958,0.1269544678,0.5646077626,-0.1580639708,-0.538258728,0.0610234866,0.2806972506,-0.0149739899,0.8939729482,-0.9092677398,-0.4321071155,-0.5545477377,-0.9407170159,-0.828238701,-0.5316241518,0.6509911231,-0.8083028322,0.5588467185,0.8160809259,-0.606704641,-1.2856655275,-15.9029207672,9.6058261659,-2.4932015123,-0.2407534342,-0.7094834986,-0.7027576757,-5.8499582289,0.4349242202,0.6463472509,-0.765152193,0.0105854574,0.9774889683,0.4942507323,36.1751786923,-0.9007817479,0.5454601582,0.9427944669,-1.3984487445,-1.5064652861,0.9366923538,1.0670290545,0.5360778954,-0.1066407074,-0.0754448443,0.194860649,-1.1264331156,-0.3660059696,1.0321774676,0.5323186353,-0.7443346937,-0.0773338287,-0.1907837084,0.5695244463,-0.9070164265,0.0259804207,9.882819812,0.8160712841,-1.2060914208,9.3873988944,0.2419652393,1.0111649656,-3.9974202711,0.2128071549,-1.561872132,0.9719468043,-0.8052282518,-0.4325049853,-11.8437422596,9.6846809896,0.6379414397,0.4103956856,-0.0657399796,0.3439826578,-1.3100128176,7.7788551263,-0.3464000901,6.0980338136,0.2467858117,-0.5038368849,2.093534897,6.0398381516,-2.3274435844,-3.7971664588,0.3695245812,-0.4099745953,4.9343172535,7.4679924104,-3.8636580415,-0.5101469444,-0.2056101887,0.1289898794,41.2665749763,-5.0120340701,7.1492636989,7.3025336261,0.6592295087,0.8601826416,-15.9260938309,8.949725826,-10.6826073076,2.8968226373,-0.7429645402,0.516256832,4.8625398098,0.3639274791,0.8322693703,3.109512742,0.0653221894,-0.8509892057,0.0699980081,0.5516586919,0.5566326028,0.5413545488,-0.7270238925,-0.2889468854,1.9192018828,-1.1583455896,1.2813290395,-0.609833495,0.0710494701,0.0417645334,-0.8618168451,-1.588221147,8.6395650316,-4.4747548049,-0.1511311553,-0.0861932633,-2.8865193688,-0.777844604,-1.3567541788,0.1698440369,-0.016567373,-0.7035719807,-0.0814656182,0.2747356171,-17.544108339,-0.7177700418,-0.2967290834,-0.5081841758,0.3429340775,-0.3987980513,-0.5039347197,0.4243308605,-0.6822508586,0.3007461563,-0.9732505062,-0.282390005,-1.8024113068,-1.0923495232,-0.5578961843,-0.1262201292,-0.6124426801,1.5603402096,1.328657703,-1.0968454387,0.3312467553,-0.5957441608,0.5973269361,-0.9947454512,1.489989023,-0.9786300338,-0.8071334377,0.319330987,-0.5779981467,-1.225134702,0.4970790946,0.4168739688,-0.010044996,-0.8746827933,0.005123201,0.0339796193,-0.6281713891,1.5590785229,0.4984505424,0.5635651503,4.5536477632,0.1228495149,0.5582736555,-0.508436291,-0.2426956016,-0.7668551112,0.6344441831,-0.2850023522,8.4512549701,5.0204759714,-0.6921766718,-0.6634265444,4.8572834999,2.3129233986,12.9898596737,13.7195238297,0.8690272178,-0.2951607423,2.7847781566,15.5382749872,1.0898523364,0.8657581563,1.0297031621,0.757973366,0.5145463616,1.0581754195,5.1791774534,0.4645491347,0.2990942735,-0.4425823221,0.746566669,2.3484968595,0.6513308718,-0.0878467471,0.5511231942,0.6064399597,0.3389311911,0.1271165949,-0.5176604897,1.4492192706,0.4591626175,-0.4451542439,-0.5415751256,0.810000429,-0.3208835195,0.1721604124,-0.3230943936,0.4642371837,2.3384167251,-1.6433094035,0.5765623389,-1.6494992409,-1.0628647834,0.7900685915,-2.6626003535,0.2626636371,-1.6496772045,-0.931037699,1.0464920172,-0.2632508983,0.4909367225,-4.7403875296,-2.8085874218,-2.025245411,0.782203362,-0.8579579758,-0.8423765421,-0.8446157685,-1.5596666031,-3.1185790453,0.1892796182,-0.4529888554,-2.7333840443,0.8205268708,-46.5841517846,0.4683659772,0.5756280456,-0.3922361115,-0.1073720621,0.8566454662,-0.374679451,-0.7153842936,0.4689218565,0.5052413609,0.1031927596,-0.6478221841,0.5550530753,-0.0350807153,0.8307693425,0.5093052596,-0.6642664105,1.1203447402,-0.2356004243,16.5039779926,-1.0123932045,0.3533716653,4.7293303112,3.0881892133,0.6342019398,0.1284757605,-0.5885856291,-0.4241582954,0.8994352239,-0.4500959351,-0.825527884,3.9674927681,-0.3517807857,-0.5154209098,2.656444943,8.3069493591,0.0497302459,8.6972923278,-1.4595912096,-0.0993154661,5.7166797614,-0.6467650128,22.6263609875,0.5064673323,-0.7111716286,0.337817036,-0.554370612,-0.6772359113,18.733161755,-0.8092679857,0.1808422717,-0.2266879508,-0.9203763691,0.8817256797,0.0737238076,2.4119347134,0.2149327824,0.6673465189,2.8826865199,12.2709674592,1.8451333827,1.140753655,0.5646772426,0.386400795,4.5999157221,2.7216368116,-0.4906145467,-2.5295527494,0.0055321609,0.6872674231,-1.2801678159,-0.1715688342,-0.8355845367,-1.8435896788,0.9445257102,-0.582143193,0.318639624,-1.229871301,-0.3350489233,0.3409666026,-0.1582961456,0.0910497497,-0.1174932054,-0.2286083352,-0.9152812288,0.8408523532,-0.3809290498,0.4878468648,-0.8495273553,0.0336040251,0.7483428116,0.3752519883,-0.3302614092,0.9460648676,-0.4787048742,-0.1879512609,-0.4603954468,-0.5175576767,-0.4764406289,0.4908297383,-0.1843243192,-0.4487315713,0.6460530045,-0.7418177268,-0.7848917235,0.4631167617,0.4120995126,-0.7908411501,0.4506700489,-0.3221471084,-0.4477840382,0.8025874407,-0.5162259404,0.3319781315,-0.8238602512,0.3259152345,-0.8659945232,-0.359026715,0.8638290498,-0.2904141115,0.3668756227,0.0817356996,1.0110900696,0.362256477,0.2557662049,1.0056423273,-8.8449738588,2.9024856334,-1.5520898296,-0.2853016663,0.0593204288,0.6209204228,5.8654000737,-0.9425176106,1.6865912867,0.9011868069,0.2292048888,0.0825408541,0.589645747,-2.2920554851,-0.5538642694,0.9167490092,-0.4767750676,-0.2743274132,-0.0001363675,0.0111229155,0.4808901644,-0.4516745316,0.2727561588,0.4010225786,2.010818394,-1.0839543166,1.2255810927,-0.6557067804,-0.2177194494,0.152545165,-0.4848542317,-2.2342936128,-0.0807967568,-0.606471316,0.9535319839,-1.6395302044,-0.5578250275,-1.8873576041,3.5106422502,-0.5436950334,-0.8344988924,0.1663752641,-4.139282676,2.1221707241,1.0227046176,0.9337065777,-0.058450394,-0.0705455854,-17.2832408432,2.358894866,-0.2059428267,-0.1885677414,-0.5651161734,2.2366043767,4.9117176385,-0.8919772349,1.5824812224,-0.375604285,-0.7363622085,6.1649076904,0.566286059,-20.3060683221,-2.9117090938,-0.4315792135,0.726815579,-2.4825505924,5.8984645418,12.7695608378,-0.4269062745,0.0681609416,0.9323430803,8.7552561898,-3.8674375693,25.0779824813,-24.3555134804,0.3293547413,0.8684791341,-14.8093431768,8.7422602136,-18.4159475058,4.4444768357,-0.5316839994,0.9498360339,4.601602763,-0.6448679937,3.1557239044,1.5438555208,-0.1291108425,-0.9307405901,2.3978567247,0.8250211201,1.9412472867,1.4182297496,0.1953710599,-0.3131825111,1.0653572396,-1.6293782223,4.5538742753,-0.7293491917,0.6641793408,-0.0128502759,-0.4980418635,-0.0961292515,-1.3124250095,0.6069913082,-0.4232880489,0.6364248055,-3.9800275556,-1.0298292226,-1.9845675705,-0.1902232996,-0.4761232854,0.1701580411,0.291974495,1.2453723611,-5.7518085816,-0.74338323,0.4415302342,-0.4568618841,0.4585583617,-0.1488383766,-0.6694644043,-0.2132092287,-0.1970093708,0.8727132246,0.0713769415,0.2608700353,0.9558328241,0.2779509515,-0.1169300475,-0.0933134227,-0.0349305455,-0.476104648,0.7895396576,-0.5020810458,0.2821271653,-0.7529287141,-0.9231212505,-0.6499017589,-0.0069635762,-0.9557999566,-0.1607244167,0.8609546195,-1.1992386064,-0.7816849506,-0.4831571905,-0.7858972348,-0.2260337383,-0.0902783635,-0.717347575,-0.2464680884
   0.2411693706,5.1200477366,0.7686430231,-0.5721118048,5.7927159687,-0.2001293501,0.6073627466,-1.165113586,-0.8582701806,0.8827933348,2.9546900561,-0.2201548287,2.5884440452,4.5528117178,0.2293689502,-0.853598968,3.2803676786,11.0732771664,5.3866024137,5.1039754949,0.4180281409,-0.0895386624,3.1489692815,0.2975927304,0.1614106474,-24.4000874662,-0.448964689,-0.9237191201,-24.2065805634,-0.6132340817,77.5971127967,1.8220205977,0.2359534508,-0.849647249,1.0312767276,0.166071754,-0.0207591447,-0.8558718729,0.7598064839,-0.8229042374,0.2597158909,-0.2546836068,0.0417838539,-0.0054915644,0.29438938,0.2399530796,0.4054714593,0.0966487073,0.0344201935,-4.7727223718,0.45672625,0.0621002273,-0.2102101323,-1.0779237026,0.5807388588,-0.8965236326,-0.0391628209,-0.2619875248,0.2717622272,-0.4097633736,-0.0959302005,0.1386171423,-0.5844089176,-0.8728584059,-0.1054734776,-1.6628794406,-1.6774332993,0.0184749254,-0.6581664051,0.9409519896,-1.2367859745,-0.7540603592,0.5207320497,-0.4265007154,-1.0445842842,-0.9454337925,-0.7189192687,1.7844816162,-10.8828283662,1.5475544714,-0.7103050841,0.0742698213,-0.0994625456,0.7596449827,0.1002172225,0.7922820349,0.1190658055,0.6921256851,1.009808547,1.5622105995,0.5891973762,-0.8331001602,0.1184025198,0.8589475691,0.8938935308,0.0282819324,0.0397803053,-0.7473981828,0.808872589,0.3068831669,-0.3882341402,0.0307253512,0.2972426327,-0.7635416772,0.601027531,-0.5471435215,0.418145291,-0.7567342544,0.7923566854,0.9170796352,0.4723756697,-0.7858804323,1.5698230911,2.6720480715,0.0953726985,-0.3391560837,0.8707640948,-0.2328363049,1.6116657201,-0.5073862092,1.2065503232,-0.2424598317,0.2542990533,-0.2187601744,-0.7456807084,-0.0561033278,7.4011692631,0.8906663363,0.2040666417,-0.8422614884,0.7955393006,3.3752859177,0.9199020225,3.175069838,-1.0469454582,-0.1933208487,3.175061673,1.5496323301,3.8659576127,1.2125683795,-0.9737636474,0.4915586202,3.4695189523,0.3055425282,-0.8968309815,-1.7946674081,0.8585782604,-0.7261907205,-0.8571466464,1.102136446,-0.6515933275,-2.5689998805,0.4648595733,0.5881163604,0.6869919201,0.7513602834,0.8919186938,0.1992563103,-0.5670475153,-0.5201552816,-0.7191694768,-0.1719083496,-0.3149895612,-0.860404606,0.9810440266,-0.9641750296,-0.5587498974,0.8220454318,-0.4730141924,0.3771821237,-0.9375043829,0.5397489997,0.1985135026,0.9323658138,0.4895148729,0.3533128048,-0.3873175978,-0.6165751617,0.3946394291,0.9665357429,0.0376351051,0.5572228388,0.2310883481,-0.7348590724,-0.6854557172,-0.4648562306,0.1300160421,-0.529821378,0.3529099563,0.706389749,-0.3001638946,-0.3815050132,-0.14956356,0.4359498075,0.4335982618,-0.5817991689,-0.0848147251,-0.6527604599,-0.5978852641,-0.5687938174,0.2544648782,-0.4516668643,0.6220734425,0.6141092928,0.1109897427,-0.1840982438,-6.4794406519,-0.0265929484,-0.1749012669,-0.7773034461,7.3232614005,-3.7719349098,0.5964421427,-0.8163685277,-0.6245676088,-0.6520605688,23.7511516098,-53.0656173293,5.6453731567,-0.8769508433,0.9185350229,-11.3490429539,-0.1721042681,-39.9429760786,3.9592427944,1.1432168035,-0.3301941076,2.9023135939,-0.7093886826,6.240827631,1.0030478311,1.0205345502,0.9015214023,0.97522164,-0.4837296472,-1.5695209709,2.3225302189,0.585681342,0.9121954412,6.4429635279,-0.5119891155,0.2055994606,0.511360249,-0.6921695512,0.884611613,0.2287716082,-16.0948924373,-2.7871210425,4.1452310856,0.5543085101,-0.461222663,3.2357010533,-12.2739754472,-0.3646323056,-3.4966935379,-0.7580554759,-0.013950174,18.2162210201,0.6465872102,0.9555735704,-1.8549956052,0.1955894873,-0.3093160646,-2.6381961645,2.3181241942,15.8358151015,0.7637925669,-0.6936111228,-0.0549481076,-0.319028897,0.786215207,1.0602627356,-12.8144038602,0.7767316187,0.7647848957,88.412974787,-14.5153720467,-41.8549435036,-32.7214727583,-0.9301623941,0.6100865927,-8.1001347393,0.1258831575,-104.7661977771,0.751397079,-0.3146236471,-0.1605315687,0.1369135163,-1.326573467,-3.0554927768,2.2182182486,-0.8627087221,0.3021568868,-1.268010351,0.5536482771,-1.3599805686,0.7400520342,-0.936215054,0.975422562,-0.0786877018,-0.1903547185,-0.57160657,-0.7041648192,0.3907041492,-0.9469188354,-0.0036696831,0.646574224,0.7269371066,-2.5471894313,-0.7077505631,-0.6085836398,-3.4417457791,-3.161605005,0.100650794,-3.9992069822,0.4153680157,0.7187744965,-0.1584824245,0.5039122682,-7.0361593279,7.6446143768,0.2635225726,0.5150812052,2.3298850055,-0.788331229,-0.7727561076,-4.181871022,-0.0220492119,-0.0324701195,-0.6207369288,0.3362234661,-3.2481231229,-0.6066432531,-0.7223137475,-0.091307971,-0.4901299674,-0.4548994752,-0.2869440573,-0.0522463276,0.5056246756,0.1432994965,4.0125038106,0.3252563196,3.729233406,1.6982483972,0.2693710354,0.0699485696,2.8782377677,-0.7684469838,-0.0586521306,-0.9774146842,0.3536394836,0.0039759527,-0.4934529151,2.9923669819,-0.8835999336,-1.0481611801,-0.0431207943,0.1077566191,0.629433473,3.8209477301,-0.4255417171,3.3166480931,0.8557654582,-0.6653264626,5.6769532658,-0.1110001132,28.4486713595,2.2910302752,-0.8168327887,0.2930092744,1.5513868001,1.0208171174,1.8799819403,2.0693581402,-0.6747745685,-0.563990531,0.9009096221,2.1288893654,0.8619802572,-0.4075847422,0.6298112499,-0.515631813,-1.1555942122,1.2374379699,-2.8795728061,0.5670407224,-0.9871566055,0.4873851452,-2.7390483742,0.9225175083,0.4159216005,0.3257222789,0.3818464083,-0.5709551866,-0.0595245056,1.4061415704,-0.482355004,1.9947214039,-0.576923762,-0.2147326072,0.5327758707,-0.1179732973,0.1563418059,0.6165505099,-0.0877417009,-0.0614183353,0.5250479987,-0.7311706983,-11.0417330858,0.4895679267,0.1100587597,0.8564697196,-0.9757483249,0.3219616934,-0.6482443735,-0.9766077818,-0.0593510541,0.9396335566,0.3097440042,-0.3679768474,-1.5051632516,0.1236357824,0.5167932881,-0.5535664386,-0.5427458813,-0.0845737594,-0.075722299,0.3788303471,-0.1181318869,-0.6002511414,0.2808311671,0.5373456431,-0.5525351962,0.1265782322,-0.3486208715,0.3825095359,0.224107478,0.4981769203,0.1407292572,1.657462405,0.2442440516,-0.8718492533,1.3029737332,0.6282873235,-0.8147159702,0.3451899554,-0.4493671739,-0.6877613119,-0.5356351594,0.556548521,-0.0060429579,0.6249709634,-0.5148786961,-0.5484815496,0.6277473827,1.6419244529,0.4699808842,-0.6800080405,-0.1666120075,-0.6833662553,-0.9522775333,0.4996572827,-0.3274961295,-0.1326713591,0.4662802713,0.7647685044,0.6914515939,2.7827837896,1.5642044972,9.6150439381,-0.3704842541,0.398460361,14.7651055901,1.9040307525,3.4382909064,1.4199845125,-0.5980571222,0.9568359972,0.9852362941,-0.9190984374,4.2606900385,0.2956632588,-1.1267638801,-0.1544816283,-0.6607713106,0.9251429107,3.3913486191,7.0528940243,-0.6765252812,0.7114558228,18.6415883517,14.4339110577,11.2341407477,3.0552942735,-0.5389643833,-0.5310769579,46.7576879135,3.4433265978,-0.8905172024,0.2581387237,-0.439777088,-0.3170560704,0.1874787579,0.9796029372,-0.7863543962,-1.9774523514,-0.2649367806,-0.2836136831,-0.5726050782,0.6042498712,0.3390493297,-0.3501770438,0.3710190504,-0.4530214289,-0.8729089317,0.5938960826,0.4471640754,-0.3002745763,-0.4554503117,0.6604980704,-0.6653360895,0.9761780808,0.0392739286,-0.1145796937,0.5852550957,-0.0736184449,0.8130116834,-0.3786464533,-0.8811413893,0.6051967971,-0.6381500329,-0.1379926441,0.5902194398,-0.6939505744,0.5537136494,0.4257038561,-0.5985637032,-0.8081005062,-0.3796317617,0.0040954638,-0.3833496033,0.7888662339,-0.0373024123,-0.8918963424,0.7245751823,0.357321807,-0.1097623225,0.8765127276,0.3155301081,0.1379850551,0.2085513619,-0.252781293,-0.4134366385,0.4754842528,0.6717271021,0.0256981391,0.2075828517,-50.9176135817,10.5153198129,0.8770818954,0.9997660977,1.029265303,0.6625071987,-0.6202132541,-1.3935569545,29.9242056442,0.1862305082,0.528376445,-0.6404430925,2.0674552738,-26.8046898694,-329.7465608452,-0.7919977567,0.9285580243,-0.3511889617,-71.9322742761,-10.4855009929,0.293913505,-26.1902299171,0.1886324465,-0.4611811957,0.5168287245,-6.5613458982,12.6028710967,-29.1176896565,-1.3185328299,-0.039606482,2.8710448927,-9.8750189485,-34.3749531694,9.5638923463,0.2321458889,0.6143909115,17.1103858834,11.3852788299,0.2901802836,-15.852014198,-1.0669518952,-0.315278169,-18.9159842981,9.6552354065,-39.5765173274,-10.8695547959,0.0485950176,-0.8021506913,5.0805181921,67.1785353229,11.1594956086,0.3719129458,0.4728954651,-0.6899799932,-30.8296584061,5.8739366375,11.1383985367,9.0065498216,-0.2134368757,0.3034800383,47.3154228253,69.1005954783,4.4701913672,-3.2306517907,-0.174499978,0.5729251615,-0.6164703967,-0.7886860039,-0.773290893,-0.5348663619,-0.6735331181,0.3834353517,-23.0222115228,20.7824042125,10.2874403318,8.5827020248,0.6788761344,0.6811437458,5.5114080096,-1.653448133,6.4901878706,17.9288487066,-0.3117058695,-0.262110038,0.0823358671,2.6772495106,3.1623819267,3.624994321,-0.2201826928,-0.088892203,3.4633888107,1.9839371009,1.6559499425,2.7755924462,0.9871403591,0.3001972939,2.9700611016,-2.8810851353,2.5055740764,0.5976463335,0.5262536243,0.580631189,0.3218313919,1.1180393373,-4.2963154622,0.5843264377,-0.450744471,0.7970457319,9.5694651277,0.7289892368,1.8302596475,-0.0449393219,0.5053025519,-0.6034341197,0.1117410654,-2.0028378798,0.5419315016,-3.6716666376,-0.5263315461,-0.7163851283,-4.2924768862,0.8858778481,-0.2349232351,-0.4190285867,-0.7972717854,-0.8225418333,0.5059513628,0.3481249718,1.0768164088,-0.5216644948,0.2813709239,-0.9462682292,-0.9417493868,-0.5181048406,-0.1090743763,0.1138334403,-0.9519102898,-0.0487950707,-1.1861044156,-22.2850808865,-1.0730089361,-1.1557016857,0.463823227,-0.074972803,-8.4276744778,-0.3777218773,-1.8262983309,-0.7499517003,0.0606875097,-0.5722901154,-0.3631448477,-0.3692915877,0.2221880258,0.0017548255,-0.8416859617,-1.1009081215,0.1852612852,0.343478934,0.0217134972,-0.3438160976,0.6851742607,0.8465398364,0.1722688928,23.2657253648,-1.8088474151,-0.2426040351,0.2415739975,0.1966327558,-0.6508316089,-2.662494302,0.2252877656,-25.6596459847,-0.6953743275,0.1995809226,-25.8239705309,-2.9284322528,-2.7347533334,-0.1923039329,-0.2350571214,0.6676292289,0.891253643,0.8233091716,15.6888799304,-1.0486788875,1.1692479825,0.8286948688,0.4040725059,-0.7605403714,-0.827636392,-0.7462237007,-0.5586100132,0.5764894094,0.0114099093,-0.1616950774,0.5295325417,0.8301459478,-0.7315211929,-0.6016247648,-0.144876153,-0.5969739208,-0.1325644486,0.7275965669,0.0308278612,-0.2377936302,-0.7530884448,-0.2825254392,0.1267196845,0.4727994352,-0.3069302251,-0.7565963309,-0.6446053756,0.9491689341,-0.2837549921,0.0153556298,-0.0166752571,-0.8264856063,0.9193110708,-1.1564346625,0.6037010409,0.1481257342,0.7397353286,-0.9084938471,0.5882443443,-0.1658918421,-0.9443736821,8.3474880182,-0.6514374506,-0.2209547742,5.8068622492,-0.2044860883,2.9661050584,-0.3998613826,-1.0450561536,-0.8389907446,-0.0884464046,-0.5379788472,-0.3034854011,-1.9544332579,0.9685915439,0.8524843212,-0.6918203212,0.4797621517,-0.3182537439,0.6029377837,0.2539598351,0.6334963813,0.1558887422,-0.311100648,-0.4046411932,-2.0735346928,0.0049693751,-0.3672729044,-0.2088239378,-0.5916470575,0.4834979297,-0.2113124747,-0.280597906,0.5014640204,0.0842318556,-3.814325314,-1.152450522,-0.6178019165,0.8691913686,0.3590351771,0.5624204349,0.112681897,0.7957110741,-4.2674847493,0.0749460541,-0.2090220007,-5.3264422703,-0.2673517997,-3.6282648649,0.3512891969,-0.5027959167,0.6811926532,-1.3765061408,0.8904607857,-19.2117423331,-0.7238952716,0.0164438815,-0.8406702694,0.6784100315,0.4258396472,-1.7178151054,-7.250900146,-0.1022461738,-0.5553376771,-6.6353579491,-1.3148692684,-136.4522063405,-1.1753706442,0.6284237249,-0.1323075371,-1.1563437919,-1.5851101408,-0.8133129331,-0.2182027228,-0.0450676886,-0.1492580531,-0.6460347599,0.0690900868,-0.4314894552,-0.2503193465,0.0302217912,0.1287775299,1.0541601235,-0.8772586405,-0.0376097443,0.6804955304,-0.883389741,-0.0082795044,-0.3981424452,-0.6360398921,0.540809376,-0.1022577242,0.8428861434,0.829490602,0.775882447,0.2362687148,-0.0761028782,0.2558215371,0.6241064722,0.7610344011,-0.1626359068,-0.5467862266,-0.8230386464,0.7394312452,0.6843349262,0.6285879351,0.5735736219,-0.8844302356,0.3062430405,-0.602756401,-0.4122037751,-0.8615761943,0.007422581,-0.7593479245,-0.8551652529,0.2038178014,-0.1531637351,0.4293326213,0.6583271986,0.3036455194,0.8783590617,0.1595711893,-0.5418723052,0.8500888143,0.2115154498,-0.0960188117,-0.8193082274,0.1070678688,0.5182907031,-0.7728491615,-0.4156740183,-0.5632747694,-6.4720782296,13.4976860249,-4.6271956873,0.9982031954,-0.3128918043,-0.0505250016,3.0502099797,-3.6269490825,1.8534810683,0.610520583,0.1321927025,-1.8758368264,34.4744075111,5.8043118623,22.7231374173,0.3664095406,-0.8556408926,15.2227176094,26.9537154753,-138.8827628753,-1.3654156473,-0.2129567511,0.0536650321,0.087140446,23.1050035523,4.2386408013,-9.347967876,0.0950219563,-0.5135138488,-3.0876753628,-4.4884141748,-2.3269598786,-37.3418200164,-0.9606980766,-0.7891468916,-18.2974883825,-11.6040081718,28.6127877549,5.1297735651,-0.3734785096,0.2923353049,0.6249750979,-16.7165089557,26.8267790353,-0.9769835818,-0.1204743175,-0.2832784379,19.9618059481,-3.4543190129,0.1548245986,-1.1402902568,0.2532833671,-0.864252337,3.561468058,-1.7003154611,17.1822774651,13.8681595504,0.351221502,0.8921207652,7.6107928092,95.5625269504,3.3703159419,-32.0052546969,-0.4259015081,-0.0199093116,-23.2756323918,-1.2028140338,105.50354818,-10.9908368887,0.9064098225,0.0978180817,-5.2992854025,1.7154866278,8.9155885995,32.5130555203,0.5911809803,-0.5522105402,40.209957283,-0.8418308742,2.1740010529,-0.7711847919,-0.1824268155,-0.5584708812,-1.1486600228,0.876156984,1.5208411872,0.2521676026,-0.0108730395,-1.035142076,0.7030285663,-0.7842730515,-0.9278743806,-0.1182251086,0.7150383407,0.3599489755,-0.5054818826,-0.2690635978,-0.7291026735,-0.5126990811,0.1830085663,0.7804301452,0.2771018244,-0.8431859274,-0.7401929649,0.7189734896,0.3465948701,0.0757834925,4.9252171267,1.2289821103,7.1925961142,-0.4682251393,-0.8238502828,-0.1387084467,-0.1457665237,-0.2327716768,5.1390136139,-12.4632328162,-1.2513246953,-0.0702194968,-2.07984801,-1.0077908445,-0.0607395702,9.5903730202,0.6902068883,-0.338589803,0.741830039,0.5788832972,1.1367821423,0.3333325959,-0.4360241207,-0.412238917,0.0784774079,-1.0686836126,0.9485483502,0.0894999503,0.8690242853,-0.2335320083,-1.7642073516,-0.1778782939,-9.7950786515,-0.9792559363,-1.1197516258,-0.8773492004,-1.6961166348,-0.1686533943,-3.6436445484,0.2881193869,0.5075666893,-0.5866080305,0.4409038775,-0.4370340109,4.6891176677,0.485600807,0.2462925808,-1.0284890372,-0.407493105,-1.1144982227,-0.3577489012,-2.6977370382,0.8925286583,0.8848855306,-2.9439947377,8.5093866815,-27.7965097239,-1.2196515709,0.5573844656,-0.2324301252,-1.6444763682,-7.5243144381,-37.2742653126,-2.3530628554,0.749580497,0.7789596912,0.3574743251,-6.9588536076,-1.0668088192,-0.98090464,0.8867882377,0.0472540795,0.2308210431,-0.3315884656,-0.9727313084,1.2542806381,-0.6501918029,-0.8465356648,39.2385281259,0.4220604873,-12.9458259309,-0.8353383168,0.6879323256,-0.1677803868,-14.1656816347,-3.5805907045,0.2762794099,-0.7946612051,-0.4041259458,0.545619465,-1.5539381224,0.4932706378,-0.6530706944,0.5075888666,0.154433566,0.0863832547,-1.7757594293,0.3589114247,0.4747916514,1.6976222366,1.0356437956,0.866546448,2.3788744479,1.021312724,4.1117162967,0.1204920187,1.0245120961,0.0479537747,-0.2520515292,0.0666972053,2.6896561498,-0.620866647,0.0852697098,0.1707992698,0.0504536595,0.2254603895,0.5382607394,-0.5137524993,0.5015120513,0.4364631861,-0.9625282348,-1.9687565041,0.1550373003,-1.0081424328,-0.2940605323,-0.6991042166,-1.3947896165,-1.2589421939,-3.9300788114,0.7336399592,-0.4013624805,0.534797994,-0.505470168,0.6474568641,-0.1582493991,-0.2575869575,0.3550570257,0.4068489592,-0.2413157379,-0.6430316127,-1.7761128239,-0.6248486809,0.9996067336,-0.8537695545,-0.0634281359,0.3702183587,-0.2016654071,0.7999087283,-0.2979747104,-0.6593018665,0.0824881816,-0.4873025451,0.8021049807,-0.9246276481,0.2553843187,-0.5735502194,-0.8492105173,-1.839277732,-4.7589377742,-1.5475217925,-0.0480459006,-0.0739597385,-5.4711915567,-2.6243845663,-5.0070923265,0.8279825493,0.5865317553,-0.4094065192,0.1322528689,0.9108182901,-3.648035387,-0.1008242172,0.6122984922,0.1025611642,-0.9553007115,0.2653004423,-14.4154564282,-31.4990948697,0.6330573494,-0.5047214801,-31.3924232972,-3.3736969696,-18.552969451,-6.4659355157,-1.0532801129,-0.0544332197,-24.3663325214,-6.089545847,0.4916223843,1.1495339299,-0.9119825696,-0.9043673861,0.2179633509,-0.410434909,11.3637355614,4.4741676461,0.6874992684,-0.4394855841,2.3789949604,-0.6896131331,2.3997503854,0.1231699942,-1.2461419698,0.7773254715,0.3131530215,-0.3388355077,0.2664340018,-0.2356553097,0.944607903,0.8525439945,-0.2257192889,-0.0500090476,-0.08186008,0.2718747366,-0.2205391722,-0.4363999578,-0.3737376515,-0.5704246989,0.8359415183,-0.2913785527,0.8950663109,-0.8289906948,-0.1368792444,0.2038843944,-0.0807631868,-0.0461708493,0.4186278158,-0.8026962306,0.6675174657,0.6014576035,-0.057005261,-0.8439916733,0.6702866342,0.8290092569,-0.2175431751,-0.168815563,-0.9246933831,0.1456342819,0.6822018089,0.097919838,-0.5183981468,-0.8667158818,0.2600237272,0.7697629279,0.2494749581,0.4979191232,0.4497736691,19.3975361759,-11.9153920468,-126.1847485186,1.3072632068,0.1442854192,0.5803068447,-3.561848661,1.3294364136,-18.4156792364,0.3880267025,-0.3686060217,0.9772495069,2.8704826617,-1.070030285,0.0221320615,30.7267071243,-0.0746086127,-0.5217513836,-2.0032420483,9.2948751064,-1.3533674056,-1.1906690954,-0.1802892906,-0.4123389649,2.8224644037,5.19759156,-9.4664356892,6.9982474424,0.1797707302,-0.0125822185,0.2376948045,-1.8255026259,2.3263373909,2.788874828,-0.4033718107,-0.6337523352,19.7253821789,-2.6589727086,-8.2138296701,-1.8920658776,0.268011786,0.0985102931,3.4220806841,-0.9406026826,-18.3959216398,0.7074972364,-0.3025621577,-0.1961115452,17.0775126083,-2.017724329,-30.768521438,-20.7340501245,-0.7552099098,-0.6808101222,8.398554108,-10.4642966437,-3.259886186,-1.8927043097,0.1067949247,-0.8864916381,-4.6098958757,-2.1368374615,61.7882544115,14.0254603048,-0.5814764683,-0.3220057136,20.035256648,-17.0882138309,-50.9614465683,20.7622376152,-0.0893145114,0.9214844927,1.8438001737,-0.2992126932,1.5321604224,-20.5525041525,-0.5796574833,-0.8967584581,1.0870883634,3.4351664099,-2.5086057951,0.5889955046,-0.4195679692,-0.66594765,2.4452645145,2.2660171141,3.7567963538,4.0819888449,1.0359840024,-0.823063808,4.3098325715,3.1782904092,1.292470972,4.1431089552,1.1076641789,0.3787120878,3.8280197352,-0.8270357827,0.4041939057,-3.2321213282,0.2956153518,-0.7363244429,-3.8356308855,-0.6749569773,-5.2417107554,-0.8677327192,0.1654830198,-0.179365244,-0.5576624871,-0.8823561306,-0.4900301616,1.301768909,0.0083036425,1.0145559814,-0.0168648314,1.2264404167,-0.0443993287,-11.6482149593,0.7164628773,-0.6459314454,-4.667633875,0.7363464409,-2.3247289157,-0.557980723,0.9066998033,-0.7539209187,0.3695261289,-1.0270608055,-0.137747376,0.9731396252,-0.6184073593,-0.8312549185,-0.5289319856,-0.6437091982,2.8790508999,-0.0817255629,-0.7127608499,-0.8059420012,-0.2905044866,-1.8027749467,-0.7768559067,-1.4214214203,0.7864094019,0.8912855834,-0.8197303339,-0.6909372599,-0.2239784506,-0.9936835568,0.7305874955,0.142523648,0.19139111,0.26003655,0.2094950675,1.5274393444,-0.9664648019,0.9016072042,0.5729445429,-3.0113277464,0.157114794,-0.7004166305,-0.4701178819,-0.5723690338,-0.1531848489,4.7177955899,-0.1531964944,10.1932201327,0.2508556352,0.0243292374,10.0991537856,2.1438075966,0.5877559123,3.7970504296,-0.6449863844,0.8165651653,4.7660778899,-0.7582426709,-0.3748874854,-1.6660163007,0.5327222294,-0.404820625,0.6471551782,0.7784169739,2.6454705428,-0.5811565831,0.7647908849,-0.7385520212,0.8112261798,0.4757774534,0.1035587659,0.0974419069,0.8118014424,-0.097600043,1.2829727187,-1.2509474494,0.8463883125,1.1870119132,-0.57903876,0.0282439159,0.137267609,-0.4104554127,-0.9798496648,0.3956089757,0.8615482136,1.0031542219,-0.3657746786,-0.8609577204,-7.1467787726,0.5033073011,-0.0945587097,0.2006665075,-0.0928507362,-0.2950021816,0.4922935134,0.4293332349,-0.3764720513,-0.0850674438,-0.0727385258,-2.7461747731,0.7709919703,-0.1816870469,-0.4828479194,0.5590845588,0.0233708369,-0.5001986784,-3.4380032235,-1.7989722615,0.6569290517,0.181958746,-1.0196483261,0.7169402289,-5.802037987,-0.2314806433,0.5873409954,-0.1655716023,-0.5122095621,-0.6211975975,0.8055437086,-0.0664628593,0.0442536847,-0.1834037753,-0.3304150231,1.666563551,1.0646050767,0.8515104102,0.3737026547,-0.6629038736,1.1606344399,2.6912452078,1.6124667248,0.9275562479,0.9075389462,-0.3842456754,1.680197896,0.3588316359,0.1922555301,-0.461278727,0.4176004274,-0.0391401297,0.4486517387,-0.5270915001,0.1519221008,0.5474249235,0.704732835,-0.1477054732,0.3975091582,0.9346489289,0.9634608681,-0.7089745844,0.7943950676,-0.4382279723,-0.1618238047,1.2547050368,0.7699500656,0.3142330508,0.1806734013,-0.6585632902,0.5955478364,-0.8171353598,2.497370995,-0.9330813345,0.6559119019,0.7120715212,0.7638769093,0.0887522514,0.7154656252,0.9469807119,-0.8526591053,0.8821654022,0.593728965,-0.5724326381,-0.2186987182,-0.0744919104,0.2258371747,0.8290900458,0.4298069632,0.8584834656,-0.159149005,0.6094555129,-0.3031408872,1.073636029,0.4253095937,0.1232736532,0.1563150304,-0.232373657,-0.5241786081,0.6791583206,-0.2392555615,-0.0898425219,0.3502991466,-0.4180106502,-0.4967459113,0.5065811648,-0.2607217294,0.7750516475,-0.3040822208,0.248935499,-0.2378476013,-0.7434876621,0.5765863712,0.5651294783,0.3708117966,0.9825775977,0.3732003736,0.3297167829,0.5542815802,-0.7123057678,-0.2548725524,-0.3230922001,0.0834537928,1.0371996146,-0.3756620095,-0.0983402098,0.6309275729,0.8577902307,-0.8056304151,-0.8088514958,0.5198607853,-0.5705124339,0.3564243334,0.5893612168,0.13842874,-0.3920145615,0.4583333068,-0.8349345256,-0.3896998924,0.7801187467,0.6525324629,0.5547778494,0.7279799534,-0.547546438,-0.1101000554,0.7091084019,-0.0523500976,-0.3297408766,-0.2244419285,0.4388026228,0.6517385268,0.1437614142,1.711866106,-0.5103535724,0.9654652445,0.2952111436,-21.801385426,10.4439553729,0.2220312153,-0.409020612,-0.0437102259,1.6361669655,1.8355508908,21.0097555305,-16.7128988764,-0.4881803982,-0.6264280824,-2.7413170945,0.0662313072,19.1631773685,0.9025386699,0.5706579481,-0.6224877292,-2.1910818243,1.8560674466,-0.7458217127,-0.2418453685,0.3343598018,-0.7153241297,-4.6055305387,1.5210789757,0.8486197466,1.1007102898,0.1197321471,-0.1091318295,-1.9903641914,9.8080849609,0.1199542338,-0.3159421089,-0.4444972697,-0.5985671056,0.4293265507,6.7731045877,1.1926357746,-1.8888046095,-0.1726091286,-0.6247782389,-2.4333402136,15.8704511558,0.7736109134,1.8329900486,-0.3957092294,0.5884860871,0.5682867662,-9.0282361946,0.6329950308,-16.278505728,0.5821911854,0.2249402613,1.4838785934,3.7795220679,-0.6730676194,-2.0870407748,0.3323360079,-0.7017529009,-0.3476331691,8.9212253295,1.7324918923,14.4833390321,0.010690831,0.7131750682,-4.029612651,5.6345737752,18.9847001133,214.7549284446,0.9011886276,-0.1283226122,27.3276208744,-1.37206009,5.097075002,-1.6467852318,-0.7770201759,-0.7698569911,0.1180066574,-0.2138087986,4.2445718491,0.5032208246,-1.0604749595,-0.2859305364,-0.2976299983,0.7768480011,-0.3230471685,-0.1336643644,-0.2232283838,-0.6035924086,-0.4586694695,-0.2869788298,-0.3252931597,0.3649083372,0.2621800265,-0.6541718578,0.5316222849,0.9996905872,-0.8918993797,0.623813511,-0.7899292318,0.0511602521,3.3680226447,1.3478727682,0.7774954918,0.3886478202,0.630898016,-0.6717482058,1.7909978965,-1.0914138812,2.5667571934,-2.8117894936,-0.6746185092,0.1155016072,0.2576944725,0.6459401727,0.6208650908,7.2404416695,0.5503754644,0.0643135946,0.6234514223,2.0460238966,1.7103195572,0.3692150114,0.1256724615,0.3307227031,1.6039136918,-0.8532368668,0.1902829395,-0.2026828053,-0.7124739661,0.474442773,-0.7070348867,0.7059047357,-16.8438858588,-0.8804150282,-0.0543416905,-0.1284137346,-1.17614644,0.1555650963,-0.3011982685,-0.1209565909,-0.5147231142,-0.4526941364,0.9786542934,-0.7079578802,-0.5614773123,0.955777834,-0.5728752803,-0.1653920502,-0.8968581007,-1.8249537036,0.6804365497,-3.6376608424,-0.0568250297,0.7655879562,-4.6797092603,0.6933011708,-3.8541993067,-0.1810392853,0.7075763923,-0.3986624086,-2.9407102974,-0.8118881417,-1.0409183897,-3.1105040389,-0.0348927443,-0.5932260563,0.163168256,-12.5181006397,-0.666349508,0.1500068802,0.852350271,0.0766404554,-0.6336695817,-1.009137855,1.7150424798,-0.094298291,-0.6741175039,0.7189297756,0.0856092538,-1.1657495071,-2.1511057342,-3.2045385282,0.7110735337,-0.198021514,0.4760039591,-1.1550254029,1.1501852176,-2.4289876958,0.3736563811,0.9714837043,-1.1048505319,-0.1905992583,-0.4214036895,0.6930375268,0.9818699793,-0.0563084424,-0.3055185957,6.7275289433,4.558246108,0.6036173162,-0.2857115095,-0.6189924626,0.0196017523,-0.464755885,3.8635092251,1.8850516242,0.0209350359,0.1562787242,1.5723210015,-0.3289506168,1.9722523545,0.6279167776,-0.6520467156,0.9119978888,-0.3711257115,0.294560332,0.5573605799,-0.8084219071,-0.2893953422,-0.6793205308,-0.1545935516,-1.5562264662,-0.4455590372,-0.990658672,-0.9321239381,-0.0473425758,0.1433582923,-1.1891531906,0.2862249758,-0.0663306911,0.0095754055,-0.8424450437,-0.759185616,0.2662657184,0.5804791007,0.1217864814,-0.8434631036,0.8656761167,0.3068065634,0.1302686968,-1.2035853608,-0.3267507624,-0.0813344899,0.7155692787,0.6936591896,-0.2651836594,-0.5186020225,-0.4226088308,0.4844130949,-0.5859875081,-0.9321522804,0.1135764042,0.6249899498,-0.9340193596,0.8844041292,-0.2653292918,-0.1348111234,-1.2361121332,-1.7743455671,-3.3788113131,-0.685460091,-0.9383251181,-3.1030659383,0.1083491008,-2.0174392146,-0.6718638195,-0.4296777692,0.8843729483,-0.9463694526,2.1043681366,-0.3175136059,-0.2525564049,-0.5903041272,0.1495026726,1.2251004913,-0.0071892124,-1.1349226978,-34.4215865919,-1.0273017711,0.8770363802,-34.2820829272,-1.6488555737,-3.4882451024,-2.4039044472,0.5118207532,-0.0540524457,-13.5351028375,-4.4623857704,0.9038420164,-0.6285513423,0.4240504345,0.4561493159,0.277517854,0.9507269679,1.3329672071,4.7104293172,0.9446840514,-0.4271452275,0.1941306428,0.0181436171,-0.1893240825,-0.3345415659,0.1183817713,-0.7403907532,0.1610317132,0.0507560085,0.0386205131,0.4261835657,-0.7938294251,-0.1937556227,0.7810182649,0.8875679181,-0.2972050483,-0.551366329,-0.1499477885,-0.4419959055,0.8081581086,-0.5288883483,0.1708864341,0.8781681159,0.9211850151,-0.2479075265,0.8119130168,0.5056154192,0.2166675342,0.6763104324,0.4578175242,0.8678934598,0.0325350074,0.1363948669,-0.257428687,0.5975057469,-0.8336179686,0.3971124706,0.4724970083,-0.1594944053,-0.9858906668,0.8414610406,-0.2975906252,-0.5599101277,-0.4013621944,0.5986142981,0.7127916592,-0.0061775342,0.479103697,-0.965463668,-0.6154467848,4.7975643174,31.8637675668,27.4663966624,-22.4527317268,0.929824784,0.5881152684,4.0055578214,-6.4263950176,-0.6778484981,-0.5284812383,0.1179061461,0.4539892031,1.6814872967,-1.405656025,-6.0478901493,-6.0466324196,0.0536845732,0.3914047749,-0.6488911328,-0.7109386065,5.6550405843,0.550108467,0.4176245032,0.1852249791,0.7035212878,4.7599434694,-1.4423540301,-3.5261933525,0.7805743435,0.949193121,-7.374174538,1.3227790524,-12.5243653259,-0.8388921667,-0.8259837356,-0.4930857395,-3.2288653771,1.3670643143,2.3351425451,8.9687883314,0.2607490189,0.9818210351,16.1623282286,-17.8808619369,-8.068205184,1.3435969226,-1.1742095149,-0.1226261493,0.1245481757,10.5074612905,5.1597213188,11.9085018332,0.0492701821,-0.5712545433,-4.1219783973,-95.3738677031,0.3524154085,4.8230427926,0.5499683995,0.5072398884,19.8378002055,38.8314929979,22.4758039885,-15.9651456071,0.5067620238,0.8586957874,-28.1577213644,5.0451051362,31.3148790175,-24.3471186708
   -1.7573781483,0.9571240983,106.8639401205,-13.7235430059,7.245024653,78.0033630347,0.3471350425,0.2548301377,-2.94958895,15.3580355878,-2.9000863139,1.1610658255,1.1333422302,-0.8897299593,4.8681889279,-1.0731738315,-4.9931033935,0.8241903446,-0.1298859833,-0.8251084195,0.006937754,0.8703580593,0.2627912082,0.7117691733,-0.5579618482,0.5202093636,1.4483119546,-2.3608270433,1.1785902464,-1.1923594928,-1.1549445111,-0.7136356005,-1.5473573058,-6.3052340715,0.995879495,-6.6032639504,-0.6010675134,-0.8665819516,-6.8110458484,0.2847776064,-1.1103307349,-0.2373483209,0.2322717354,-0.7233696611,-1.9735107839,-2.1909935577,-15.256502177,-0.4918104743,-1.4649226392,-0.6130273354,-0.4468426358,-0.5767795625,0.3665673195,-33.1076420654,0.5338670977,-0.861875146,0.4644967534,-0.6566543087,-8.577440476,-0.0360308511,-0.4614263156,-0.3187933836,-0.5823838629,-0.4015922456,8.004847103,-0.675887438,-0.3951408536,-0.1715066388,-0.5564828218,-1.1646918519,1.0736145343,0.2457352847,0.7575966468,-0.772633606,0.5385869528,0.4465247318,15.8618401698,-0.4015599227,-0.6542141965,0.3057474875,-0.0432949412,-0.6251662387,-0.1686794227,0.2205177925,0.8103421523,0.2702678246,1.7675125774,-0.7726756736,1.3237182615,-0.2852664524,0.2941590103,-0.0615786791,-0.4094588193,-18.4117274123,50.8623773545,5.1504465351,0.2726096821,-0.3140476804,3.3146934803,0.8090359258,20.9758302468,1.628343755,-0.8809356653,0.2907276609,0.4972590651,13.6962132998,-0.1341415597,-0.6810768894,-0.7234706331,-0.0456568721,-0.6574798693,0.6443226228,-2.420932764,0.126678841,0.8793582352,0.2827142672,0.6483981634,4.7323520054,29.6850217794,5.2453647359,-0.1103361537,-0.4930984166,0.7075591277,2.2936583538,-0.184791431,-0.6228559289,-0.4735429104,0.7254201109,1.0484978263,0.0420552226,2.9142972426,-0.6341764227,0.7022978751,0.4492833567,0.6198740876,-0.2175686604,0.1210785775,-5.1811364041,0.5364087201,0.2310316236,-11.1731005898,-0.5781387584,-1.5752209324,-0.4846514802,-0.3092264891,-0.3410052967,-0.7160758625,-1.3455220052,-4.7067509399,-0.655468587,-0.8742660751,0.4980389485,-1.077901195,-1.5635535229,-1.1206970461,-2.2142565991,-0.1828115308,-0.7419512843,-2.2077458027,2.9318958459,-11.699249476,1.1504119266,0.2140217348,0.9713921892,2.3630024433,-0.3267289151,0.5394583514,-0.1984183286,-0.5912444165,0.4606215721,-0.0928175685,1.14983882,0.858605266,-0.6441685314,0.3022275979,0.8776576603,0.778179581,0.3204411921,0.9972397709,7.8714665782,0.1430980081,0.7957087858,1.9333459734,1.3623970384,0.4702793369,-0.012135546,0.2043889774,0.6351741376,0.1609565632,1.6209802989,0.4166342366,2.4049189496,0.2591187034,0.7047814569,6.2894103673,26.1335144776,1.5672958097,9.8243836638,-0.6587454532,0.6392091075,10.6310557295,8.1990634382,24.1061251424,0.1340023946,0.5947809631,-0.4855574791,1.5800043871,-0.8378704285,49.7540466763,-0.4623141605,0.2929929987,-0.5778849826,-1.1200813406,1.6143698967,3.4952283985,5.4399223923,-0.7650285992,0.7840830004,6.5909020082,2.9204392797,0.6501668057,4.0843716331,-0.3955724669,-0.8115144738,4.5134652232,9.9924181097,-0.4501211383,-22.2578144519,-0.3490119878,-0.9714617481,-7.5900507481,-0.6710569898,0.1465113748,-1.4162496638,-0.7119262382,0.7253117534,-4.8375745334,-0.2547099681,-1.7420301546,-0.6689627539,-0.1530550683,-0.1842557799,-0.6006714127,-0.4151205779,-0.6296527903,0.2990713862,0.7406395469,-0.3128614716,0.179948677,0.8628101012,-0.6152470506,-0.4238504947,-0.0574341708,-0.7606063162,0.0054778474,-0.0411467619,0.1536832525,0.4287930568,-0.1568076139,0.2562206433,0.4686978943,0.1477757645,0.1228528264,0.8024714197,0.2959361374,0.7665925092,-0.9531263016,-0.6306749866,-0.0979177201,-0.4417960469,-0.1492906896,0.1776791,0.7551956103,-0.6650005293,0.5332419555,-0.7781716691,-0.5574013854,-0.5394841035,0.8247587178,-0.0937766425,0.7264182166,-0.751351778,0.4799604919,-0.8303426386
##end
biasActivation=0,1,1
[BASIC:ACTIVATION]
"ActivationLinear"
"ActivationLinear"
"ActivationLinear"
