encog,BasicNetwork,java,3.2.0,1,1375949561457
[BASIC]
[BASIC:PARAMS]
[BASIC:NETWORK]
beginTraining=0
connectionLimit=0
contextTargetOffset=0,0,0
contextTargetSize=0,0,0
endTraining=2
hasContext=f
inputCount=295
layerCounts=2,16,296
layerFeedCounts=2,15,295
layerContextCount=0,0,0
layerIndex=0,2,18
output=-0.0002783857,0.0003124557,0.9999948679,0.5105543661,0.9999999849,0.9999267696,-0.9996079345,0.041123494,0.9869453319,0.9999999918,0.9730087447,1,0.9961762923,-0.9999999972,1,0.9998315377,0.9999985609,1,0.0001479728,0.0002219263,0.0001479947,0.0002219592,1.6393442623,0,-0.0001479181,0.0001479728,-0.00007397,-0.9585921325,0,0,-0.0001479509,-0.0001479509,2.05,-0.0001479509,-0.0001479399,0,0,-0.393442623,0,-0.0000739809,-0.0000739864,-0.0000739864,1.7297297297,0,0,-0.0001479837,-0.0000739919,-0.0396039604,-0.0002219592,0.0002959455,0,0.0002959893,1,0.0005180197,0.000147929,0.0003700141,0.0002959018,0.2835051546,0.000147929,0.0005916285,0.0001479509,0.0005176749,4.5863453815,0.0005176749,0,0,-0.0003695765,-0.4493170381,-0.0004434918,-0.000443459,0,-0.0001478852,-0.8772845953,-0.0001478962,-0.0001478852,0,0,0.5531914894,-0.0009618942,-0.0007390983,0.0003705351,-0.0001481372,-0.487137938,-0.0002221893,-0.001183432,-0.0011111934,-0.0011111934,0.4485584518,-0.0009630343,-0.0006664692,-0.0008157817,-0.0005932958,-0.3678004226,-0.0008156607,-0.0014079289,-0.0035626809,-0.0020777679,2.3784366577,-0.0019294991,-0.0009646779,0.0012662942,0.0003718025,-0.5974788575,0.0002974199,-0.0004456659,-0.0017854486,-0.0017096558,0.8058352493,-0.0017096558,-0.0004458646,0.0003726338,0.0008190618,-0.468015981,0.0008190618,0.0001486878,0.0008939879,0.0002975969,-0.2993315177,0.0003719961,0.0001486657,-0.0005954596,-0.0011156564,0.519434629,-0.0010412018,-0.0008918618,0,0.0005212211,-0.0235658915,0.0003722454,-0.0004463289,-0.0017874432,-0.002381484,0.7585741505,-0.0023070626,-0.0022326412,-0.0012683728,-0.0005967922,0.2004424179,-0.0006713412,0.000745879,0.0005976393,0.001418228,-0.5314580121,0.0013435844,0.0000745323,0.0006719427,-0.0002981515,-0.2966530219,-0.0002236303,-0.000298107,-0.0011191524,-0.0010438413,0.3528471984,-0.0010438413,0.0008945877,0.00059755,0.0014181221,0.1299873471,0.0014927601,-0.000223447,0.0008957898,-0.0001490646,-0.3162137952,-0.000298107,0.0026074648,0.0003729117,0.0032053671,3.1211790393,0.0031310571,0.0011888839,0.0026094088,-0.000594442,-0.431602649,-0.0002972652,-0.0013359062,-0.000297442,0.0003717472,-0.6343384443,0.0002973536,0.0017092747,0.0000743826,0.0006688963,0.788682131,0.0005945303,0.0004451369,0.0011900335,0.0002970885,0.3123129543,0.0002970885,0.0014831294,0.0004457321,0.0023017523,0.5438453603,0.0023760024,0.0000740466,-0.0015593673,-0.0034076598,0.3888439489,-0.0034074074,-0.003553976,-0.0005949725,-0.0003716643,-0.4239914913,-0.0002973094,0.0019319364,0.0005209108,0.00148721,0.5455025059,0.0010408922,-0.0002966479,0.0014131647,0.0002227502,-0.8178301189,0.0005199049,0.0005192878,0.0004456328,0.0008908025,0.0674578389,0.0008908025,0.0002965819,0.0002969562,-0.0005191723,0.0806026916,-0.0005191723,-0.0005929879,-0.000074217,0.000519442,-0.5349939082,0.000519442,0.0004450048,0,-0.0002966699,0.850363901,-0.0002966699,0,0.0002968901,0.0004451369,-0.6499370673,0.0004451369,0.0003706724,0.0004452029,0.0002966259,0.9739325843,0.0003707824,-0.000148214,-0.0001483349,-0.0004448069,-0.6161202186,-0.0005189029,-0.000148236,-0.0001483569,0.0002966699,0.7153024911,0.0003708374,0.0010378058,0.0005935158,0.0008156002,0.7527662517,0.0007413998,-0.0001481043,-0.0003707274,-0.0004445103,0.0144012626,-0.0004445103,0.0011850096,0.0005192108,0.0009635339,0.7569039284,0.0009635339,-0.0001479509,0.0003706724,0.0007404665,-0.4517378791,0.0007404665,0.0006658775,0.0011857122,-0.0000739919,0.2541893802,0.013720613,0.006321612,0.0060313631,0.0069653316,-0.1619712535,0.0075193921,0.0065959953,0.0039968026,-0.0080176073,0.3714230171,-0.0082488805,-0.0078009205,-0.0015127389,0.0047543582,-0.2990204039,0.0044359949,0.0069187829,0.0110836456,0.0061514196,0.0156553834,0.0055205047,0.0002342469,-0.0085173502,-0.0108167424,0.2388033724,-0.0101960784,0.0343481655,0.0038180083,0.0495245642,0.4306529176,0.0490491284,0.0113207547,0.0444532488,0.0101170253,-0.2351538977,1
outputCount=2
weightIndex=0,32,4472
weights=##0
##double#4472
   0.0012310267,-0.0007299375,0.0000390012,-0.000757408,-0.0004594073,-0.0001202345,0.0001808058,0.0002761336,-0.0006684821,0.0005752807,0.0008465408,-0.0000025777,-0.0000787337,-0.0008832033,0.0007534145,-0.0018895925,0.001184194,-0.0012254016,0.0006718765,-0.0006364258,0.0006097105,0.0014519126,-0.0005228962,0.0011526967,-0.0028894574,0.0011529838,0.0006366793,0.0010863341,-0.0008772774,-0.0009550039,0.0014587702,0.0021154669,39.0351468031,-38.8992391578,100.0338110581,-98.2628936763,0.3223929314,129.1336535648,251.3176822544,-24.8832839535,-37.9031175203,0.2787071433,-286.7454862224,412.8238710219,259.8854361309,-53.0626492719,0.3872700817,113.7850495601,-67.7080789799,3.1663705922,2.839853144,-0.085968136,86.6313966583,-240.4897566881,-266.5729833495,14.0000204499,0.3944381027,19.7811319835,-546.6204073471,566.0678648245,78.5087329789,0.2948055918,649.2248575875,56.2658498123,401.1928532053,-178.7583057637,0.2428536933,4.9859613312,337.9548100576,-877.7190321934,-237.4686587965,0.9350822607,14.1189933839,-187.0754481327,313.3156333938,71.4714737634,0.5236371463,22.6461430814,99.8472798862,-161.4724109837,-33.3775703717,-0.084601662,90.0942215742,181.6121817586,274.4815916319,-123.6634928845,-0.1089135428,-153.4567685224,-115.4481710997,-88.6118915629,76.4617162241,-0.0091600561,-3.3007690588,5.2329647954,6.7202818702,2.6083504851,-0.2668227437,1.3645700996,-1.1263818341,-6.3579030046,-2.7292190728,0.3340402781,-7.1292579688,-0.0585304072,-0.675371863,20.6221880658,0.0024507571,-0.3468797228,19.6305085073,0.5879972736,2.3276240497,-2.1310571335,1.5126520217,12.4342818086,-1.9789886075,-16.961952732,-1.0406489802,-2.9492033582,0.687102856,1.5814644285,-0.1061490423,-0.6018554103,1.4083348925,1.8575089858,1.3221458315,6.8444429724,1.2703068851,5.889605474,14.6343558457,39.2377999406,7.0715479214,-1.9194891476,4.0245066308,-5.521588862,1.4366390708,1.4038175209,0.0288446892,1.9135392047,6.9427541541,-27.1397340059,2.1639522683,-1.6800364456,-2.0773909906,-3.7352227091,90.8623221373,-1.2816805774,-0.3641330245,-0.44939391,-20.6252543247,-23.2907055557,0.60052163,-0.1311633439,1.7240084995,10.3742793058,-0.0887602855,8.0095451848,0.9958040064,8.1771933547,19.2548603388,40.8678735758,16.0300954517,-3.514055663,17.0262963911,1.1377956154,4.0675067097,0.7122633793,0.0177175678,-20.0496945611,-0.6353255715,0.3899082706,0.2527950252,-0.771656737,0.4146161694,2.2106862664,-3.1293585248,-2.3780640373,-0.9909925165,-53.3917236725,21.6112259673,0.483638653,-21.2249756019,1.5465358173,-19.9424627112,-0.0752309759,14.2136595382,-0.3021517634,-1.6356250635,0.7825975479,-153.4548729987,-62.6306133302,-10.2966782912,-0.3840708662,-21.3429739621,8.0563470067,-5.3392954908,-22.2185358524,0.3173370828,-37.5214815866,-5.7113717034,-5.2788068628,8.1217616996,-0.648120404,5.0654903014,0.6732301683,4.784363356,-0.3024206346,-0.5463319167,0.038268438,-2.5319664288,-0.976932419,-8.6226742384,-1.8082915623,-6.8799995431,-141.5230993146,17.0578022186,-4.279741833,0.0211697225,-2.2116309009,-0.4800320969,-8.4716614939,-0.3064977795,-2.2739232848,-1.5106404211,22.9813467637,0.2786441431,-12.1771116643,0.265063753,-9.7564063139,4.2467677345,-2.4101268273,3.3321098874,1.0417309686,13.777883641,0.0732434848,-13.1759519611,0.1600963824,-0.0864547958,0.1880866274,9.5672933045,-0.0354359766,5.6008899337,0.2327496841,4.5586150473,23.7082808891,11.5842351945,0.6261442834,0.4567937256,-0.0992898605,-0.4721821566,0.176671646,32.1478937969,0.3936402571,-3.659151482,-6.9873281892,-2.5630587033,-5.9420202581,2.5159511084,-3.4911514794,-1.7098672024,-0.9583001378,-1.6385944444,-1.2593642519,-0.6731514029,-0.4239372762,-12.0151089367,3.3452804832,0.4147738349,12.3624997056,0.671541313,-43.0191838107,-10.8363886367,-0.2038555344,-3.9795166709,18.2640429983,2.6559134237,1.8115395862,-0.4115846957,8.0371905815,-0.628840322,0.9732972423,139.3382339029,-1.9206107174,0.448320541,0.2517505364,5.1977567792,-2.3769665027,-0.4021912861,-2.3893772445,-27.4087645785,-8.5378008945,0.1526939535,-1.0402128988,0.8431893132,-0.2422018699,-0.8961336548,0.241488811,-0.1330291008,-0.2124566643,0.5187590401,-0.0685984347,-0.1817017583,0.6665136732,0.1390011632,-0.662139727,1.3300190427,-0.0511850097,0.4994315883,-0.7482919448,0.1861429065,0.4330881905,-0.0461090035,0.8235450284,-0.9839362181,-2.6275699178,-0.3014912066,-0.5283946588,0.8541216068,-0.2021976202,-0.9491214897,-0.4978958054,-0.9384494017,-0.3089154742,-0.9215678229,0.9075125521,-0.7175181102,0.2661858578,-0.7360056586,0.2911691963,-18.2830202622,-64.9798471411,-41.6537199818,-1018.7340122393,-1.175972531,168.2389981809,770.3435182849,-100.4641657821,-172.1805757266,-0.5865808372,-173.6452239769,-724.9831063696,-621.9685717097,526.1330533631,0.3093952985,18.9853909034,-517.7020041592,670.508393175,-129.5356347937,0.315382794,-132.9574683627,595.5766973551,496.1403414075,-667.2540462123,-0.8275738966,792.3935865234,12.5779846616,-922.5165578535,-467.0912142292,0.574737619,-323.7929000788,-334.1666526787,-1182.3124804128,-191.9938183709,0.4028839364,-203.2427936596,-86.3603591831,-125.7559182834,154.6003741569,0.9873901439,-1.7145337437,-119.0102310095,-436.5695759889,-630.3813674829,0.5331610455,484.9077370607,807.3786987842,-1557.3974713675,761.2330912997,-0.7860234879,-17.0587238086,90.9917715819,105.4966317143,929.1091353933,0.7272422111,332.8607597282,-8.2137449294,2.2171008096,-125.6419678623,0.4535431326,0.4141557101,0.534974547,34.6394999274,-0.7594735249,-0.2254890833,-1.4146712882,-5.4506000611,-94.9120529607,-1.6845733438,-1.3252299209,-0.3571991263,1.4432306724,-1.0218417651,0.8652263922,0.0851070524,1.1624185321,-19.2711368501,-10.3467082271,5.4446921979,0.6640811839,2.6538408616,-0.3086027422,1.3281863848,-1.9295741426,-0.6535025148,-1.8102373352,-7.0225983838,62.2417521453,37.2726468193,-1.039381539,20.1637535408,9.9513015522,9.5956679688,0.7462779298,2.2899653194,-1.3268375431,-3.9866043428,-1.141588313,9.112842017,-1.2958027023,9.9764393211,-0.3607857941,-52.6287129127,-3.9472541471,0.7853997741,-1.60237427,-0.4116400937,-11.2904434324,0.4029801995,-0.0248323124,-0.5132636756,-11.3351064528,-8.0654997673,1.6253730862,-0.7293687152,16.6368756733,0.4846068969,-105.7358232274,0.5869787737,1.8753319086,-0.5820030862,17.8005349172,3.2597040451,-15.4472645185,-0.1240923083,-25.0338083428,-1.4014449726,-5.1193802225,-1.9111466748,-0.5253289193,-0.8833276538,-7.3234098669,-0.9860068522,-3.176161891,0.203355795,-3.7868796335,-1.1543030762,42.0838954332,0.5728529754,-0.4860906381,-4.203113512,0.7763569605,-80.1224782006,-20.6113685323,-0.5319731637,-17.5820349649,-23.6616044656,-30.6966040127,-1.4089859944,1.9128031208,-1.6565704117,-20.3677342566,-126.5121530054,205.8038377885,0.9980453154,166.2199156135,-13.2360984844,-5.0277976652,-15.7510382315,-0.5960770005,-11.9681365896,0.2516486885,-177.6596330106,0.9306559189,0.4582593158,0.9873234516,6.0488484768,0.0218217056,1.4986816239,0.6718098753,5.008075571,-140.4458458996,9.0323681772,-17.6287425969,-2.8850983055,-19.2093270494,10.2009642533,3.241030885,44.5030228997,-0.6042108943,43.2001780672,0.6387745377,53.2064740809,0.3640283523,-0.2804099939,0.8224186142,46.9268610154,10.7696103138,-9.9698736467,-0.698102219,-1.1460193195,1.661040952,-14.1153986446,0.7567857191,1.3973200457,-0.0466682568,-53.4828043248,2.4336221901,-2.4352462949,0.0509705274,-1.3428280307,-1.9645265048,-218.0434779626,3.7799824329,0.5541411196,3.1042394593,103.1307877894,-0.6047449442,0.7386153986,1.3421402882,-3.00897917,-0.4224626286,102.4413537312,0.6359668304,0.7246181175,-1.1931429742,-0.8957900118,-29.2866508572,0.6072042693,-0.0914664275,-0.6123424527,-1.4279313275,-0.2298061959,-2.4321984452,-0.3917557628,-0.5829142528,2.3037343972,-85.1756145008,11.1745087416,1.6765973063,28.9852743304,3.3724835058,12.5071895047,2.56812281,0.134306275,7.2297232638,6.2904234288,1.1383488935,45.5395977481,0.1543859081,12.8053100823,0.2424621293,0.4610058089,-4.2606093502,0.1719355742,-3.7061941988,-17.9621923454,0.8973816384,7.1159842872,0.4709220253,1.4911300952,2.6179484059,0.4078928301,2.1457568454,-0.7678323018,48.8330565022,2.5793944943,11.0860712675,16.0400785317,-0.2110510507,-0.6582825099,0.7140488376,-0.7109140189,-0.3436257309,-0.6443156395,0.7726299228,0.7713068982,-0.8791632459,0.0275446675,0.1230763768,0.256602236,0.6685637941,0.0300187522,0.7081546087,-0.5428294147,-0.3992110152,0.2396493529,-0.1003621573,0.9898201837,0.2261853489,0.7922958541,-0.8475255648,-0.9504812645,0.6220373536,-0.2099130999,-0.6067924846,0.5368251521,0.1479230738,-0.0138438997,-0.8744755374,-0.3864437853,-0.7519157905,0.3898083283,-0.3610104788,0.9959341053,-0.9212029808,114.0886141874,15.5164991273,90.3667607932,-1355.5463255662,0.4326311078,-60.29322709,-249.1527997774,-72.8670905301,-204.2368467431,1.2010804149,72.9355236839,-374.6551620139,-771.349783449,2252.6370738895,2.1614967947,-67.0994021581,-42.0237029424,1115.9864419657,308.3530892004,-1.1733166156,-2256.0156000015,-9.9785075346,-64.7434130441,-373.2273783876,0.7746705179,-154.6113419099,134.3384113149,2705.6311057732,9.501728992,-0.3345779412,-1961.2714029169,-115.5251170641,460.6637399798,775.1633943984,0.8017031438,410.3371377114,1434.1454715819,434.0630266723,-11.1962518758,-0.5662003793,-10.6941084745,-681.0818096726,-1774.1395693468,-760.7715558807,-0.1440544954,-18.4341369759,1409.4494060009,303.0461880398,863.7256579049,-1.2093361907,-59.0421889456,-703.5044170698,-31.2228512323,-217.8101763647,-2.5232435836,518.1034418344,28.9545830569,2093.9259601867,135.6130325638,-1.8566285056,145.1807260858,41.4768892197,15.83812708,-2.2971878237,-1.7951799208,-0.8801349173,212.462466957,138.7135747953,4.3370619724,-0.3613778839,6.4115009021,1.575609642,3.5451006395,-0.3580887468,-1.5848786617,-0.3219880324,-95.8099184032,-11.3559886552,12.0421322717,-0.0851383496,7.0580879003,159.2307853316,86.8404619703,-154.8845880405,-1.8450204772,-260.2841135143,6.773804288,0.3995852528,18.4823399289,0.4094023848,15.6726359391,-409.9216631043,-10.5501635141,-10.114509066,0.1440146929,-142.9113046811,-263.8234492066,-107.4759643527,-193.3102326512,0.6217874183,-70.7587056651,-5.2849458998,-590.654300732,-0.6273855193,2.3419610221,-1.8550811092,-0.5796416713,-742.9942770679,-106.8762300932,-1.2149989476,-275.8210087995,444.6091759802,309.3704946423,185.6176904061,0.3961636296,149.5742005019,347.6591052391,18.0557085804,1.1381760837,-1.4684014857,1.9237553331,-1.6114973297,7.5496159299,-4.93925445,-0.1028680016,48.4218259368,5.9398306124,9.8240041509,-40.8610936717,-1.0965924374,-55.9243624515,-124.0223452003,-7.4205256737,0.4254523553,-0.4949010318,-3.1173892251,-10.5593801533,-3.2492579926,-1.047945276,0.3765069539,-7.9644572025,17.2701754281,-16.8445591326,1.9087126897,-0.0421607632,0.8926284936,-3.2191865934,104.3452538638,-84.6848052225,-0.0686797501,-113.1240284781,82.8839249598,-17.6321068996,-0.1731104616,-0.292352193,191.133582912,25.6109652293,-8.854036411,-0.5966776492,0.5357170515,0.090277935,505.4251728634,5.090363908,8.48588838,2.2002135477,5.6591790629,-1.0352871507,1091.0427803556,31.2558483067,-1.7234228357,739.4184207653,4.6154477617,0.9485173988,93.607039253,0.5203107428,53.6643967039,-0.7544848104,-21.5074377269,0.1041627466,-0.1212368057,-0.3030139099,-4.465792847,0.0254112133,-36.3307060133,0.4095193603,-33.0763297239,-2.4092955811,89.3259241904,-10.5336328363,0.6467479624,-19.1604344431,-77.385615386,1.575527245,-0.1257137717,0.5985101776,1.8467842296,-1.972563262,-3.1194834085,-2.8873105802,-1.7433865787,-1.1650553204,-0.0770174897,-7.6897258539,-117.2941068091,0.5998260517,-111.5813141042,2.6379074384,-58.7663449822,7.7002471991,-0.8655223277,59.1414417185,-13.0245147791,341.5766982521,31.5933266861,-1.126340244,48.1294060556,-8.0021773096,-1.254674069,-0.623537607,0.0065507635,-0.2333727546,0.3388436736,0.0137301323,-252.2561708411,-0.2777100863,-96.5325738947,-0.2006348194,0.3516120078,14.1765397154,1.0697586992,5.8158966242,-2.8885297184,-7.2135360954,-10.0807396072,-0.7845357003,-4.3238162873,-1.5183308045,-6.4101074359,-1.0425897592,-1.1606309766,-0.1091889678,99.9655998669,-135.1288356087,6.5744263314,0.6416820976,0.3314188184,-0.2793128813,-5.2879503308,-0.0659642677,1.0920181306,1.6280940687,-2.1387886025,9.3585214549,-3.9103511026,-0.6873907621,-10.3059058774,6.2560252529,-0.5991519123,-1.2454622202,-0.2157342095,0.0917745844,-0.1371417834,0.8738988027,0.0128641522,-0.0289316973,0.6169800758,0.1739255558,0.864901079,0.3078995588,0.6098821275,0.0278169232,-0.6135535926,-0.5054120928,-0.989003186,0.7912809013,-0.1979116987,0.1835105564,-0.7968413147,0.1155062517,0.708263128,-1.1761880548,-0.5414978528,-0.0745388029,0.3588871733,-0.8558769993,-0.2110988771,0.5252354387,0.1486990779,-0.8551813773,0.584529966,-0.3388563681,0.7511350829,-0.5621993303,-0.339103834,-0.4121639407,0.4498898524,-496.0664978614,-119.5232255807,325.995898757,-126.6718445411,1.403511416,-134.6403955317,201.5266595083,973.4943342991,0.8512272145,-0.2899020015,-453.9547947163,-216.1799324585,-386.0946132404,-0.9143430028,-0.1138303646,142.7591237067,316.840604982,582.953066097,-85.7168860357,-0.0968323163,-188.2143578231,-182.8040978004,-10.8260645633,522.0918274891,0.6634906178,361.6949022148,4.4942450086,29.2622386042,1494.0390287611,0.5282881661,-388.2681150032,1106.2118501117,-218.575668681,137.1142308173,-0.2487535719,221.0293184557,-423.4774557072,-1015.6867350858,-968.4708001762,-0.6005620612,30.1162124415,284.2252335609,22.6792275929,66.4210784766,-0.074213282,-5.1074946489,1020.2253685733,213.3978829122,-11.9749690056,1.5582748892,583.1581086211,-146.1836155155,515.2253457866,-27.8337232285,-0.8487968168,146.0383190904,1875.9714185482,23.7545909903,233.8556159478,0.0712152734,-1.7572447531,-23.3071969682,-0.9649862909,-0.4519469747,0.084141305,-0.7353540046,2.1664737136,2.4486869984,-1.6456151198,5.0427616885,-24.7647403066,3.2122122559,-69.1946891237,-21.2512177232,-1.4361748946,5.0262440685,-0.2756711036,-15.9298012526,3.0521218167,-0.441875974,-6.3526120025,0.3818117038,11.2651073198,5.4558884272,0.9069045256,3.5970814865,143.0972510488,6.9516208403,-1.1672343042,-0.0375169203,-10.567273879,1.3572840555,3.7907717809,-7.8208361131,1.0193797867,-6.0035028672,9.0244629784,126.1063611576,3.5867023457,-1.3501237668,-1.8487788224,9.8257360041,-0.8464039587,-2.4135652194,0.2529660845,-1.4834927818,51.1828494469,43.4937283832,128.7688568151,0.8310047938,64.9605611975,55.3732922234,0.9860787952,-0.9939455808,1.2148475701,-0.2048084026,14.8688763032,-0.8237809746,3.8462292263,-0.5464743132,2.5394740741,1.4462122299,2.8666527879,1.5374279977,-0.1107949983,3.2001739221,-64.4847022207,-6.8287373838,-3.6748743334,-1.0705125792,-3.3185518856,-2.6169592669,-1.9735223703,-40.9995434216,-0.1621295798,-3.3658202592,-103.6599278236,0.9857320486,3.0851311506,-0.409879236,2.4398118696,56.502360692,82.1488692102,84.5791538382,-0.8677418452,31.895836334,1.2447814953,-11.9478254228,6.6870705101,1.7591159364,34.1682080686,-3.066693221,-1.8338497882,-106.6710004777,-0.0420809528,-211.3969031608,-14.0716716151,0.9354595764,-2.4482022941,0.1494198895,-2.7601292675,-13.1411098438,-1.3332510279,0.2655003119,2.1389754437,1.3702097822,-7.6464946529,-1.3379994675,-25.6742174766,-1.7601734463,-24.639185556,-7.2018360434,-4.1624624082,-40.3597996473,-2.9852795285,-4.8997676661,47.0526173148,-9.9852710838,-1.3068767707,-1.3522591524,1.739684872,-6.1010769444,8.5346387344,1.8046643549,1.6181408019,0.8537512873,7.8407241401,85.3849987843,7.0723122588,-1.925476668,3.8398494515,-0.3643436273,-1.6383420475,-6.3064375371,-0.3640911284,-7.5686124249,-0.8058445753,12.496857357,-0.1391252042,-0.4699619642,-0.349062571,-0.9764097703,-16.4482390389,-2.4019724778,1.6230473548,-0.5461365653,-34.8665475439,-2.0226938054,-4.4057883856,-0.8566169047,3.5897811287,459.052278565,-150.8154754931,0.8291599898,-0.7543029309,-0.5396776066,23.2002419616,-25.7849215681,-0.64181538,1.1484363273,-1.6266886274,0.4322391286,-198.8128188232,2.1302355554,-0.9737533294,-2.1114102034,-4.5442878507,2.2457366397,-111.2695593314,-2.0647507857,-0.34932841,-4.3177258191,11.5128327049,3.6110724291,-4.4530973562,16.6449648063,5.3818780108,-0.0457972841,3.8313816026,-0.2106243732,-38.8042538149,0.699625705,-4.6587693134,-0.8440043512,-0.2100699991,-1.9783689513,-0.6003639637,30.6405475222,-0.7048890112,1.0829509632,-0.701455958,-74.8213215719,-1.6186733881,-23.0975484367,0.5066955678,-65.9005425081,-73.4140771158,375.5638814542,-24.2723769477,1.1772679626,-1.2079624402,-0.7389963237,-0.5286357892,-0.8126122907,-0.7809299637,-1.2090948951,-1.7750430697,-1.7599425453,0.2258191106,0.4301561807,0.2036735852,0.2609226288,1.6058726514,-1.4388092674,-1.0141698486,-0.2678403792,-1.1679702015,-0.0787222707,-2.4093616334,-0.2969263485,-1.9885141882,-2.5476755512,-0.030140317,0.0374686592,-0.745619722,0.6344323484,-0.623403041,-0.2952117569,-0.1887808255,1.0073682611,-1.3213510276,-0.1517706962,-1.1190986284,0.0772054712,-0.0128078127,-1.2309412715,-238.3779827954,26.8253598309,1041.442248985,41.6331402525,-0.2913594991,303.4674794016,33.4451339415,128.7798598714,-712.2906614886,-0.1056798643,50.9285598177,-108.6689952949,-371.1502988376,324.766770384,-0.4048646195,321.3816840532,952.4574217236,-34.0764014037,-46.4871121678,0.0432791464,-177.9910377632,-129.8636246634,-1255.7774048422,-310.0058119338,-0.674759837,-382.1777939014,3.2111631445,-15.5753577562,-73.6534840367,-0.0846833339,-65.5198138013,-592.5753045485,-94.3317910543,-58.9007351929,0.0996320251,-437.3634799278,-50.6903862807,118.9254137043,-469.9482169492,-0.0329541669,-514.730725358,63.9026008779,-30.2839396261,-22.4904485195,0.0319152095,107.5135550117,-638.2308681794,-828.6531803322,-76.1330490978,-0.9714668801,-55.5305105096,150.7929744903,-36.9577297765,9.5026488507,-0.220968581,-7.6722324702,8.6309103264,-8.9295758975,-192.5176357423,-0.2894775774,-3.5476957169,50.1201656245,-57.2339733794,-0.4787621731,-0.1189814826,-0.2149175774,14.3292846772,0.8516698939,-11.690218015,-1.69497616,-11.4019062178,49.5354800096,-28.9801995004,3.6275390711,-0.35667226,-1.5815620974,-0.2721175941,-195.468314964,3.9294718238,-0.1012043851,5.2825458855,5.6198521859,18.4064823055,42.2691922813,-1.2362773129,38.7603718531,-0.8568927709,-29.9285852395,-2.5135255049,-0.0976796039,-2.3751616121,0.5780740822,8.0877983935,10.939824572,0.3150564237,11.4269266604,-50.453510452,-106.3901831846,-0.9439906385,0.4295110368,-3.3220290158,-11.5018210771,2.1523417951,-0.3629829586,-0.4534792938,-0.8666972903,0.1651892487,-19.6171596157,3.2681914285,2.1331991535,-0.4941406646,1.1490696105,-15.4894411498,6.2480325555,0.4183474597,17.2232077961,-0.9716296401,-32.0842346166,-1.3921275435,1.6090427249,-2.5610799005,157.1360181746,7.1969991477,16.7783495779,0.4591769702,2.4355459953,35.3995211996,24.6629146455,4.4951801003,1.6082230032,3.6202745014,132.6633699423,10.2925963342,-5.7018752088,0.4708205996,-152.1430787052,22.3193117286,4.9519037247,6.3723600062,1.0491456462,3.4261602248,1.0689019397,-1.2025985384,12.2406065425,0.1467998153,8.4066480437,-55.1436481192,1.5885160226,0.9696892112,-1.5364847916,1.101612848,1.6210185185,-33.5351356999,2.0476645427,0.2031724997,1.7214418035,163.1915640624,0.6628124269,-0.8677244799,-1.0182691766,-0.6663077874,-65.3141241475,-0.2890684371,-2.9645145671,-0.3251583398,-1.9696825191,-20.5965329924,0.4566387218,11.6283926016,-1.272336949,24.065919908,1.181500647,-0.2014946811,-0.1249076348,0.379114257,0.4607607844,2.4294510419,-27.5396021897,23.9894301711,0.196545227,21.829450725,-0.8231686791,-9.6048880208,-7.6627200213,-0.5124349394,-7.188055745,-4.742236229,-32.365421396,6.733766822,0.4760960711,30.5496112745,-0.9165572892,136.9707113392,6.4679289729,-0.1986773781,6.4667013426,-96.7436757353,-30.5524384482,14.974312283,-0.276752724,1.019047749,10.4758124261,-2.4122861902,-0.7943997197,0.214415192,-1.204038529,-10.6360724871,-2.4108662024,-111.2974769144,1.4644610629,-7.1629828102,-30.7416666912,-3.8613414363,-2.4950684848,3.9591776153,-6.8013900313,-35.2982114903,2.5219300967,20.6264358346,0.6616087627,4.8616828449,1.6746766666,4.9467549822,-7.6831166084,0.1379079036,-6.7897206581,-8.9208567011,-2.0733222411,0.5004071742,-0.4498972837,-118.1788690065,9.4573213821,1.7173642465,13.5054372752,-1.2632822846,7.2742573846,-12.6064515574,-3.6842954012,-1.6823041286,0.6658704575,-0.8740273141,3.9135998791,22.8128642386,6.8350545947,0.8393749279,4.413186687,1.0924753291,113.256027149,44.4477053548,0.4225754026,41.4828672841,-4.7469537012,-85.2863878488,-12.0641275064,-0.6362122695,-12.8637878052,6.5000097553,15.1172784429,-11.4369596791,-0.9439059306,-0.0971207289,0.5867415304,-1.1718535542,0.6557202154,0.2439347643,0.4441083033,-0.6928616745,-1.045379461,0.9029418968,0.3650318743,0.8715746203,-0.5107858943,-0.3524774589,-0.0071010858,-0.0726913782,-1.2109058409,-1.0758415287,0.2998374367,-0.6694995222,-0.2555536263,0.1503381393,-1.1430151207,0.6567097421,0.1055906871,-1.1360297294,0.3417551775,-0.9605087153,-0.1480241819,0.1196795854,-1.4592495957,-0.7842774938,0.2080202332,-0.0801888987,-0.9132582567,0.9244089626,0.2821108359,460.6565052171,-2.223363929,-197.7523307819,-9.0606456734,0.2654440422,-7.5811323518,-475.496534061,-69.4722121636,27.7756868031,0.3932213445,-12.3828416423,-363.8219977604,591.3803093985,10.7598668389,-0.1357383725,7.842127495,256.4251811968,4.0044365418,73.5880180681,-0.4973597774,-13.3520595636,52.0035105906,473.6545135497,-154.6887005265,-0.3707000471,-540.3241244088,-140.5026724015,-269.4699616906,-143.3024447421,0.1838350035,-69.2987399848,242.2772040004,-6.9826519936,-375.2939777938,0.1716845019,-426.0041155191,-929.9110246124,614.0479695337,28.8098237729,0.0176861284,34.4219846487,6.4434115929,71.8774299645,-11.9286949256,-0.7639234999,-11.4070196811,2528.2545265586,3.1592024478,-6.2482403904,0.0345425198,38.7774833188,31.4040470185,-8.5786192381,921.1432139166,0.4646986716,357.7399381814,135.7215007938,4.2477545068,-539.7410299778,-0.0099720788,0.1537061792,125.1909185676,3.5269973529,-8.760717396,1.4685406243,-13.2632669426,-62.845866037,-97.8112837138,-33.7684886072,-0.0049356979,-32.7339277621,-5.2119151106,-0.9394872757,-0.6491825167,-0.886776314,0.216639067,0.2611168899,-0.3033207854,-4.8151874638,0.5923144303,-1.2294357018,-3.8554748317,-20.3993810624,-5.0634213667,-1.2397045587,-4.2351582395,2.3515200356,6.2416371212,20.6784972244,0.5601308935,17.5066752583,3.6716093497,55.4376081567,-9.1214269671,-0.3932104752,-16.1119492081,-0.4999940867,-69.030235119,-1.0514911263,0.8630782946,-1.7371417345,-5.630399997,5.7229126991,-5.0320056946,-0.7658358176,-3.3264039986,-43.6529238554,-2.2011413618,16.0832554718,0.0290169054,10.8515109281,-3.6257431007,-1.3902518693,-35.7124922321,0.334258291,-4.8027568143,7.2002316844,6.9655661647,3.0282652596,-0.167405803,3.2700459274,9.9184828788,-3.1794232841,-22.0279637059,1.2786138612,-4.0150141108,-5.0421115383,-2.6334577407,7.2929286564,-0.1113175155,12.611032526,27.3736416611,572.614212704,-8.6321298633,-0.2784788786,-16.4510879604,-16.6945456122,-4.0414088753,1.4757788925,-1.0377235726,-5.1006016553,-2.0365474681,4.2547702225,-1.1551609585,0.7186587584,-1.8974093316,-7.9381657899,-0.791780432,-2.5623965638,0.1202632,-2.4979034076,-0.6974512365,-15.4445053591,28.1090951926,0.2199312659,13.9740862341,0.7234086856,1.0061474303,0.5570723561,0.0270709607,1.1185558107,0.1806911133,3.2195327669,1.3142105261,0.9918464204,1.6456121664,-1.6903989526,-1.3862819663,-8.8877088225,-0.437336256,-3.817955727,-0.7589777359,8.1865866968,-1.2267750318,1.0303326723,-1.2157988011,-53.6765795925,24.9010077403,-0.9934247746,-0.8012530664,5.0026011318,0.9145555641,4.3368813054,1.9809479478,0.3236587384,-0.1255313424,-0.212069261,25.6636089116,-15.1333817375,-0.3462352713,-9.626644736,-2.4900914332,-0.1790433212,-0.3420849131,-0.9114592713,0.2848275108,36.2306380958,-12.6892756383,0.1380479014,0.0524332537,0.369478754,-2.0550224785,-1.1348379622,0.3372797734,-2.2203485572,-0.6552726128,0.2215535376,-154.2235501203,-17.5791429324,0.4874068205,-10.2475850721,11.6886795405,135.6869670839,-1.5835752841,-0.1233182274,10.0098447881,-53.2610700224,-4.7415258101,-1.3698604585,0.1091990967,-1.8881927544,-0.0439625947,-0.0123083411,-101.7933621598,1.1404479249,1.4638127056,-4.7426442001,10.4500226507,-37.8176025909,-2.8448621649,-24.3031829555,12.9590622434,51.3841840899,1.6055856699,0.5421200823,-24.4604248545,-279.7475872908,-13.0901312574,-1.1792887117,-0.1866615647,-1.2374154009,0.8610697565,13.2423879277,19.7969805442,0.4733472474,127.0960796323,15.37712557,42.8048452234,3.5454364557,-0.080149417,4.7800825958,-43.6452970297,2.0552193886,-0.7313733897,-1.905523055,-0.2664719063,1.1468136798,187.1980660608,-74.599157242,1.3830670108,-0.53774017,-0.7649921742,-0.4902378264,-0.1481542634,0.7291064086,0.1378609645,-1.1721494552,-0.0969548924,-0.5194192041,-0.6766830659,-0.4535712523,0.9340899556,0.1113465164,0.163219862,-0.8085550657,-1.3031546084,-0.5796753164,-1.0385834855,-0.2879419852,0.4722970707,-1.2268494828,-2.0380799552,0.5595398989,0.1922929308,-0.8165078566,0.218641638,0.5128026254,-0.4611235116,-0.2807321333,-0.0246141102,-0.6616877454,0.4472179108,0.1027351247,-0.4458601108,0.2578263799,0.0683634873,-81.5271243467,-11.2666599114,-24.0372177656,25.8501295172,-0.1562980665,11.7547085859,275.408428452,99.7637276154,976.7878222353,-0.9338174566,569.7736720042,596.6121410106,-29.3571978548,48.7157905731,0.4997065926,64.6564877988,1892.1158023303,20.1166376864,-1188.1783687331,0.3723092762,-19.8397140094,-9.0307264849,-410.8559292522,-53.4709954123,0.5699978539,-461.544109697,-1407.9225448282,224.7301008189,-74.1796701002,-0.0086460912,92.5492439157,-1306.1593339416,-217.2086795282,-41.0360132584,0.3757245923,-447.4617757928,-512.582120537,-9.4262779765,2.0752554565,-1.7300075142,148.7643380196,-76.0726855392,-719.671810596,-229.0969161757,-0.3156946767,319.557565736,-217.6563332029,70.1264987456,-16.5995998364,-0.0407442164,-651.6176048427,827.9852613215,85.7930935097,26.43635168,-2.9352875582,136.1785768216,-378.550172757,763.5354137401,805.5426358758,0.2190996034,-16.2985888185,-18.1080500686,-2.0555928279,-42.8643307979,-0.3868656999,-14.9643014704,-19.5252114791,-3.7928833615,-23.0077969985,-2.6437243694,-17.8305295325,131.0044765493,245.8122944481,8.0279559863,0.303978125,8.3253768298,15.9843594694,99.5847862953,1.5561779066,1.3885697324,0.4792809162,4.2603477175,12.495076689,42.8163358897,5.0807036921,38.0392221995,33.9321153281,-27.0741968265,-5.734846602,1.0893511084,-13.1844920963,13.324343208,-236.4754126671,-105.9179177745,0.5653706117,-5.4514138373,-0.5003065578,2.3318901164,7.9325437525,0.0476949366,11.815129654,55.0754048979,22.8061299686,41.1731554454,-0.366474872,48.4757293285,1.1042873804,4.549192117,1.2189766918,0.8748845884,-0.4597850785,-14.1140921657,-3.63971224,-8.1480042152,-0.3631323245,26.4295642024,-0.2469554616,-5.6333471565,15.168300585,-0.4229907037,4.1790902558,-164.6534872255,0.0210471881,-5.8491073721,-0.1539092839,-5.7578826469,2.9338605402,67.0727027435,20.6590081227,-1.1748042067,22.1235381784,8.3035837282,53.9439164752,10.9219676482,-0.3073242021,27.3552197862,378.1819965969,4.2834189276,-23.3167310071,-0.6573085227,-455.5409005962,2.7932173072,-3.8145602319,-0.1633767826,1.1824968225,-1.5048689274,1.3216985875,3.1708412952,14.3259591863,-0.3238900109,22.2922203432,7.8316040981,22.6200171585,1.7395971032,1.6671432483,-71.2484256421,0.3390478515,21.0181342773,7.8004151579,-1.1418928444,9.0033412833,2.0167169641,-4.3319541103,0.4268486408,0.4128643941,-1.0327538099,-70.4328537225,0.0583015203,7.0333588572,-0.5465542658,4.466356748,-2.527296279,310.8061055987,1.8440783497,-0.0711447308,38.5801448179,-2.1022795854,42.9949824617,-2.722808831,2.6852205769,-2.0060176862,-1.7822500514,-3.4248150477,31.8607644883,0.688974784,17.4260970668,-26.6889172993,145.4966649119,-0.4587834041,-0.7287006592,-1.4718031608,-4.8692799372,3.4563051398,18.1295283815,-0.9378954343,9.5598896701,3.5909608182,85.3480621568,-12.9865984661,1.3256608507,29.3680895048,-3.1216417111,-260.4042826387,-140.7497540299,-0.8917622183,-5.692741061,1.7006371681,10.2818460678,2.101015351,0.1100610634,2.7639920221,-12.8416923463,-0.3570033701,-72.8810729786,3.5829587589,-174.5187322315,-0.8590767723,3.2573642484,36.9007691666,0.9818161607,3.99822485,2.9104766665,11.3726200703,17.5441327603,-0.8097121528,2.8856201577,-36.0519347281,-2.7180611709,-14.7598256934,-1.0957515559,-259.5303675153,3.64761171,58.4261780773,-1.550394421,0.5410746584,-2.7348832192,5.1021355383,-25.1728964451,-72.1498452054,0.6912235346
   -7.2798651147,-3.132783734,42.8965070185,-172.2520876406,1.5659662698,97.2128152758,10.7982290725,-67.3895295749,-0.9904548882,-0.9103305564,-0.2894520834,-1.8940575823,-4.1965047737,-5.5520099649,1.0144604569,-3.6249057237,-0.7993420785,-263.9230071918,3.1482973276,0.2510762393,1.2531470296,0.4638707415,0.2663569929,0.1406369261,0.0136779608,0.624250904,0.7443008975,1.0132704749,-0.8613592238,0.0471310382,-0.410712571,-0.0525623797,0.4448355311,1.1901739348,-0.5086311772,0.5400022215,-0.3405976109,0.8101995474,0.9743560474,0.3739966782,0.1401054394,0.8262052971,0.3616317866,-0.0274924602,0.3686209505,0.2931998994,0.185119784,0.9243375911,-0.9311373721,0.5325627511,0.2035816007,0.887820154,-0.9358935147,0.1926118664,0.390878764,-0.5944736039,1.7907851248,408.0586231349,0.8936226644,115.7000726234,0.6078006469,145.6940891112,-231.7814263409,1648.5886655937,-83.5584957529,0.2385747424,-285.2919258872,91.3706162247,32.7113563383,-45.0013998136,-0.4367583882,19.5860900078,1199.5224041149,-360.5073013973,-742.4941965319,-1.2111642651,-148.1656449964,34.4942071418,-468.8758629797,14.6797036985,1.2122467547,-1.7615898061,179.8305896917,-95.6493189764,-632.1494715477,-0.12451163,-97.4615858194,-963.4025118704,-1840.6701555058,-89.5905059399,0.6526280673,-93.8170404675,-34.8492732344,-11.0494133761,302.5556882358,0.5414577802,514.6152196712,-44.0791882057,-1944.2480499728,-425.6745248344,0.9395257245,-583.6391277187,11.7511437785,37.0884138829,356.3911360571,-0.8663841538,-250.414234214,-126.3243877787,5.6113666884,-1983.4665727067,-1.0297565791,-2906.9759700032,-467.3293076475,-2813.2712158624,2405.6077515268,-0.2661266872,14.243168545,0.2659723732,1.4334832467,-75.0293975634,-0.6280046718,-228.7374152045,-11.2528684822,-4.9446802232,48.9481797359,0.1632642637,-4.3549842469,1.6877518765,1.0459468716,3.5667923929,0.5350400306,5.2200770581,-280.340525657,9.0049287225,4.815593419,-0.2830229586,5.2923807942,174.4919092519,34.7659301192,32.8892312738,-0.018755116,202.3811316929,-2.7259191948,8.7301276607,-0.2166141701,-0.9877041018,-7.110506169,-56.5317081273,-235.2703225299,-125.9401009183,0.5937107937,-134.5902231576,-10.5482690004,-310.8794678996,-1111.6137152902,-1.1705165344,4.4133639515,-20.4749470338,-46.4813299786,-18.295013647,0.5619466967,10.4918710544,37.3633135987,-583.9226438365,0.0285122679,1.373704328,-1.5629784638,-1.5831036434,4.5024814421,22.9029178644,-0.7568077315,14.6598317872,223.9822530303,12.2546374595,0.5266110194,0.7268342931,-0.0522967231,24.0417008984,235.6993898794,800.2240438718,1.9590677155,120.0210161724,-18.9252282754,156.4294107028,-7.5534399173,-1.5156794095,4.1994217663,-8.7494309963,-56.3440985541,54.8729315809,1.6988144881,50.3722698469,589.7146592494,725.2299941422,45.841735436,0.5523591165,44.0018269923,158.3534186154,-21.1346613041,-15.3714977409,-0.1475356754,-36.2801734035,-6.3580961728,156.1220163418,40.8801021683,0.1138748134,576.1004134361,7.9952081013,-40.1721747817,0.5299375431,0.4426653535,-0.909711229,-8.6903737115,-39.7650226512,-12.3456752965,-1.5328322223,-21.6217374243,-240.5771587068,-70.9446437984,-39.4756745616,-0.1955872317,-41.2451504154,-19.3285924905,-112.9985288687,-2.1281777019,-1.4070079217,-1.1894344821,-209.0507227316,-123.4770678004,-19.8784277657,-0.4059382429,-26.8543534972,-121.6548801894,-26.9173826807,-22.0990801212,-0.1192645808,-3.7511008516,1.3492499411,3.2801709437,1.6259389819,-0.0690407251,1.2645799268,1.4461912737,147.0607034187,3.0132387725,0.2786358764,3.745098392,-1.7567064988,-0.0409342587,-3.0090880456,-0.4084938129,-2.9108368063,-3.0815371599,-0.4321196388,70.1346756019,0.3534683277,174.4576489803,-441.3871596938,156.8284397193,0.1108869711,0.4451547727,-0.722490605,-29.2216021958,-271.4474175124,-11.5013846253,-0.3258841687,-33.4877652719,-3.441950789,-308.9044228664,-0.9444711867,-0.5281095787,0.6415897723,48.8715769349,695.2884047245,-0.4602490789,-0.6866092324,-0.4434866121,4.9582221278,-1.183233044,-320.3616677946,-0.1354942726,-111.154611853,-2.3855608367,20.0651545895,-135.9352517278,0.7757738885,-9.9939834541,1.6039643322,-0.1500331466,5.3434189536,0.7023473609,-84.3876551183,-281.5617942898,-6.8802413834,-5.7511224728,-1.5807193694,-5.7374505993,-2.1175377193,86.2529614282,-439.9912602885,-0.3665565461,-258.9391100586,-11.5337894342,355.8659496553,-2.9737988331,0.8869767639,-5.4328734676,16.3051771852,-0.6274421023,-75.9376842999,1.1347646117,16.2737416197,0.0251370621,399.5610043002,3.2790519583,0.027335026,-0.6504580504,0.1416235545,-0.9672254989,-0.3606430599,-0.0215989979,-0.9723632772,0.8501992301,0.6231172994,0.7221704899,0.1246947449,0.5028722082,0.0897983102,-0.7420182886,-0.5364945736,0.0721529362,0.6730764681,0.1917867965,0.5923549512,0.3400156557,-1.3276527635,-1.2323798195,-7.3420575066,0.7306379489,0.660733554,0.6217515097,0.7297826063,-0.4005378417,0.1980424189,0.2468813535,-0.9447162648,0.3643977614,0.1790471916,-0.2828933773,-0.0655277102,0.1312883047,-0.6884250752,65.9660202596,-2.460747957,-33.0488153076,-28.0450519031,-0.0377531739,20.0496040391,-100.4632570194,1.4382025704,18.218699454,-0.1518043308,-23.4402827831,409.9223999126,-40.2569238741,-7.3044187955,-0.57132987,179.918746111,0.5044659792,510.2975071658,-9.2900062732,-0.1860058151,10.6205005921,-3.3548664079,-343.7935307766,-26.5513837844,-0.3304346038,63.3533969045,-496.9465392807,647.1372306529,-7.0142031757,0.4598392681,-3.3090931544,-55.7621881848,333.3433934311,-82.1106133832,-0.1116050184,62.5378197595,136.0703356781,-8.5482482859,-32.2764643846,-0.1404085171,21.7151717014,241.9651216477,-1917.5767284193,-179.319104552,-0.6059978034,-4.9771190815,117.1492386691,-484.220290652,19.8121483731,-0.0328899355,62.8678934771,-75.7319037311,-427.8693093048,-9.3772527288,0.3542427896,-219.0346836533,365.9204581136,77.8573440591,333.7672019521,-0.2010450834,0.6225858041,-6.0403830132,2.7141062716,0.69066887,-0.0033039932,-0.6189960813,-1.8108433936,-2.9743883672,-2.9384194592,-0.6880698143,-1.3761617056,-22.508232866,-3.0737709051,-0.0753538868,0.5573171866,0.6581004543,0.4444519995,250.3323181915,1.114218225,0.2849375493,0.3961680892,-5.6507374668,0.6917295779,-3.8938717019,-0.5354248149,-7.4399165888,-12.9423168047,21.9746976789,-9.8338868529,0.543295636,-2.9984586478,1.8377539929,-5.3389063032,30.968458847,-0.1729331163,118.9460798489,-1.2531732941,-7.7442852956,-2.332845251,0.7395272908,-2.0349947106,0.1421331906,-0.8779688259,19.2105880605,-0.031719169,-0.2428924637,0.2493075448,-1.7095499272,-7.8281888202,0.933667911,-7.7196136868,-12.2860647408,-2.0116798836,1.4922145565,0.6129670116,0.3047735762,-58.574682493,5.2227680744,0.6855033605,-0.0365809859,0.8475659719,-2.2654998002,-0.7290765569,14.617439956,0.2956420547,51.5313146389,21.4247265858,-2.7784146614,0.4606137366,-0.346232912,0.0944866116,1.2930816659,1.42534418,-6.8215798251,-0.3034038839,-2.077018959,-28.644682263,-2.2225304698,9.5564942977,1.0555666142,8.173354259,1.8117013599,-0.4963991911,-4.0634769612,0.794822842,1.2247948397,0.0824740498,-0.1079765382,-1.7146347988,1.2238182493,-0.2392880253,0.7790041826,-9.7559555085,0.509191911,0.0974391272,0.5099154927,190.4711958666,0.7767487267,4.5469952971,0.0035329891,16.8047407534,0.474135132,16.9324853355,3.3530036216,1.0887719452,3.8806365165,33.4713855987,2.0682902103,5.672337899,0.2090926829,40.7920354195,1.1794810896,59.1738378048,4.3587926043,1.5318722841,2.1980602341,-2.5305004505,10.4785648358,40.8091677636,-0.3136357486,14.8840379684,0.2261883402,7.6655382658,-10.747878337,0.8213890805,-27.6116025488,-0.0893146687,-61.5878827451,46.8664776243,1.044722803,2.0150740241,34.8667142103,-6.9581974009,-4.9932211858,-1.133492206,-3.628059806,-0.2927212377,-3.6585091018,-0.5857103942,2.5835396603,-1.539746129,0.4983986251,-0.0527493377,-0.0316154796,-1.5008657041,0.6231019094,-0.7018948999,119.77371926,-0.4128991127,0.3691141053,-2.8229617766,-1.2250327363,-0.1296096559,-0.8912153047,-0.9273679498,-0.5092679998,-0.0693620555,-1.7846833256,5.9736540217,-0.6710941541,6.1615069937,-7.0559711191,2.4908089633,0.2634490106,1.1482907047,4.1749377074,-3.5089118998,0.0200668122,-2.569441003,-0.4086050801,-0.696138287,78.5252585441,42.0835232403,2.6977499689,0.2931566008,2.3777891048,-3.9628108139,-7.545601909,-3.3062716224,-0.5353160749,-5.2285356964,-4.9885979842,-2.3559075764,-3.7331073783,0.1449353235,-3.6668819047,1.7102477379,0.0764501348,12.8948282308,0.5725114597,2.1980621697,-19.9305849067,-1.3341746965,-27.952573639,-0.5409762461,-5.1058177098,-14.1390303637,-5.1038209685,1.9475748006,1.1162732726,-0.9383859965,0.2604002566,0.2047326865,-0.82245486,0.6657873327,-0.5448454752,-0.2632803567,0.5090043344,0.3556150294,-0.2656181577,0.3828094489,-0.2742618454,-0.8640124232,0.1271634895,0.4595509348,-0.2757264215,-0.6388531494,-0.2869476657,0.5995360361,-0.7870502905,0.5049800148,-2.2887622911,0.9669335155,-0.0777947097,0.2969161275,-0.4571196989,0.857215842,-0.0572046224,0.5005956607,0.9489846278,0.189999007,0.3876016673,-0.0994505439,-0.8369165919,0.1041866094,-0.8342237512,704.8824726454,4.4151362676,-399.3718172715,183.3923539221,0.175720457,436.2418692963,700.0257490915,140.099777732,-303.1513379063,-0.0788807193,81.038744149,-197.7599275302,784.958652038,-186.9431064669,0.0256108137,-5.5386170363,-546.3324427901,9.0765432014,1.4406597529,0.5543330762,461.418834026,2.610614972,-67.2028076983,8.1010467194,1.3846169483,63.0748939043,-823.7053383265,227.7575274631,-99.699461602,-0.1217730656,184.2167050824,355.840475058,162.3109915023,625.0097645223,-0.1623788139,-163.3317049842,197.6953731234,-1186.8130519546,1551.8902720573,-0.0566687604,-148.2614013782,539.0425523234,-191.4664968527,-343.7618420123,1.2173953036,30.6210580296,298.6529136268,-139.590605096,-73.5481202879,0.8744190013,348.1567902612,-178.2519519946,358.3408695223,-375.5531818109,0.1529303227,710.5113040035,706.7611036855,592.4959816779,-168.4178453133,0.2976869339,-36.4768847625,16.7540141896,-18.9604380323,-2.4170825503,-0.9806403224,-2.377935756,-0.8930439449,-2.6291751298,-2.6216865198,-1.5043620568,-6.0024640293,0.6074305075,0.7143917654,1.341915834,0.2021012754,1.7366999623,-0.772034726,-1.0593973036,0.1864141377,0.2915771043,-0.7205291817,-15.7159710194,-0.5955022295,22.5412593295,-1.2727855587,56.057321296,0.0636223315,-2.3657932361,8.2646321551,1.1532806083,15.5232833592,10.607756862,-0.097545599,2.0019894988,-0.5297230115,1.9913871998,-0.0443086531,-16.1549107956,-3.5282474466,-0.729568537,-3.8478833932,0.1913167581,-0.4640156176,-3.3003261634,-1.5017173474,-1.6176761271,15.2810802246,-1.5452475082,32.7671794034,0.8604818395,12.4342083414,-46.3999955076,44.3122538614,-23.1269988128,-0.3387995069,0.0385829075,-2.7205230903,124.7064634164,-34.2680276655,-0.5450181224,-2.8667582713,0.1294469192,-6.8761335111,-10.8782181438,-0.4512323236,-1.0350723917,14.7623055904,-11.2796524138,205.3651752768,-0.0980557795,144.5351173591,48.767324476,47.7785646516,10.2963940554,1.0756281868,6.8844904876,-18.9622862356,-6.6867515228,-5.5281197384,0.5853970442,-1.5935746377,0.0078900503,0.0258422921,0.4969768977,0.7461433377,6.0775820514,-3.6967547385,-0.8905787005,-1.135667672,0.5947955645,-1.9217345408,-1.8458735655,-168.9457466298,-36.5244775334,-0.8962943691,-4.4990510616,255.0213844451,9.2567820584,-24.984609353,-0.8478499133,-9.4928993682,2.2692955599,-3.0160915279,-0.5400993304,1.1225672715,1.1828290041,-0.5574538763,0.5626145675,2.0004753702,0.489165852,1.8876024548,4.1832043841,105.8583480141,80.2126619216,0.8203194699,-12.7049637638,-1.1274367578,-4.0271876389,-2.8338816011,0.3519801099,-5.7267366763,0.2535811692,2.5443164391,6.0619600217,-0.1061508355,4.566945425,-1.2043207812,-6.0547894312,-2.4444783079,-0.554128317,-1.4577540013,-1.9449806937,-6.7991345819,-3.1283542592,0.5073741749,-3.3421445638,-1.4153140906,-3.7064424326,-71.7941654543,-0.2886380467,-217.3035781685,18.2994052176,4.0305350816,4.7001395178,-0.0444991354,3.9087590256,1.9183031484,7.4135617689,-0.3928342858,-0.280997504,1.0191689923,9.4306248837,-7.792708406,1.329769269,0.2275993248,2.721346767,-0.5415560831,0.7161322446,0.1689953565,-1.3556781011,0.688857143,4.7984828168,-9.5061569195,-209.0895304983,0.2619723113,3.2074241217,17.2686393798,26.9921686827,28.7779559705,0.4302360035,21.3318722529,-16.9291832901,-1.8912127308,-178.0728516575,-0.5604022042,-98.7584766272,-0.3316910218,-107.6360258799,-0.6565770291,-0.5310092132,-1.513098764,152.777618089,-308.402766333,-0.2186668531,1.4178030401,0.1626164741,5.771038734,-0.4538873092,3.2209683331,-0.5437559306,-36.238833265,1.5039167403,5.2639232938,0.6811011262,0.1306199032,2.1119239757,2.893058362,7.5127924983,2.0206241666,0.0802906949,0.5224242691,0.6597699818,0.3565465054,-0.5772190745,0.2247820314,0.0278591155,0.1141483078,0.4433592526,0.1198655622,0.3232764934,-0.3162853321,0.0805501867,0.2460148415,0.1108344972,-0.1856160162,0.4167534412,-0.0547866774,1.0410961773,-0.02926916,0.0764884114,0.9219614443,-0.0664131134,-0.6616297527,-0.6488810597,-0.247886464,-0.6073096107,0.0174340982,0.4409812941,-0.0888707134,0.8748064031,0.2679749645,-0.687589138,0.104427725,0.5809331151,-0.2434485326,1.1876182086,-3.6420083383,1386.2961137193,12.1971249837,177.7069328044,0.2846932925,108.6200604205,-204.2381117283,-438.1201090051,308.6703184962,-0.1201542309,512.5638504337,649.3705216298,-689.3755973649,-76.9118538154,-0.3961430743,23.2441023645,-1622.8346341799,522.0345820513,-312.3614787553,0.347228841,-84.326951877,-1.6385816518,3.2618239991,43.7900049266,-0.5557353334,-388.3548102479,-814.8360959703,298.420501987,-11.9730823166,-0.4340472528,358.7408538378,435.3115297393,-404.033084711,31.983392476,-0.5529528852,35.3195753807,-784.6807851699,9.05884966,-2.3171202892,0.1013841907,-6.0399957664,21.0835331759,297.1766568856,372.9695198698,-0.5011893407,25.3164515666,-428.3084011523,-8.5898455391,-244.6672461924,-0.3557958818,156.8086360295,25.6259594188,516.7878144009,738.6093744641,-0.5167201927,116.3487570393,74.2412182626,2.2523500656,1299.1088110543,-0.5975910573,-7.3627352904,-4.0167157051,6.6135998897,-6.3190964263,0.2903464811,-5.9821390162,-141.439085992,-23.7645563108,-8.1955256217,-0.1917970825,-10.1149193348,-1.8440731187,0.2453245894,-0.877387863,-0.7714676305,1.2980740706,-0.3037520055,-1.6806063784,28.5573574784,0.8090035378,28.9139872434,-0.2736208174,23.2430227468,-0.934885128,0.7908985144,-0.3626877968,-0.3523675006,-2.5002344751,-0.5851597013,0.988008278,0.2197237849,-0.6885662252,-1.7834935644,-0.0520522492,0.2845588859,0.6990455246,-37.9145258695,-6.4248088602,-2.5945865701,1.4982252325,-2.7859989844,23.694511697,-150.7048944414,-34.2904939227,-0.6956001357,-28.9635977475,-9.6258211908,-2.1052467911,-6.4041608097,0.640007093,-3.6041680146,-36.4731214695,-0.1485628018,-4.205312334,0.4913645502,-8.2554045571,-0.8124325814,0.9207575313,-1.3636015735,1.1806638565,-11.3527209185,-1.0881909609,2.3471416057,0.2840915987,0.5791671126,0.3038406596,3.8012347305,20.1228651097,8.8140924198,1.5618911071,576.152022266,0.4214120907,0.3047482921,-4.2802584836,0.7270063868,-4.0667732501,-117.2544818858,113.9788921377,-6.5072123181,-0.2275516032,-5.8326111229,10.2775255162,-15.6280102503,-20.1707052405,-0.7235552686,-188.7072238215,-3.2913250744,-126.6039524367,29.2937856478,-0.4624626299,0.7634828427,42.49552646,0.1840525905,21.0498061783,0.0013656196,6.0434503275,-262.5876468897,12.3673791599,1.1284206725,0.8136969698,1.933915604,3.6295964633,-21.5392304576,-5.6507826239,2.1614847991,-38.4020963588,46.37172946,1.1130730529,38.1321004859,1.2042316289,40.1963938861,0.4535998444,15.8234348292,27.7161637314,-0.8277231673,44.2477927925,69.2070110605,0.7303918669,-10.9406850016,-0.5475491369,-36.0020769281,3.4670368847,1.5562397475,0.5044103039,-2.1771774117,1.0501586507,-0.7342051073,-9.0886503617,3.0532410795,3.9663740416,1.522109655,-1.4176568609,23.4413703604,0.759415969,-0.2171859391,1.9784355098,-11.9842165477,12.5574249589,-6.274436006,-1.0368305197,-2.2648081457,-0.0935418645,-139.1417377736,4.3824027308,0.6123057174,5.2317221385,-44.8142063409,-237.5803982216,-17.2523366607,-0.0371062898,-5.6523689403,-0.2340434372,1.9190416149,0.1613236421,0.8915185399,-0.7135625413,0.6603908398,35.0236809797,17.6540066413,1.9890253071,31.1887517278,-1.2466777677,220.2042000179,-17.4888979782,-0.4476953295,-14.0139434219,-1.3696743587,-394.1028901316,-0.6214944936,1.0224062411,-0.1049421287,-255.1584705214,10.4269018619,-70.0081772462,-0.509023073,2.7282373303,3.5792782909,3.7070644503,1.1656392985,-0.1991818819,0.9589846428,-6.8046670796,1.280784757,-2.0636662086,2.4902768976,-1.485361165,0.2486328106,-13.0605518875,1.4474070462,0.8196307135,198.4986696484,-0.4750400875,0.3434233118,-9.7560264945,-0.8358286347,0.1856398015,0.3871770717,0.6465311534,1.0236182477,0.8691611253,0.3332935303,0.053035517,0.2767378015,0.7857407082,-1.1447119963,1.3098947093,0.7709286544,1.1448482633,-0.7873411503,1.0654645692,-0.8348315711,0.0503706927,-0.1030648369,0.4606089299,-0.9031783286,1.1323868265,0.5021886016,0.2530413898,0.967750772,0.0023278825,-0.4101812753,0.4380743756,-0.9643947779,-0.4844286684,0.5760555461,-0.5346401237,2.4205141342,1.0733496221,3.6451370269,0.9083905771,3.2432082862,0.174629169,3.3406338035,1.0126804711,0.4136771378,-0.5778335956,-361.2384849257,-1519.8979796995,-76.5383860301,-23.9711938825,-1.1470272819,-20.1318396087,398.6008656111,763.1207362656,49.8029964615,-0.839568305,-283.497786832,-7.6203424787,-318.7333104229,44.9449261406,-0.8989758548,34.5298418,-33.7620932602,79.7878160138,866.754092712,0.4567416652,-8.6279112598,149.2385367291,533.854031276,-577.3872947893,-0.4614044265,687.2847212775,2431.5750824167,-808.1615276884,74.2699821227,0.5680179655,35.4950518977,1334.1163675033,-343.7931036992,-267.5906379956,-1.1978936144,-15.2901170335,-170.2320430126,157.5770515541,768.8054719574,0.1953680207,-857.7952003997,-22.1659164511,681.4531239854,85.2925698354,-0.1299576816,124.6561064947,7.6094481308,503.0814273986,-352.2659775062,-0.1687936731,-36.1327039184,1973.2658744697,-68.3194900269,1723.0588759449,0.4760375689,1480.6741598208,-924.4606289956,338.0324817588,-2399.5521724084,0.264964288,-257.2988989848,-16.1641149953,-194.653186217,-45.3513419669,-0.2733236026,-12.8743004551,-0.5532749084,93.5881148059,0.2098034036,-0.6353125536,0.2307676501,0.597107443,-1.1063402708,0.8611575151,0.4601896903,1.0267505141,0.6724295398,131.6146351115,-10.0215800156,-0.4443946173,-9.1121327973,-6.8549710913,-0.9679440755,-1.1693802202,-0.503051112,0.2943066088,20.0865320994,43.8323727491,3.3650059979,-0.4907421235,2.5452816309,3.2923251211,-2.7137015375,3.5186013087,-0.1952035961,189.2553985889,0.2145139867,-2.1344387118,0.9135114428,-0.4244548642,1.4967502554,-0.3777211001,-1.0601304379,-1.5518516844,0.9636368933,-0.5112358569,1.7870619316,100.724743394,295.8276784566,0.3042761624,256.6123988385,-17.0665842336,0.3077177123,0.3964295034,-0.6197438384,2.5939200403,2.4485166736,13.4431274826,16.3554639539,-1.5522927104,7.2649753574,-1.1986699474,-66.7533012489,-32.4281513708,-1.0797247692,-67.4133300281,-4.6621738889,-474.7914718411,27.9091450898,1.0195763534,8.4760871042,86.4875773758,51.6706298163,1.9645561637,-1.2955046292,45.1567106073,48.6090233071,-196.384220328,-9.6269642011,-0.503463619,-1.1055926573,2.345705588,0.5531797716,5.8844069669,0.4244690121,16.5323523452,282.9204363786,96.6237070521,-2.8609167713,-0.4406441323,-0.391636794,-1.3761972493,0.6780577965,1.9004223168,0.390365858,1.6519899117,0.8542600587,-5.7812108278,-2.4992578249,-1.1537062593,-1.7404465277,-5.746904893,-1.0329719724,1.3824907706,0.1908253111,0.0402737277,17.6722748586,-15.0548589644,-308.2777040314,1.6839377174,-74.1276543297,25.1852214159,629.565039964,-3.0419072018,-2.0632453456,-113.404836283,0.2198706327,52.2851198291,6.2067062734,-1.3832467378,5.4248250553,5.5417120866,-10.2779512307,19.0729085296,0.3053793767,13.4003828847,199.4189526116,31.506122218,86.9434670568,-0.7011813172,52.0691467219,-7.7301886425,-104.6492244849,-17.1278270846,-1.0992039887,-9.2640989199,-8.6948817614,-0.5378591384,-13.4621160473,-0.1536768147,-7.6949777772,0.2157996567,-112.5141131607,0.320478212,0.3794332456,0.2236817527,-200.0079079622,-0.3880646634,4.7586696834,1.4383110757,3.862766352,-115.2224514316,-1.2386575726,-120.3682221265,-1.7599739939,-213.8037102747,-61.5932578472,-7.4160737569,-0.1487661838,0.7972232496,-1.5258521286,1.3193247208,-0.2448998907,6.1759633982,1.4119752629,50.3870176241,-244.1651541814,0.727824431,-38.1392061023,-0.9577644919,-7.1671616254,1.2110008674,-17.319607167,105.8147547675,1.0498896383,162.6248983089,-24.8738335914,-1.7147991488,0.1803177598,-0.86378944,-1.4063928102,-26.8833040735,52.46160228,0.032947826,0.0167671789,-0.2225056084,-36.9838942818,-1.4437259175,1.5610251367,1.0889182136,0.4925594071,5.1593846271,7.4617092328,15.4506764377,0.7424819652,5.4858001466,-5.6868025981,-301.5897034529,3.6740096322,0.6555358272,-0.6055304272,-0.5507611065,-0.7069330624,-0.2078461362,0.5834769245,0.0703819564,-1.220485635,0.4760844383,1.1484387427,0.0593968981,2.0240913292,1.5278625462,0.7745795015,-1.2581509467,-0.6200524885,-1.3844958049,-0.3805671994,-1.2801106468,-0.3835258815,-0.9268882614,-1.0455816267,-1.2400295282,0.121717054,1.4084432134,0.7179990569,1.6840345714,-1.2800441425,-0.7456688884,0.328388645,0.5601146422,-0.2761116887,-0.4283336716,-1.3992779349,-1.1815057191,0.246709735,-0.5243723715,-157.8473144604,639.3690783565,3264.8074684032,-64.7861216289,2.4713195041,-89.0386056605,1195.7451952166,-402.9916247387,-25.2289455428,1.4604322648,-334.1712020354,3169.4761385101,17.003847451,156.3626328334,-0.2503028061,56.7309397817,27.6370004443,141.4091643343,-684.9626086359,0.036174013,1229.4610022518,117.0516416234,4318.9112320795,207.9488136325,2.87034768,421.4487994428,-814.2536564215,-1.2114083139,-40.263651131,-0.080055995,-402.2539416604,-77.7566978351,1423.1557196876,441.561041113,2.4538841452,-1503.4605323003,-674.726959197,98.474322177,-1016.8799974309,2.0466595257,7.0722855163,39.0478525128,2947.8842477097,531.4892568997,0.5020192209,134.8575990921,-393.2344601495,1422.746262015,25.4142724826,-1.2395502915,1812.0932745583,-762.3327413444,31.2580439477,14.2861430552,0.0043736593,-255.2605357967,-567.7390754957,616.8749489623,-869.6989378381,0.6843877361,209.7016759532,309.7584695773,2.9975480453,-20.1070634319,0.2846520962,-33.9709338853,-246.6035213149,-64.0256675193,-18.0203772084,2.6325048332,-5.6480916247,-1.030170439,-7.9391861073,1.2618327349,0.5198363668,6.1233202267,-42.4037785932,-2.3376259865,-63.9752416172,0.2570343287,-22.4457189675,31.2598589048,-9.5061710452,-3.4572312421,3.5268217969,-2.4115631998,-5.3901624976,-200.1729341181,2.7549373518,1.6829957585,1.3461285732,-0.1575127987,0.4591607141,-231.4122181883,1.5646383527,-497.3481462403,1.6629936888,-16.4441495487,5.1496129877,-0.4056472588,29.1676194567,1.9710860425,-6.3255806262,0.790846328,-1.4161607405,0.7007606702,-38.8162223733,-0.615127582,-60.3440670163,-0.2351408392,-67.2594381448,7.4241911436,-11.8708190307,66.667454114,0.1127942851,0.787078902,-47.5617168204,-1.0833591374,-13.4795605565,-0.8386994917,-7.4301839586,-11.8715288294,-32.5740807375,950.5686913446,0.6085854506,23.6289917788,9.0678682881,-25.7069960876,-4.3515527729,2.3879860266,-1.1096699024,-398.2374862938,-32.6419159785,51.5333673337,0.7721533055,59.2615074018,-46.5717764422,37.7496846684,107.2399886089,-0.1346702187,197.171707334,-12.741514142,-1.6924954657,-0.4654913364,-0.0786010251,-0.5822471109,-2.0058855955,-16.1224020402,12.5021120744,2.5653679839,14.9115835969,-20.7021646357,122.5645850906,-51.5804999201,-0.572285413,-48.2254975617,1.568053223,61.6874070181,0.212838159,-1.1861484833,0.0587316571,17.0535052041,-16.9482961183,48.7786427695,-0.1326387513,0.9715030644,33.4313740495,96.983004085,3.1477062844,-0.5760805462,1.3578540322,1.3493994164,-2.4924617671,-56.7377148312,0.1514110724,-35.3952774312,0.9563610389,0.1184396061,13.3214652285,0.9964975078,13.9577289272,-2.6274235016,269.5091816392,-9.5012654349,-0.4051458587,-3.8661048321,-4.7692739852,-5.6698115401,1.0674230035,-0.7925642518,0.7950936992,-1.0716843973,9.0422024347,-0.2775014461,-0.5423760215,-15.006097123,9.81568042,37.8085173483,15.637877526,2.2357942731,5.2102352154,-0.6590440927,314.6428455177,-16.6201755431,0.7859866475,-887.6179240979,-11.9340786075,-0.8146997579,156.0895704149,2.4620060888,232.4260705583,2.8841247368,96.5082967243,3.0139703557,-0.9973854354,0.6159126775,5.329616037,-4.2636174648,-143.1766844374,-1.1950522763,-44.7983318256,-67.5194364571,-9.927503769,1.7769699056,1.3877249629,3.4584323899,-1.9590373678,0.1090378372,-0.0585625746,-1.6933252985,-1.5915175871,415.7618972583,-10.4534117768,108.9745130601,0.3600863047,-123.911598599,-11.3661929942,492.8259511883,930.6005385356,-2.1521169099,534.5333562624,-4.8192449991,10.5459658084,-1.9441498792,-0.6514426817,-0.5714126282,-0.8382237879,-12.634685813,473.7189966102,-0.3562604871,205.1923829655,194.3838544113,-335.551736837,0.9053861197,0.8832713964,1.8455416211,17.9972271954,34.9558254854,157.2483924899,-0.1632843713,-0.0652477489,-0.0233520377,-0.2390415017,0.6862636884,0.4641206116,0.8882608274,0.5131408859,-0.4358153064,0.3891116958,-0.1304341492,0.2277942328,-0.5008498964,-0.0581096892,-0.8732633796,-0.8439154916,-0.1943122201,0.2121178389,-0.0334768915,0.480677439,-0.6851908603,0.3776052171,0.6296702936,0.1112437395,-0.7637514745,0.3953049035,0.6751382216,-0.6801083343,-0.0486058055,-0.9952370638,0.583394015,-0.3446012794,0.5034747081,0.7779360985,-0.5434565181,-0.2602988543,-0.4092813077,-28.8270903535,352.0850409924,62.0924447773,150.2112184822,0.1108588629,-232.6246832264,-320.1656611132,1032.9523118592,197.4510422824,-0.0877935344,255.1597997069,444.3685146195,-410.3458512478,615.5541165637,0.4479401907,371.2859634986,-153.0462273574,-54.6057024036,-1.4504114104,0.1892041489,35.9227764482,242.2235908288,-534.4734503532,-59.6716701313,0.2111572316,54.8656901611,302.2836723239,483.7762175797,51.4812099586,-0.378684428,-49.1004005938,-761.6131447096,271.488277801,596.6618280239,0.025132104,76.692198149,-400.4873332621,369.680199465,-20.831697611,0.4067475791,38.0325259046,-14.9554527513,8.0810344069,252.0682977088,0.4169309756,81.6857070785,6.9862517889,896.6730315417,-16.9076459866,0.4107590766,-84.2086725217,524.3133599129,-334.0714050838,-20.3726011009,-0.836636019,-293.192980636,-483.6325149044,-290.2405485434,-16.5138833894,-0.4707452268,10.0632549199,27.9394430075,1.9229366181,-3.082406867,1.3234014669,0.7186592749,2.4499985592,45.4538475302,-0.2737522751,0.0853151782,-1.4094409216,10.012488433,15.2039917577,-0.9147927962,2.3742189263,-0.8863737462,1.4304161978,6.6727525355,2.9997858551,-0.9897884938,2.6604298785,28.431720536,1.3360172611,1.3157484511,0.3771117517,-1.7494207424,-10.500527305,-37.1222965003,-25.7440893418,0.3670352998,-26.0945880641,-1.1164139274,-0.0639146319,-10.1181896935,-0.009225349,-12.4482242302,-12.8917977959,-3.6326196399,-18.1833371423,0.0184341682,-2.3508225854,-3.0479434216,-62.8793443093,-0.4017849773,0.0399903707,-2.1311236591,-1.4130661073,-6.9658487903,-14.4084633878,-0.6689216558,-2.0353955076,-1.3034280427,140.9191753033,-0.298332736,0.3799819033,-0.3977697932,-1.7108673994,15.4376182284,0.1581805961,0.8005262791,1.4390617923,43.1013760553,-1.5557952912,-20.2523897354,0.9082722319,-24.3175684985,-7.8197534022,-8.6821012548,-8.1606738411,1.8920761086,-6.0598646232,-1.3064208014,2.0112839512,2.5184561371,0.263885893,5.1311507036,-2.7091121245,4.1156986771,-0.2397266483,1.061746478,-0.9922226379,-2.6951644682,-15.8624817733,-14.9077942028,0.6227396095,-32.1305654335,-4.4280240761,-13.1648225419,-0.8997326941,0.9331110977,-0.8690739519,0.0276404952,31.9235213884,2.2032326133,0.0261417644,2.2876246248,3.2484836073,111.7509915915,-1.6870623318,-0.0545590403,-2.8082142195,-15.9712051982,3.221524032,-0.7198478967,1.4166420687,0.4177226065,-3.7372627803,21.0755770631,1.0808575359,0.1602046742,-0.0566202494,5.7988212235,-10.3913499849,-9.7074854747,-1.3948382767,29.1265327298,38.7727030067,-1.5865178752,3.8210872578,-0.5815449349,3.5931739118,4.1795585642,1.1148686454,2.9827965599,-0.1999281289,3.4893782197,3.361815724,1.5601000665,-2.5236560387,-0.609411892,-3.2130330415,-0.025254106,13.5264909642,-12.2264017517,0.3720127007,-16.9682704626,0.4660227089,94.4843788541,0.7479476437,1.4386521492,1.3153872458,-0.3340376955,2.9479137449,-1.61486772,-0.3798179866,-1.5362347603,-3.0324554025,-0.3873215187,-7.8878225283,-0.6856806848,-7.5974187759,-3.1852585204,-13.837610505,-7.5812348559,1.5713800805,-3.4995638536
   -58.2854993378,2.2614735516,0.974143563,-2.0530287809,170.7106584259,0.890692238,2.2746667075,1.9861714802,0.0440386735,1.946671908,-38.9426588053,-63.1821382815,20.9706320179,0.276269355,21.9964051245,-1.5154921432,2.7187330926,46.1269189805,0.2107669446,-26.9398785136,-1.1108715684,-6.9578131715,-1.6702314327,-1.7977096779,-2.4669507995,-2.0675340798,-4.0311776055,-9.3546449489,-0.9050333351,-6.242878126,6.878980194,-246.4807058659,-35.4522967223,-0.1094740827,-37.1043037721,0.9689598278,12.02847854,0.0394437821,0.0149794521,-0.6617872584,0.2713747611,-0.1863860427,6.4840041734,-1.0371045802,0.8875627299,0.2430402704,0.5259063052,0.070567005,-0.0000826412,1.1672734853,-0.2758506726,-0.4167170366,0.6283692816,0.5789114639,-1.1286788406,0.6700845003,-0.298366011,0.7281184112,-0.7541065121,0.2997750502,0.7619388919,-0.6383723759,-0.455242656,1.0506501914,-0.5115278794,0.3022460701,0.0121913582,0.5704021393,-0.7293176479,0.3464796819,-0.1660606815,0.3542976138,1.2343130176,0.2514914276,0.2161733487,0.432749121,0.111074216,0.4275477958,-0.0766489908,0.6511061539,113.5650977052,364.4232242217,-392.1421703087,108.4846095251,-0.2996488574,247.7831249483,-67.6390771348,-135.4004125956,-88.4931215944,-0.4649675414,139.7850734185,603.8484810969,650.6406672595,198.3230273711,-0.4778248437,3.6760464249,1096.9377206773,24.3647545248,63.4782455486,0.1930378169,217.9493076885,-19.1125459279,475.9918184728,127.0072433583,-0.3549250364,63.9554881214,53.0703629825,14.7574025154,-1036.5457411261,0.3269057841,198.5278727185,-31.8162266812,15.4851351647,593.7648501486,0.2928848013,443.8542884814,387.643450841,582.9715301736,356.9939403617,-0.1793639218,94.2029049595,346.0715595994,-461.0627234466,461.305221029,-0.4861584563,11.4057511194,389.4439177637,-407.7780043884,-343.9546286761,0.4453323456,-235.4271382742,-381.0205934695,454.0915608637,-141.0034589906,0.8826946044,42.006259018,-37.6639519153,81.5518290921,1485.1342350276,0.6009516896,-10.1398391406,1.7457684764,-37.6406436889,16.4209938558,0.0009654835,10.3677599334,4.6235796085,8.7883186061,3.1439769767,-0.0416298422,2.0239279815,0.5132683057,14.7757590078,2.7873144966,0.8303540274,1.6667027806,-0.2204438724,42.6518802805,0.5523276828,1.6071462977,1.8839507872,1.3849174352,-0.2559493458,-3.9568146162,0.7321638828,-0.3494714991,-29.2603181472,-23.6883731377,-21.7264241438,0.1144406011,-22.6646660137,-16.8625778888,-4.8508517411,7.2969464795,0.1269269496,2.6910634654,-17.7797948852,0.0317742475,-0.9371106193,0.4761575983,1.5038453801,-2.5476597188,-10.3058904088,-2.7436045447,1.144057123,-7.3038114027,-13.2474071663,12.1517065452,50.7009932842,0.5475056154,93.8442933858,-0.3963337242,-60.4491869535,-2.0450811854,0.7615925131,-11.5045223705,-9.7235752344,0.2098388458,0.4298362348,0.1884545388,-0.5246758341,118.272533646,-0.0437493907,45.6313480729,0.1645850444,15.0578613897,185.7402752923,-13.7886048761,-4.0463897235,-0.6644883469,-1.3505245376,-13.8672750148,0.2186683146,74.4656855627,-1.0647084047,-15.2714862058,-8.2530277972,-300.1351989725,-9.365790753,1.046757976,-0.7586785671,-7.3100656342,-53.0801304562,9.6592582331,-0.0962498377,3.5762283322,-1.5661084724,-43.4456970631,10.1099221284,-0.094471415,-2.5827746366,1.605299214,137.5865344689,-0.4844629611,-0.4675254187,-2.1182171677,5.3207877351,-3.6568021393,1.6455251048,-0.2636337167,6.6551840486,44.0673202807,114.2255424986,30.5744246989,-0.2553144322,-5.0263915179,1.1252704,-68.6874493726,-0.7690191165,-0.3212409121,-78.7500243924,0.6959388343,0.4098745474,3.5776410342,-0.2310038322,8.4615915848,2.5859119404,24.6763889796,0.0332929274,0.2589604878,1.4127428047,-2.4872543648,-87.0209865595,-2.384800371,-0.0520561152,-0.1791958716,12.5081595581,5.8043946739,1.7104867361,-0.1091699068,2.8993502475,-15.7655240704,28.2406643068,0.2331641159,-1.3958769574,0.7611472824,-42.8604633615,-31.3754465664,12.4900581506,1.3509525305,2.9398074087,2.0588570487,7.3685557647,-0.7910040492,-0.2509536363,0.6691763626,2.2278376434,30.3188811184,5.1775933409,0.4848119307,2.7636685178,67.1440630674,9.149119148,1.7778400094,-0.1562270109,-0.1334291785,0.760531409,31.5347966376,0.4679034026,-0.5085836542,0.1681913227,-2.8062332766,0.2350932508,-0.2654614589,0.81462363,2.9478716517,0.1988279749,-9.2218377974,-1.2654475503,0.6781425616,-2.9970204794,-39.8984967085,-23.1579101925,-61.2474341609,1.0653559478,-139.5389649606,4.5810178698,1.3799154428,40.8852846875,1.2271474335,37.2151869314,8.3402477861,1.5704645421,4.4865543004,-0.4069154879,-0.6281901582,-0.3705923504,4.1942345865,9.9109769524,1.1979933963,69.2029566752,37.1187025152,1.8530351154,-0.5122999725,-0.746732923,-1.0546336816,-4.0605746898,18.5902009084,-0.6611751015,-0.3221697825,0.5762860862,-0.3105861825,-0.0560613303,0.610882115,-0.3011486355,-0.3390863676,0.6535256457,0.0771057494,0.6271042961,-0.2726023978,0.6616719451,-0.2740118725,-1.0880737595,0.2722279346,0.1965822508,-0.3420690209,0.3176260987,-0.6758727666,1.0430410725,-0.4967407479,0.1300769548,8.8305275081,0.0866894185,0.5174477088,0.5962996909,0.3237148098,0.5114750041,0.1081065193,0.5971488691,0.9066033369,0.7892518946,-0.5055727206,-0.3402687401,-0.4988129101,0.3500164675,0.9009610891
##end
biasActivation=0,1,1
[BASIC:ACTIVATION]
"ActivationTANH"
"ActivationTANH"
"ActivationLinear"
