encog,BasicNetwork,java,3.2.0,1,1375810187129
[BASIC]
[BASIC:PARAMS]
[BASIC:NETWORK]
beginTraining=0
connectionLimit=0
contextTargetOffset=0,0,0
contextTargetSize=0,0,0
endTraining=2
hasContext=f
inputCount=295
layerCounts=2,16,296
layerFeedCounts=2,15,295
layerContextCount=0,0,0
layerIndex=0,2,18
output=-0.0002065705,-0.0074604672,-1.9055060843,7.500045626,-0.5527358011,-8.4813838453,2.9022857865,-0.3033201507,-9.8997879493,7.3018980577,-1.850379563,2.6568621419,1.0153493136,-11.6757937271,-6.0382870904,7.6783755706,8.6204470487,1,-0.0003866079,-0.0013131469,-0.0012380068,-0.0010829208,-0.3728041161,-0.0011602723,-0.001082837,-0.000232414,-0.0001548707,-0.2913395054,-0.0000774413,0.0006194348,0.0003874467,0.0005421314,-0.0527534315,0.000697026,0.000928577,0.0007745933,0.0007740537,0.4671787709,0.0006965405,-0.0000773096,0,-0.0005414185,-0.3851737268,-0.0006960557,-0.0006958404,-0.0003095975,-0.0003095496,-0.3601703116,-0.0002321802,-0.0003868472,-0.0001548467,0,-0.2180883243,0.0000774114,0.0002321981,0.0001548707,0.0001548227,0.6294003868,0.0000774054,0.0012381026,0.0002322701,0.0006965944,0.8114909782,0.0006965944,0.0023185718,0.0007740537,0.0013148735,0.3076015727,0.0013148735,-0.0006939625,0.001237528,0.0001544879,-0.1804149544,0.0001544879,-0.0007716049,-0.000772499,-0.000617856,-0.6402103461,-0.0007897023,0,0.0013457885,0.0000790326,-0.6406750781,0.0001580653,0.001657982,0.0003952882,0.0019756599,0.9030145648,0.0017384433,-0.000472925,0.0008692903,-0.000552094,-0.2808068822,-0.0003944151,0.0002365744,0.0003947888,0,-0.457185283,0,-0.0004730369,-0.0003157064,-0.0003945707,-0.2825227964,-0.0003945707,-0.0003155072,-0.0007105637,0.000552617,0.82884982,0.0003947265,0.0003156068,0.000711069,0,-0.323025249,0.0003156566,0.0003155072,-0.0004737091,-0.0006312135,0.4780153978,-0.0007100032,-0.0007096672,0.0001579779,0.000157903,-0.3784002778,0,0.0004734475,0.0000789765,0.0005525734,0.400744879,0.0007105076,0.0004732234,0.0006317618,0.0005522682,-0.1316139325,0.0006311139,0.0002364998,-0.0003156815,-0.000946223,0.4327924066,-0.0011037528,-0.0008669609,-0.0004736717,0,-0.2697937814,0.0000789266,0.0003944151,0.0006318616,0.0004735596,-0.0681884694,0.0003946018,0.0003942596,0.0000789328,0.000315557,0.7520414573,0.0001577785,0.0020493418,0.000394633,0.0011041009,1.2369812674,0.0012620287,-0.0004719578,-0.0007889546,-0.001890657,0.1508534338,-0.0018118796,-0.0023609034,-0.0008685353,-0.0003157064,-0.3105873342,-0.0005524426,-0.0003155321,-0.0003161056,-0.0008684668,-0.0665084335,-0.0007106759,-0.0011047108,-0.0028458498,-0.0017384433,1.2282391128,-0.0017384433,-0.0012639229,-0.000237831,-0.0007915776,-0.2606035592,-0.0006332621,-0.0005536661,-0.0007929585,-0.0005545433,-0.3352487276,-0.0007920792,-0.0005539728,0.0006348702,0.0000792644,-0.5498147691,0.0001585414,0.0001583657,0.0004758506,0.0004755489,-0.4161729208,0.0004755489,0,0.0002378121,0.0003168819,-0.4829919188,0.0003168819,0.0004750218,0.0006340149,0.0005543676,0.1555797892,0.0005543676,-0.0001582654,0,-0.000316606,-0.3976093111,-0.000316606,-0.0000791452,0.0000792016,-0.0000791766,0.1347258486,0,0,-0.0003167815,-0.0002375485,-0.0464795214,-0.0003958828,-0.000474909,-0.0003961024,-0.0000792016,0.1211389961,-0.0000792079,-0.0002375673,0.0000792519,-0.0001584158,-0.2819629789,-0.0000792142,0.0003960396,0.0001584912,0,0.1636690647,0,-0.0002375297,-0.0006338642,-0.0005545433,1.4126738794,-0.0005545433,0.0041181595,-0.0004756997,0.0034083703,8.8757206919,0.0034876347,0.0001577411,0.0031728405,-0.0003949759,-0.4873075592,-0.0005529226,-0.001182872,-0.001739543,-0.0008692903,-0.343722323,-0.0007903264,-0.0017369335,-0.0038019802,-0.0045875188,1.295932138,-0.0046666139,-0.0033217336,-0.0003975511,-0.0003972984,-0.3838553475,-0.0003973299,0.0021425171,0.0003977092,0.0028616852,-0.2773815473,0.0027824151,-0.0006334627,0.0022262861,0.0000792644,-0.4256616584,0.0054058351,-0.0005501415,-0.0090967124,-0.0140009492,0.0541475869,-0.0145489049,-0.0048753637,0.0013689805,0.0135579623,-0.0340176467,0.013720613,0.006321612,0.0060313631,0.0069653316,-0.1619712535,0.0075193921,0.0065959953,0.0039968026,-0.0080176073,0.3714230171,-0.0082488805,-0.0078009205,-0.0015127389,0.0047543582,-0.2990204039,0.0044359949,0.0069187829,0.0110836456,0.0061514196,0.0156553834,0.0055205047,0.0002342469,-0.0085173502,-0.0108167424,0.2388033724,1
outputCount=2
weightIndex=0,32,4472
weights=##0
##double#4472
   -0.6327255438,0.2965312263,0.4042667737,-0.0096081652,0.3829567406,-0.4860564214,0.3030784064,0.4711582082,-0.3588178901,-0.2913447916,-0.20580936,0.3410512948,-0.6351665752,0.13350047,-0.6856923564,0.3649940373,0.3981447066,-0.5484773057,0.5699233177,-0.5598286809,0.12929234,-0.0212105327,0.0180610983,0.8232751407,0.621665452,0.2332890256,-0.128323517,0.6651144661,-0.8112001545,-0.5588581531,0.1337507008,0.8837649024,-0.5090346781,-0.5088161193,0.8234263446,2.3563723185,0.0154168337,-1.7930597454,-0.5522838786,2.620551903,-0.1332305915,-0.0315994867,-0.5984695533,-3.2164960677,4.133453207,-1.578995118,-0.3756012777,0.9087320018,0.5560402671,1.9032980976,-0.1086625419,0.0122585333,-0.025446159,-0.3474508611,2.3016811468,0.1273511161,0.3283387352,-2.8444791337,1.5862755737,2.9918269283,1.2669728815,0.2380534794,-2.8872315241,0.0821099595,0.2715063248,0.7303913406,-0.3437926436,-4.3855494628,1.4373783317,2.971716547,-0.250628121,0.6855396042,-4.2608009161,1.6237908287,0.8964304081,-0.2156910951,1.154176821,-2.5529285388,2.6902434763,-1.1774150972,0.9524405404,0.3578079595,-3.0416015928,-9.7341780079,1.2990491728,-4.0717513869,-0.8887652966,-3.7263390028,1.7375171842,-1.5464549846,5.4274493477,0.0382253548,-0.6211169628,2.2052233563,-4.089028173,-2.0701216668,0.4729378507,20.0436233958,3.250422976,4.1253206765,-1.4485904591,-0.2067107754,0.5352756837,-3.414412824,-5.52756534,-3.1002195039,-0.4580975005,-3.2857479384,0.4646505138,-0.0728264275,0.535210121,-0.4415440195,-0.4043203275,-1.4158474119,0.4887639379,-0.4765755134,-0.4832698747,0.0119064257,-0.6835560505,-24.393291153,-4.950367186,-0.3378227163,-7.282002977,0.9846354016,-4.1943289109,1.2924232821,1.1096716897,0.5865624157,-0.4341356302,-0.6936526327,-0.3880032175,-0.9440539031,-0.2239593288,3.2463736407,-0.8276532223,-1.738831331,-0.2783172239,-0.2382853432,-1.3685717935,0.2253236939,-1.0012350153,-1.0143159456,-0.6774505255,-0.6240324932,-0.1690706243,0.8669627611,-0.4534487049,3.6480876711,0.8046527725,-0.1633443405,-0.5200205046,0.5338596086,0.3756566412,0.5672540034,0.6531450801,0.4607006525,0.0236137473,0.9063416738,1.6728034982,0.1349979194,-0.5078797758,-0.3722357782,0.4462744589,-0.052156541,1.0225494988,0.9484272147,0.3970806655,1.472805695,-0.5542724069,0.080500526,-0.2086980986,-0.7352771734,0.0783194312,-0.8872978399,0.7331666255,0.9300637523,-0.1259388069,-1.0166097399,1.733180153,0.1078126946,0.6621983818,0.9815915678,0.5646644601,0.8066435331,1.8685889727,0.1031136559,-0.5124552703,1.0739087446,-1.6180729253,2.2135935016,-1.1687512976,-0.0839410851,-0.9991083237,0.4965745224,-0.5159684187,1.6116550416,-0.3887646131,0.7091609625,-0.7451794632,1.5443400946,0.1528447748,-0.284254398,-0.2863303947,0.7002752686,-0.225807573,-0.3087063375,-0.7042982249,-0.5850464139,-2.4528449225,-2.0022748972,-1.0281341948,-0.2765789379,-0.0395315186,-0.8678834058,-3.1347619888,0.2702369424,-0.4248665406,-0.3862577554,-0.5021612288,-1.1611375457,-0.0305425299,0.0999216096,-1.1208320077,0.2054106695,-0.8089014711,-1.9036239533,0.9775874973,-2.1095041975,1.7424204165,0.4334133912,6.0172170541,-0.2765295026,7.3688335805,0.1326151105,13.9689051195,0.3897571321,-0.0877836255,0.6295649693,0.8543429926,0.0701835574,-0.510781887,0.4885158749,0.0375191444,0.8334273937,0.9097304131,0.4611187784,0.8734688793,-0.3135780468,0.7199958404,-0.4472839404,2.8136860368,0.4612633289,4.0660837859,0.188615309,1.0813075947,1.937894718,0.1159327792,0.7726410479,3.3870418937,0.0008230849,-0.6886989532,-0.242182037,0.7446049257,0.3283103091,0.40666272,-0.9654950643,0.1872914714,0.5643852379,0.1785395506,6.923269872,-0.5707061135,0.0061236333,-0.6936820367,2.7810264142,0.3255772527,0.3254539846,-0.4100053394,0.219484465,-0.4446659098,-1.17537121,-0.7055189893,-0.1667253896,-0.1311743587,0.0375447965,-0.547966176,0.236017789,-0.752459244,0.2599872809,0.5352962025,1.5087708119,0.7022315895,-0.4916152872,1.0827363198,-0.1985763998,-0.8525196914,0.3160217696,-0.0618038394,-0.1379822192,0.5623778272,0.2324389119,-0.2561763724,0.7221361198,0.1575498579,-0.7366145411,0.4101340294,0.2499062571,0.2765848244,-0.4472274099,0.5444123883,0.6519053824,-0.0024738835,1.0630927714,-0.9403228866,-0.3751249237,-0.5666757583,-0.4634755579,0.7628731644,-0.1372755634,-0.5392547775,-0.1968404435,-0.5187666224,-0.1273476554,-0.5019008875,1.1263399814,-0.5533672323,0.2012615263,-0.6447578561,0.4913563536,0.5335102077,-0.4846281604,0.5107060738,0.2563267429,-0.177382408,0.257456747,-1.3018763883,-0.7958666831,0.6240981095,-0.6205935704,-0.7980863394,0.223421591,0.0464162314,0.5219428082,-0.1840555395,-0.2409232789,-0.6156772777,0.7289677131,2.0511016225,-0.3292224977,-0.2237217124,0.6894420136,2.2120363406,0.1595443517,-0.2220762614,-1.0532376426,-0.0809047405,1.6223398504,-0.3041672246,0.7852328586,-0.9687524143,-0.1833423181,0.5001390914,0.1935560583,0.4800495729,0.7162099697,-1.5001846758,3.9118633884,0.0278283886,0.5447569752,-0.7844633152,4.0304673285,-0.3803297812,0.3067530093,0.615728305,-1.2264420109,7.3477715229,-0.8824938865,-0.2624703917,-0.3229621647,-0.0236923442,1.5883683075,-2.583241005,0.4259192601,0.0724204151,-1.3278532307,-3.0077532785,-4.8658254791,0.0881563303,0.6096277232,-1.4129798205,6.0512046545,-0.0766253049,11.8669205629,-0.2866276567,9.079111495,-56.703573884,15.2153467684,-16.8119845063,-0.6066642816,-1.033791125,16.6133596009,10.8535224902,0.9091518437,0.3884655156,0.0548157098,-0.8950305505,1.0902187171,0.1890406235,0.337983616,0.8027051,0.5631079873,1.892077779,7.4493042269,-1.2327914663,6.7120744498,-0.3771074621,11.248901419,0.3530315013,-0.3865718526,1.2657998969,-0.8814675174,0.0433489419,0.6924886724,0.6405192574,-0.8508998229,2.8725247965,0.0998303522,4.2735965463,-0.8153793075,4.7081601988,-0.8543727308,2.0713602079,0.176996362,0.5830380641,-0.5206092891,4.7152577998,-0.5299593384,1.8503072926,0.1697955451,0.9435618055,-1.0810640597,0.0907606426,-0.4562793153,-0.9542859781,-0.8860937012,0.57280974,-3.1608157212,0.427866612,1.235664932,-0.8208244252,0.233647939,0.3833287902,-0.3698883782,0.3120820073,-0.3186682801,-0.7368164855,-0.6733517618,-1.7185619552,-0.9138212682,-0.5402464368,0.2427716546,-0.0787043292,-0.7833021579,0.0281329883,-0.7352370912,-0.2574261574,-25.7095388128,-1.9760417219,0.6501791213,-1.4183836584,1.1035369898,-0.4507302947,-0.2679298466,-0.5250218906,0.3527311977,-0.3070185328,-0.2296819459,-0.8273055153,0.754806022,0.0854390914,-2.9678524519,-2.1203438607,-6.1381817159,0.6611349569,-5.5063559199,0.6350767897,-0.938382677,0.3118998316,-0.3953098864,-0.5761691056,0.0297228089,-0.9844795839,-0.1638628593,0.3426580102,0.4340938585,-0.4592670007,-0.2194433977,-0.4834103293,0.4677836327,0.5506024872,-0.7151205311,1.5948484844,1.6844417354,-0.337399568,1.1393664306,1.9145010563,0.1004302424,-0.8049713565,-0.6230326729,-0.3245000393,-0.3583225197,19.8750460237,-0.2797475167,0.0638396576,0.2779461721,0.9478282673,-0.316101536,0.2944591133,0.1341530689,-0.6098595031,0.3006774059,0.3405936697,0.4698992665,0.9309085321,-0.4036893669,-0.1818523953,-0.6874105658,-0.7463579409,-0.2453741611,0.0551667232,-0.9151982159,-0.0636231931,-1.1388974667,-0.3053451081,-1.2370416618,0.9162747614,-1.3626282382,-0.0045623223,0.4506392399,0.5117710758,0.1562887927,-0.3957652581,0.9502972406,0.3447458805,-1.0386291591,-2.437490228,-0.0240302155,-1.4665083238,-0.3708644443,-2.8093883164,-0.5192000884,-1.9833728077,-4.1754080209,1.0534673871,-0.7407637451,-0.75333272,-0.7316139999,0.6152552362,0.7995620381,-0.8304175603,1.0126205853,-0.0059244743,1.1600480371,-0.3682027556,0.7320736726,0.7081670044,-1.6394777851,-0.2104038258,0.0941225051,-0.5627138372,-1.032254285,-0.1507825272,1.4950734654,0.4657138519,1.5911114153,-0.2347718541,0.7801473231,0.3422900704,0.9406894968,-0.288969729,1.1000867715,0.6600769634,-0.4621750013,-0.6330238747,0.3804829349,0.4465237694,-0.6190902387,0.1311703986,-0.0422350219,-0.757283422,0.7671356488,-0.657831153,-0.2905596313,-0.7635426305,0.8162553914,0.8243591975,-0.9523248881,-0.0160905259,0.2283063556,0.2129664146,0.6249302887,0.0884192394,0.6674193526,-0.5637285635,-0.4885544351,0.1988881281,-0.1346682507,1.0429039172,0.1059602796,0.8454211311,-0.7597354572,-0.9002918043,0.5625161995,-0.0945510668,-0.6733451944,0.4536096552,0.0747592784,-0.0798464237,-0.8900437498,-0.4529361834,-0.794843503,0.4476949956,-0.329401569,0.8791414486,-0.9595746625,0.7879352423,-0.7085174442,-0.5581703015,-0.5306071573,0.5713719448,0.5624151612,0.308738948,0.882530087,-0.5182875378,0.4576695073,-0.8224042412,-0.2319149011,-2.066419193,-0.5986920361,0.8941019579,0.1185451205,0.2962692581,0.554367103,0.5493399731,-0.6310387735,0.3426763396,1.2157165122,0.9565421109,-0.4074625842,0.4010787471,-0.063056318,-1.0580617579,-0.3001648595,-0.6033173569,-0.8084389515,-0.9638801136,1.7556802267,0.3638191857,0.1224552597,1.0895305989,0.5959666514,-0.8984966038,1.2996001585,0.1136356551,-0.4216271696,0.206607872,-0.6063641673,0.6908904693,-0.0583284584,-0.4389556377,0.5207237243,10.4456028838,-2.0855175532,-1.018654634,-0.9623089045,-0.4500878067,0.6834737095,3.0429723724,-0.0294582746,-1.1627342787,0.4361127818,-0.5588384345,-0.3854605195,-2.6390710131,-0.0239013247,-6.6585652211,-3.7336563218,-31.4500282114,-29.0911790676,0.7914671335,-2.9331707508,0.9016043037,1.1520289641,11.1504480123,-0.4996684379,20.6406018679,3.5589741858,6.6533267437,10.3505121497,0.5278938454,1.669629992,2.8194904061,0.3301228207,1.3713586358,0.7249791821,2.1013874713,0.5319121174,3.1168298241,-2.8002862899,-0.1277048203,-1.0446187375,1.9541990488,-2.8831965346,1.5199798643,0.2829509997,1.2502004424,0.2688505951,-0.2802823634,0.3262872317,-0.3510843043,0.2208742487,-2.3396501783,-2.0533706571,-3.1029718516,0.6842954072,-2.3861530563,-0.7493047712,-2.9261825293,0.8329979133,0.6580497991,0.2209421634,0.7402042732,-0.411372948,-0.3038528831,-0.6649047668,0.7923654513,-0.0668680732,-0.5870121867,-1.0215911374,0.1346219281,-0.6492237524,0.3086567223,0.4417995255,0.6941990954,-1.0496730308,0.2502191939,-0.0692900357,-1.1454060851,0.4393315244,-0.2765066142,-0.0517025003,-0.7981404906,1.5128605145,-0.8964352486,-0.316773721,0.2869789299,-1.1220557685,0.0613227652,0.0145986614,0.4749856733,-0.4159880412,0.3161467606,0.6615390791,1.4011076381,-0.322816456,1.094373201,8.0594358586,-0.572423309,3.4450260816,-0.0721052449,2.5425229377,-0.4585022325,4.8879315977,-0.4488541258,-0.771959939,-0.7197943743,1.6483672465,-0.1050831424,0.6450067138,-0.6429297314,0.3797097938,0.6296722597,0.6587686659,-0.8501522777,-0.2796958227,-1.1433111901,0.3890012498,-0.0455507971,0.0622799941,0.7196744278,-0.1386338018,-1.018149987,-0.6284951205,-0.8040905437,-0.7691873489,-1.043151539,-0.7181910763,-1.5979192163,-0.9974965879,0.4110363041,0.6681701708,-0.1124959242,-0.800472614,0.6075831663,0.2617661708,0.8174646024,-0.3063205238,0.3692883009,-2.3898567483,-0.4407765531,-0.6166764751,-0.6045088632,0.734045078,-1.2048781316,0.8266439457,-0.340371943,-0.6144249207,-1.3879106183,-0.822630665,0.7693799056,0.8069483331,-0.3963738944,0.41237715,0.3699743844,0.0100353746,0.5501022074,0.0810703331,0.1558943803,-0.9373892158,0.6001877839,0.0481970777,0.3506805498,0.4897038587,1.0363227656,-0.6505997085,0.7438742102,0.3458873587,2.2707392778,0.0454337614,-0.4665269374,0.3631273467,0.5538340148,0.7467393332,0.242290557,-0.4340649194,0.590756453,1.3117337708,0.2086253587,1.6964434158,-0.7969388895,0.6166945431,-3.1703813043,2.532631744,-0.4142950009,0.4003265031,0.5813031596,-0.8327864268,-0.2176841046,-0.3890422253,-0.4953749023,-0.5329687619,0.6933887986,0.2279992325,-0.7298050214,0.0457188926,-0.0577687295,2.5535539312,-0.7574302476,-0.594799041,-0.3739605548,0.1750105374,-0.7539835571,-0.5380249322,-0.5507472947,0.5771190426,0.1044290099,0.4711896929,0.0403474193,-0.1689831795,-1.1361498513,-0.8507989854,-0.7443941635,-0.6935774437,-0.8643862903,-0.0377888967,0.0891943484,-0.1060415873,0.9041507825,0.0378907115,0.038054623,0.6694190082,0.1989400091,0.9083677018,0.2216024346,0.5032993972,-0.0584792874,-0.7008330648,-0.538037259,-0.9126671296,0.915949766,-0.150472346,0.1912992581,-0.7997428872,0.1471083222,0.7366373008,-0.9849306392,-0.347473984,-0.1436290367,0.3445543506,-0.9534711121,-0.2254315524,0.452071398,0.1905999136,-0.9649816267,0.4582503475,-0.4486566175,0.7482337104,-0.6547664245,-0.3247729162,-0.3145698279,0.3226644237,0.3185274376,-1.5173911499,-0.1004926544,0.7824641975,-0.3722864642,-0.3576174782,-1.7040030942,0.1291118986,2.3990950822,0.1836477717,1.7508788787,-3.2641978317,0.5140053997,-0.9875148257,-1.0584992781,-0.3364606509,-0.622084962,-1.099077758,0.408116418,-0.2252973829,1.4025548465,-0.751202431,-1.0270769774,0.6210181343,-0.5825692336,-0.0135358663,-3.0087964831,-0.7292263236,1.009904585,0.3531975646,0.2691211281,-1.1658421748,-2.5712128501,-1.645159916,-0.1333972944,0.9301378127,-0.7293628381,0.5116532493,-0.1921362119,-1.0383301188,-1.8328867056,-4.3880185017,0.7550128637,2.7793332139,-0.8810310373,1.0949295235,0.0608027246,-3.0416208622,-0.2190358188,0.7192246944,-2.4430958235,2.2846911563,10.8332689524,0.4346730033,0.467418388,-0.0429291403,-2.3768012747,0.527395345,-0.3470551714,0.1546272133,0.2563742669,0.8442562174,10.0945095097,-0.6275328017,-0.0424604787,-0.7603157907,-62.3609485027,-2.2753899375,-31.36154043,0.5420869236,-3.0432177595,2.2543762414,2.0027619812,-0.0198051702,-0.5587023736,1.1125067694,-1.3439931786,0.8265243768,0.3490117793,-0.0428836943,-0.289892289,-0.7135680209,-1.0402776078,7.3695113879,0.1503103106,7.3419043669,-0.1809901307,31.549081482,0.6008691174,-0.1744806454,0.3847294763,-0.7311619129,-0.9102905901,-0.5618986263,0.2064684101,-1.7834345146,3.7701284942,1.1286195386,20.2827931299,-0.4979270025,18.5595608443,-0.2325555541,11.1825340904,-0.0792769828,0.627571867,0.1963834042,0.3803100734,-0.4495518679,0.816775079,0.4131362579,-0.062124165,0.7380429077,-0.6095567825,-0.2625927864,0.104675992,-0.4991642081,0.2634178775,-1.0030994307,0.3596677231,-0.1833304624,0.1337129943,0.192795025,0.7842610434,-1.2209811634,0.6671934939,0.2351166915,-1.0500396457,-0.1955014733,-1.385031582,-1.1644060321,-1.2620936711,-0.7678274252,-0.1047123613,0.2726432023,-0.1168679854,-1.6357308664,0.3316863095,-1.4449819383,-0.8514502337,-1.0976810978,-1.5859811587,-0.6405175124,-1.1284713392,-0.6024050333,-0.613426223,-0.0267879357,0.2849600975,-0.8211431901,-0.4820149767,0.4122708195,-0.3958787738,-2.2179775797,-1.8113173766,-1.7442726591,-0.512967948,-0.4968681078,-0.8773252928,-0.3239875397,-0.63263804,-0.1393091217,-0.5202934758,0.0215323267,-1.2584788051,-0.0040855581,0.3617982581,0.2865079316,1.741890466,-0.2372111062,0.3843115217,0.0454853111,2.205000499,-0.4574006776,0.8737874398,1.1174108196,-0.5346367569,0.0008055405,-0.5652083827,0.5472303789,-0.4228971517,-0.0024279201,0.4988809694,-0.1535451781,0.2733748845,0.3150466809,1.0336932187,-0.6188385992,-0.4629965654,-0.5331950597,1.3725347896,0.590111537,-0.5267369045,-0.5049014198,0.8028607272,0.9717090156,0.1786495902,-0.3688918477,0.1598295329,-0.5076605698,-0.2853226876,-0.5885601769,-0.267514681,-1.0261774763,-0.3378533791,-0.9571778483,0.3347974661,0.5783235768,-0.2682387069,-1.0390805207,-1.3783113382,-0.4276773675,-0.0390319896,0.6925569178,0.6892596479,0.6921716976,-0.9266780428,-0.9345369678,-1.1259209322,-0.4196727682,0.1974093908,0.0994765769,-2.4839260224,-0.683538207,-2.8821448417,-2.2887040271,-0.6851013042,-2.0354665398,0.5271723988,-1.8770165409,-0.7426388437,-0.4021150903,0.8485478704,-0.3926104086,0.395725404,0.47009792,-0.8590251703,-0.3660040247,0.0052824942,-1.2791993733,-0.5747544496,-0.7883202747,0.552175575,-0.1263136797,-0.9651783129,1.1052508035,-0.0439756911,-0.065135433,0.3579805243,1.3523679844,0.2916284062,0.461865045,0.6062408924,0.6906769243,2.941432135,1.3529941255,-0.1207512601,0.8554620439,-0.1363380186,0.2011677956,-0.360038078,0.7376282654,-0.2688810947,0.819287765,1.0296777885,0.7456817479,-0.8422118455,-0.4089758649,-0.2167535681,-0.6503334461,-0.574331903,0.4796177662,-0.5964747072,-0.5392065445,-0.974958732,-0.3292085729,-0.8689969254,0.8417619986,0.194321002,0.6806399196,-0.8510523269,-0.1776391328,-0.4302101998,0.4294479909,-0.6366173511,-0.9178974374,-0.6856930132,-0.1680577989,-0.1033752188,0.8144079724,0.6252779003,0.861244845,-0.5072858018,0.6075876141,-0.2699046122,0.8796954184,-0.0710793174,-0.9261290419,2.0176594801,-0.6239734471,-0.8255298374,8.699773355,-0.789101694,-3.7688056027,-1.4194744815,-0.48129628,1.316668895,-1.0124375137,-3.243958776,0.838125365,19.9377648428,-5.1364561319,-0.5960435481,2.3981700073,0.1500996207,-1.9794176461,-4.3958976229,0.2907509957,-0.0855736412,-1.0323061686,-3.6497867527,0.1964268744,-0.4618548527,-4.2257851425,-0.1685309524,-0.7103575018,0.0575658521,0.632419382,-1.769120208,-1.0512426594,3.61586166,-0.3253827619,-0.3492249488,-5.2030106603,0.8496525466,0.739058226,-7.4700121311,0.6274020754,-27.4699007031,13.277652212,-0.8817836984,0.3760356051,0.1646921435,-14.2323797497,-10.1813033753,0.3374854437,0.3970010328,-0.2106483195,-0.3440385962,-4.2789434022,-2.9662718571,-2.8465486471,0.255481297,-1.4156464212,6.7680999423,0.4005638885,2.967211257,-0.6193932252,-24.5643917472,-21.2935611253,-5.9906729279,-80.4101633422,-0.2987149351,-56.9033423893,0.2056176982,0.5742627173,33.8358494754,-0.3415104123,0.8487364357,-1.6379249003,4.7734552805,-0.2315433499,0.48928306,1.6998732836,8.0837068556,1.2704362273,4.6974448905,0.2378361138,1.0914540172,-0.5354794387,2.0356989299,0.4958364543,-0.642131796,0.0909001125,1.6257563537,0.5697139489,1.7916399149,0.6959654909,2.1412995444,-1.4631612102,2.8514749545,0.3132803837,0.6650388438,0.5169191611,0.3494847832,-1.3196800305,-0.6691814123,0.5753015209,-1.0953735644,-1.3963943683,-1.6269120953,0.7301651837,-0.4630982954,0.3833873748,0.8894366772,0.4985896814,-0.634919096,0.7687861028,0.0425604659,-0.0145612219,0.1980515749,-0.4177314062,0.6880065721,0.3375470032,-0.9406149572,-0.6051937562,0.405271614,0.6913344243,-0.6418204156,0.4111635764,0.1050230238,1.5285854754,0.5193574138,0.6972541044,0.0728230563,3.794933776,0.1466175965,-0.116921244,-0.2083439413,0.3879213725,-0.5556296024,-0.6098642419,0.6306670077,-0.8074724261,5.3165109811,0.4017937092,-0.5456874289,-0.2281873066,0.011130034,2.9100534722,-0.1966743953,1.9026077982,0.7955434415,0.5350743471,-0.9306813227,1.9380686109,-0.426984068,0.2108773301,-0.4513368742,0.0959716441,-0.1028630867,0.1081864773,-0.0453627223,-0.4055531168,1.2086967607,-2.7147967742,-2.726242937,-0.9933557439,-1.5037253615,-6.144159888,0.198329811,-0.6684236043,0.010853012,-1.3210247379,-0.3719855372,0.038950549,1.0660082454,-0.6243073913,0.828877559,0.8670300033,-0.5649505236,0.0133247445,0.6094487103,1.0630861935,-0.7347520597,0.3953165891,0.7045083883,-0.5341696556,-0.1177438401,1.0660949675,0.2179214606,-0.0912824266,-0.2280257799,0.90913268,0.6052504692,0.5872368967,0.1453059981,0.066283342,1.1731801016,-0.755683828,-0.7027564526,0.9332662283,-0.1550023845,1.3225062918,0.317407817,0.0207071257,-1.368854533,0.0879879235,-0.8576335726,0.0016469814,-1.6361335301,0.5388597145,-0.3459480853,-0.4675798435,-0.3897026368,-0.0817279364,1.2088669856,1.3724940968,0.4075025049,1.2575824021,0.0376735932,1.6554395516,0.9348515156,1.1074947923,0.5383025282,2.3964207583,-0.6322302231,0.3248706458,0.0926755613,0.9950506275,-1.644707418,-0.0863241887,0.9207669809,-5.9400877457,-9.9036395609,0.1158547182,0.1006267462,-0.2153897983,0.4807685304,2.331939583,0.0247813103,0.8608571549,-0.8300494355,1.0692138639,-0.7836628586,-2.1018568558,-0.7167044127,0.4654256729,-0.3989659849,0.9096579733,-2.0226690901,-3.3156865872,-0.3753190958,-5.2457917324,-1.9106012122,-1.1111541934,0.9169549267,0.2123345395,0.8497667068,-1.4029311995,-0.3034565672,0.0797229944,-0.834218871,0.4702153503,-0.4010225921,-8.8372666871,0.0443780332,-0.7121212658,0.1491405048,0.8500152413,-0.9084566937,0.9163811325,0.3366335329,0.7069343008,-0.4270568129,-0.7988311761,0.6401186006,0.9766029787,0.6077246431,-0.7736081948,-0.6004379956,0.2422631375,-0.4939891298,-0.9619738386,-0.8230316887,0.5473457363,-0.4060746461,-0.009002475,0.4139398281,-0.8637620758,0.4042988857,-0.1547162868,-0.9459978084,0.0806591186,-0.7316999599,0.099532893,0.3416321982,-0.9746670361,-0.5622948106,0.4555411192,0.1614578962,-0.652167049,0.735122728,0.8198392487,2.0116005374,-1.712488337,0.4917214183,0.6237370375,-0.4586202055,1.3814393201,-0.4292311981,-1.8155003197,1.3274872753,0.1058133792,0.7145525671,1.1777650485,-1.8150955655,1.2812327967,0.2346498939,-0.1456874067,3.1090683457,-1.105762832,-2.0063535518,0.3724502625,1.3152880824,0.097256138,2.156368803,1.2230513243,-0.5523664169,0.3095123995,0.0442247101,-1.3545195049,-0.6705206425,-0.0846407587,4.7046562915,1.0777590847,1.3143402806,-1.1201795776,0.5908777342,3.7829012753,-4.6233914131,0.6981262242,-4.2036851573,-0.2272517475,-0.6041154152,1.4042314585,0.5953663674,0.9716646407,-0.7596172308,-0.0063942606,-0.403462559,-1.0450090932,-0.8281838126,-0.0722805064,1.0947496552,12.4088188611,4.2286517743,4.3346068803,0.3519579973,-0.7470492098,-0.0597874779,-2.1292819188,-2.785262532,-0.3958599295,6.7567650995,16.3445202638,-4.2427935433,22.2734478015,-0.0277134003,23.2841714005,-0.244586211,1.1787724636,-15.7520398747,-0.1308678542,-0.1940632482,2.66958447,-2.6064840942,-3.070669715,-0.2119652039,-2.888279954,-21.4906585937,-2.5376305897,-2.6958297237,0.4184046992,-0.3265013683,-0.3644848298,0.8638544078,-0.1046701476,0.5456099168,-0.0806530928,-5.5383350962,-0.0135054521,-2.0848750923,-1.0374059655,-1.082603126,-0.1638502134,-5.859066575,0.7824706501,0.9860640403,1.1842790038,0.5769969333,1.0299263941,0.1508025292,0.9335250301,-0.754188316,0.0433470237,0.0882363172,-1.1757664784,-0.4775269561,0.8558041767,-1.9779065458,0.2654231471,0.2776636221,-0.4215310593,-0.3228489119,-0.6595519816,-0.8983869263,1.0098261599,0.3237997881,0.9044931035,0.8149928589,0.0360264892,-0.6873237537,0.3975858016,-0.6416915798,-0.7052700699,0.0378587468,0.7660885611,0.4177877383,-0.8252448122,0.6268822276,-1.7823651334,0.429716743,0.6389056886,0.7093033618,-0.2104390333,-0.6408437688,1.4162793022,-0.4216389845,1.7444681997,-1.1372385963,2.4010020402,0.8740914091,-0.9959860291,-0.795322457,-2.6026988834,4.6567983051,2.756617928,0.2322731201,-0.0471041914,2.9696512123,-1.821907855,-0.2071622582,-0.3527557951,0.1837288787,0.8178342422,-0.4195665956,0.1070381184,0.6233556466,-0.4597040802,-1.6696108275,0.9860452263,-0.1796844322,-0.176267614,0.4049067088,1.4985494435,-1.0408621086,0.1675757148,-0.0929583397,1.6245632729,-0.7176288623,0.1857470825,-0.6045133907,-0.3801965513,0.2593994834,-0.7846435071,-0.5502432796,-0.2356366936,0.8742018011,-0.2243306452,0.3814123715,0.6622186212,-0.9738207916,-0.6942593606,-0.7466613742,-0.306365097,0.0116141074,0.1347849263,0.2862054984,-1.0369073699,-0.7665148949,-0.3755078925,0.1049799572,-0.4745057005,-0.2419142896,0.4366116362,-0.2060059871,-0.6117429737,0.8029633527,-0.2707306389,1.2732204797,0.092926203,1.5623939341,-0.7297886849,1.9640521708,0.909786816,20.7759558042,0.5650707212,-0.6367632781,-0.3403509517,0.4917034954,0.9131759483,-0.2698839991,0.2962267381,-0.4947834205,-0.9066698167,-0.0437129657,-2.2165107561,-0.4806735168,-1.5652330257,-0.1380163412,-4.2963327302,1.203376564,0.4000490659,1.1946571851,-0.0404352236,1.0427087626,-0.8485203516,0.0292355661,-0.1159978311,0.6992879267,-0.5409639396,0.1638060481,0.1529971835,-0.2999751568,-2.0215580695,1.1436778767,0.5525658562,-1.2193966122,0.4859798339,-0.8241308505,0.4175130857,0.1255999739,0.0646819604,0.0478823723,-0.8597214883,0.247406272,7.1574530225,0.3274582888,2.1621672349,0.3676338406,-1.0756111004,0.4980545981,-0.9578692962,-0.7585009645,0.7236993231,0.1261996891,0.5057190962,-0.3231270987,1.4484921594,0.6170852594,2.0417985781,0.657730168,1.1368710791,-0.3629181471,-0.4854283257,-0.2106719198,0.1314142776,0.4978398243,0.4368829534,-0.8925811142,0.1925003915,-0.8184450765,-0.4878165601,-0.7525985132,0.6350662387,-0.620924975,0.4853374311,-0.9412420593,-0.9810374834,-0.3564244222,-0.8637600875,-0.008375089,0.6236102893,-0.8484108323,-0.0368023635,0.316828311,-0.038847786,-0.6241937806,-0.0041258332,0.6538330205,-0.1716697464,-0.1356561064,0.1069582723,-0.5166115186,0.6220411203,0.3006037732,-0.2230884497,0.062208034,0.19979147,-0.8683937564,1.1843667024,-0.4780675269,-0.7065138149,0.4794901256,-0.2274303527,0.1356985208,0.1935741278,-0.1388325095,0.1209879686,-0.6848843749,-0.5900036609,7.4218197791,-1.8692676148,-0.169574236,1.2613943589,-3.009035975,-0.3360540264,2.1640944248,0.5886886088,-1.5460827221,-0.016547524,-1.8201697521,-0.9443076318,-0.4585592509,-0.300754989,-0.0119479794,1.3266793452,0.3228248583,0.2030939478,-4.9303328043,-1.5892185006,0.125436293,0.4630371225,0.9552824141,-14.2749330577,3.5663932887,0.2479487434,1.9004519669,-0.161577069,0.1475157915,-0.4060121502,-0.8559736127,-0.3904582715,-0.0414249126,1.3914203587,-3.2438117727,-0.0799874016,0.8296605783,0.3600000496,-0.5569739467,-12.9432661225,-3.0420836926,-2.6863293822,-0.9305095632,0.1633467704,0.9425085846,1.3450674631,0.1809937646,0.4488419186,-2.8139055832,-17.079218809,4.527187969,-22.2545929065,-0.7802399791,-22.9729705698,0.815443106,-1.4364648645,13.7441201234,-0.7500247476,-0.177399516,-2.6516816645,3.836384237,2.5236713471,0.0844311767,3.9688078182,17.7991871198,1.9426485592,6.7487217577,-0.2941729045,1.1534175595,-0.2504678723,1.1139841556,0.0552039157,0.8608446263,0.6482328993,4.9868642737,0.9218543841,2.0156114965,-0.5011420451,2.4034290936,-0.0956070411,6.5271430222,-1.0794456546,0.4697660208,-0.1809644082,0.3874280946,-1.3090300016,0.0079284158,-0.0537644543,-0.4256660052,-0.4469296807,0.2647960747,-0.071848265,0.1218029205,0.7059615434,1.4965548923,-0.8982147388,1.1237389692,-0.1513143001,0.0440971651,-1.3576961997,0.8599345778,-0.77033257,-0.2049714022,0.2925653742,-0.9555047074,-0.2408672668,-0.4365261449,0.3191909065,0.0104153394,0.7255505374,0.0361625313,-0.4179236091,0.3820622766,0.8515839905,-0.780232372,1.1390594818,-0.1804096331,-0.0534704784,-0.7052094311,-1.0281231298,0.3379223628,-1.6795811188,-0.1217397081,-0.6102858354,1.6361833473,-0.8567183114,0.9189381849,-0.7598582976,-0.8725158032,1.8311344784,-1.2948605316,-3.4877305206,0.8604005169,-1.3061558849,-1.5519238442,1.6709636959,-0.8820835755,-1.2039251169,-0.0653212677,0.2782524031,-0.8769527816,0.1234149123,0.2731303331,-0.3426180784,1.351356617,0.5092709008,-0.7371791919,-1.103180592,0.2883511503,-1.1645001051,-0.0648118135,-0.1423272078,-0.0158104904,-1.1318375311,0.2353181448,-0.3974901846,-0.8211240195,-0.0094150529,-0.0716772574,-0.3985019743,0.0622525783,0.500003694,0.2305297329,0.0260592946,-0.4486257508,1.026232817,-0.13945397,0.4891576787,-0.4106526172,-0.6341218633,-0.5194087177,-0.4475848224,0.0391377217,0.2793770931,0.5485943253,0.9455280168,0.9536195508,-0.0841440146,0.1231533935,-0.5450254935,0.1678021888,1.59548587,-0.5807734433,0.5472969562,0.1657602312,0.2793806383,-1.894338258,0.1968428878,-1.9240947697,-0.1864492266,-2.6624682359,-0.3128558433,-1.0131338809,0.5613852301,0.9377822286,-0.4061569113,-0.2770699218,-0.5914157326,0.5668339474,0.2914570907,-0.3834447838,0.345910285,0.2955915846,0.6815444275,-1.2980364743,3.3875251249,-1.5570404378,0.8065996587,-1.6809434638,0.8628277116,0.3227636982,0.172951538,0.1330391227,1.2109503467,-0.3884814338,0.0394432527,0.5452181172,-0.6817765467,-0.2813838888,1.6497920244,-0.3149618684,-0.2089433627,0.345330744,-0.7055659154,0.4104233127,-2.6278003364,-0.1219431922,0.1061214467
   -0.347898467,0.3238581025,0.1975750221,-1.5874594958,-0.1148626853,-16.5369153018,-0.5314499905,0.1565820806,0.0066667086,-0.0660382084,0.6593568633,0.3508321798,0.3661875168,0.2173860524,0.6267897873,-0.9642940804,0.2258714303,-2.2394755635,-0.4681550814,0.5700816988,0.7452535178,-0.1013707336,-0.2978603681,-0.4260863768,0.2003749324,0.057260377,0.1789719641,0.5014115665,-0.2990827977,0.1510216963,0.1519538764,0.5086588748,0.8371403567,0.6835396411,-0.6271557892,0.020359693,-0.8499585771,0.3026169007,0.4099458095,-0.2956598031,-0.423825236,-0.299601654,0.8706008451,0.5362497438,0.2500357779,0.8567831172,0.3034358103,0.3919680975,-0.8426382121,0.6946630972,0.2920920946,0.3802427725,-0.8477819972,-0.3709698584,0.509814721,-0.4281636926,-0.0032881999,-0.1481397916,1.0230160521,-0.4979377386,0.2568026895,0.9920685006,-0.5315753738,-0.0412107086,0.225019148,-0.235690617,-0.8643398534,0.7898450336,-0.8596695419,0.3156493414,-0.4567498443,-0.3089464989,-0.3958592732,0.3912743243,1.7100542783,-0.5052182197,0.6665352721,0.0267528534,0.1729312971,-0.2548369093,0.2694672931,-0.6522238887,0.7508892081,1.0333636281,0.460768649,-0.2600479605,-0.4925922314,1.8262790768,0.6854523872,-0.1548897615,0.2880654108,1.1590941981,0.1756061352,2.3743352021,0.2822379688,0.1519884921,0.8683061552,0.3820493715,0.895126418,0.933112628,0.8095841983,-0.2773816976,0.4686794563,-0.6013762732,0.2082444818,-0.4632330204,-0.0487319625,2.7833155651,1.5199818904,0.9868268727,0.7468043956,-0.4217154258,1.2415643927,-0.9090935328,1.1907014098,-0.2515984698,-2.7786836567,-0.3646558116,-35.6450844655,-7.0797075714,0.7537313672,-3.6055620578,8.9368933648,0.9489827509,5.9469858777,0.9730545188,3.1211563118,3.9867561605,8.853003739,9.8849910334,-0.3048556712,7.6543070796,3.5728100446,-0.0256672217,-1.1458390755,0.5745318018,0.3165160785,0.0694426631,3.6090128357,-2.2975575341,0.4809782808,-1.9471093251,0.7120505406,-27.3280687909,0.615226141,-0.5827938129,-0.1829031304,-0.3985706509,0.5897617168,0.1971672742,0.6326357713,-0.5371018232,-1.4371023245,-1.3469354302,-2.8596936116,-0.3711796887,-2.5820179819,0.3344078295,-2.9159489809,-0.0128013689,-0.9338235278,1.1145980523,-0.344383154,0.2880421376,0.0069515143,-0.0894991733,-0.0067232503,0.4370279666,-1.1792114786,-0.8124992727,-0.4145232222,-0.5160131959,0.3845516549,-0.29622007,-0.4976289301,0.4770470189,-1.1971115043,0.8018438255,-1.8158989697,-0.125342623,0.9135815195,-0.3654068123,0.5380551096,0.3059926777,0.2551458603,-0.564309014,1.0331483544,-0.4450416986,0.1410679398,-0.2309498181,0.8494035597,0.2789751095,0.9186050523,-0.8831616479,0.0395813526,-0.429030857,0.8897691688,9.56162612,0.7442511912,1.5975545977,-0.6146937676,2.552902109,0.7611435883,2.2502335431,0.442362325,0.5366737669,-0.4223382596,-0.4680572763,0.530209727,2.0420993731,-0.0446574084,0.3038165401,0.6489511139,-0.9902969931,-0.7714970995,0.1671799497,-1.0163403444,0.4210955172,0.4413033846,-0.1982861431,0.0687064684,-1.0346223356,-0.9337966043,0.5811532904,-1.7566570459,-0.5951054932,-0.7456447962,-0.6267706339,-0.9039625107,0.0379482706,-0.6637177488,-0.8639256064,0.0704682908,-0.3754911377,-0.9056170761,-0.2078391232,-0.6851164491,-1.821683843,0.2163390185,-1.2647575004,-0.2074125069,-1.3643720121,0.6318732685,-1.3459482347,0.7364621626,-0.6079861567,0.7462348173,-0.6722546813,-0.4958097003,-0.6054876566,-0.4042611251,0.5630524323,0.4244600418,0.5570560216,0.6183139381,0.2374849352,-0.5437488341,0.6171502165,0.4091909476,0.5843772086,0.070139016,0.6431428178,2.6059692138,-0.9130660704,0.244173581,-0.1992176918,1.3860782484,0.8824952865,2.1000065553,-0.0578251129,0.0616716603,1.5952848346,0.6186457995,0.6113573637,-0.7587899484,-0.4027845943,-0.2207921937,0.2536801071,0.3618323478,1.7383519647,0.0012532908,-0.1456215465,-1.5483255814,1.1467263094,0.5533670711,0.781042602,0.5002789954,-0.1845572204,-0.1217763801,-0.450373361,-0.2698197787,0.4693340331,0.5902240772,0.4867336744,0.3395491595,-0.8022406855,0.3141051725,1.5673529444,-0.9217391124,0.5059205499,0.2216538869,0.2504811001,-1.7623508461,-0.1320231166,0.8254266577,0.3915652112,-0.0534402561,-0.8666445635,-1.3950974716,-1.3682195739,0.6659576405,-1.3556656965,-0.522315455,-1.9472122085,-0.4709269293,-0.4273984785,-0.4677356923,0.1583870886,-0.9504663268,-0.3915900232,0.0193122576,-1.0030971364,0.8192474572,0.9603168307,0.7529029891,0.2297755753,0.5334670374,0.1205308095,-0.9288644954,-0.1993249654,-0.1538431134,1.0102722323,0.2588480047,0.6844952575,0.3567752698,-0.4868295798,-0.9931393102,-0.4886935472,0.6630294425,0.6788626922,0.6639938019,0.7494462043,-0.0748790301,0.4828820557,0.5659964893,-0.8590491936,0.7015105336,0.272091781,-0.1282572599,-0.08519443,0.1186319978,-0.5730831558,1.0436119796,-0.1185322453,-0.0969262114,-0.7973165722,0.3370726419,0.5460505854,-0.3716483568,0.6226383657,-0.3095728692,0.4369106744,0.6592696103,-0.7938382063,1.548935853,-2.4570334988,-0.3559890417,0.5969659923,0.0326934896,0.2084840774,-0.7717316429,-0.716381287,0.6384428209,0.0267944747,-1.8572093815,-0.0182341677,-0.2015748118,-0.2578481533,0.0873923957,-1.9235372061,-0.0299604867,0.361438911,-0.4500269012,-2.4528827781,-0.7802914595,-0.1964810394,0.7690633134,-1.0039823979,1.4675183265,-1.1692770521,0.2068577469,0.9390514826,-0.5804129424,-0.5040373734,-0.2733976091,-0.3845389087,-0.6908021755,1.0659110995,-5.8626501052,1.7929975898,0.4070774027,-0.0235064006,-1.2093480728,0.9709026146,3.9945647425,0.9392477217,-0.1689592645,1.4752365215,2.7491202637,3.8371672893,-0.1682905851,-0.3678105117,2.4573593497,-20.8683146373,-0.2784618668,-71.3537193762,0.5165951173,1.6573055515,19.0066302192,-14.7470670975,2.1924538761,-0.9400102733,0.8005314457,-6.3941081841,-4.1290187924,0.0757669545,0.1927019264,0.8559316384,3.498982456,0.6374072205,0.5364316355,0.1801146465,0.5507000729,-2.1198547058,-2.4856070061,-7.4242948849,-0.7682258236,-5.3608053378,-0.8520088435,-10.1962232341,0.199104873,0.722908345,-1.9354015288,0.2234694173,-1.3629338896,0.8166904142,-0.1475170462,-0.4917830437,-3.1038582027,0.685311276,-5.6963167951,0.0919348205,-3.9790304367,1.1756518498,-2.4611032168,0.9316449895,0.2137147913,0.480393412,-1.2497830375,0.0648330426,-1.1702459898,0.5395023957,-0.8951709452,0.4237127934,-1.0751642088,0.715058907,0.4306336727,0.5391004963,-0.1900858369,4.5758202163,-0.053241132,0.2726978205,-0.1296282211,-0.0690578537,-0.9830155057,-0.343457788,0.6171137252,1.07351591,0.3464156845,-0.6136485927,1.5538191372,-0.6519352428,1.0747160957,-0.5937942686,1.5593637345,3.3913259645,-0.1362041007,0.8356601504,-0.0778993503,26.2471359061,1.1820468844,0.151049878,-0.0632277789,0.7189746021,0.2843001265,0.2925351368,0.2277024499,0.1080762902,1.1097653999,-0.7324343248,0.3834702489,0.1893707497,0.7167267339,2.4736731083,1.9429152722,5.9853613031,0.3596462933,6.0028054104,-0.8614120596,1.3634211334,-0.4533741113,-0.0909076707,-0.1776565235,0.2818847442,-0.2520346629,0.7204771192,0.7612487773,0.9133368678,-0.077776421,-0.4821180713,-0.6350257558,0.9205098098,-1.3539044594,0.3546779624,-1.7556619009,0.2175864565,0.5979997447,-1.0491619,-5.9187767444,0.6075610707,-0.0336701417,-0.3480515093,-0.4579957641,-0.6614339389,-6.9275440732,-0.8622859462,0.6749882273,0.2768388255,-1.253898064,-0.7638933356,0.0685527331,0.5039927417,0.082477012,-0.6331666305,-0.4252744047,-1.2219443293,-0.5591580754,-0.4659344593,-0.848661214,0.8842030116,1.1005918972,0.9347828578,-0.8455354186,0.9762081195,0.6490066563,0.43655901,-0.6020913239,1.0057463693,-0.6159500468,0.3624438841,0.8361624765,-0.3342461115,-0.4408738041,-0.645953791,-0.0909949366,-0.7812419719,-0.8645574577,-0.561829954,2.4188374498,-0.4165081395,2.0646387633,-0.7852816055,1.6704436928,0.3244178423,1.8078843654,1.0558442263,0.7204366953,2.337983043,1.036115698,1.7286885297,-0.7256450274,0.0255102596,0.4741075386,-0.6888518689,0.2375307309,-1.4183479541,0.2318382871,-1.405342782,-0.2260803213,1.7798176888,0.7599836453,-0.5705013539,-0.2627905221,1.6101829608,-0.5493022353,-0.9459983271,-0.2920120018,-0.6987218928,0.5074082435,0.0120402531,0.4232743068,0.477286133,0.3174998815,-0.0462170479,-1.713884193,-0.3128234329,0.1659592857,-0.5275004264,-0.8228791298,0.158591929,0.8735393641,0.2620693986,-0.9175206334,0.1896319643,0.1339647367,-0.8952962421,0.7392359785,-0.6178684783,-0.3363172052,0.551168688,0.4268248508,-0.339129255,0.4551440206,-0.2031370381,-0.903574035,0.1558668048,0.4394371909,-0.2466754055,-0.6179269984,-0.2656491872,0.5287667186,-0.7660475764,0.4347422513,0.0034189646,0.945500954,-0.0053269414,0.2233260682,-0.3846520771,0.8776728911,-0.0008003318,0.5209954007,0.9692192483,0.210459885,0.4089001458,-0.1728206727,-0.9094062047,0.1777781088,-0.7964753527,0.2189024142,0.6501142754,-1.9854557352,0.7382545851,0.1107700053,-0.3004545901,-0.7614410627,-8.6626126809,0.0851649854,-0.2454384405,-0.2391424458,-3.7290726247,0.6258895481,-0.3093300173,0.4932996067,0.4847158643,1.1619890877,-0.3059726374,0.5905365771,-0.0580747645,0.0904987052,-1.0169588781,-1.6093143065,0.6701596645,0.2289781003,-0.1795719615,-1.5229188439,-0.1770561749,-0.0095851107,-0.1991925937,-0.7640978555,-0.2107208697,-0.2887960848,-0.4631468936,-0.7443431892,-0.0538207021,-0.0422371349,-0.2993598002,1.0213495839,-0.6665733717,0.1129552069,1.3260911777,-1.7160226618,0.0263567572,0.6792599079,0.0395964562,-0.438084578,-3.58534738,0.9817839954,-0.2462140907,4.2614042648,-2.7368161432,0.7848455633,-0.2926545707,-0.1712190848,2.1330309209,-16.7789134057,-2.3415446009,-0.141432117,0.7922391962,44.2217912537,-12.4914220106,-0.5288435815,-2.0657206469,-0.7012338965,17.7817897087,5.7973919006,7.7647469713,-19.3367124805,0.8055548412,-0.4818185596,-3.3990060088,-4.5110688496,-0.8213218858,-0.3884471007,-2.0160389833,-0.6035477406,-0.7971380702,-0.2876542195,0.1708120113,-1.20055762,-1.3129667646,-1.6743538582,-0.0094248199,-0.5505525974,0.4388131343,-0.9504387914,-37.9344943789,-3.7850312466,0.44973974,-7.084911839,0.5085652896,-5.1715350826,0.9142812944,-0.50373022,1.3406863768,-0.5806464736,1.0400262154,-0.5327511215,-0.6384899143,-1.2943323669,0.7607743795,-3.9339820399,-0.2353878016,-0.6573741378,0.2781039882,-0.6726645761,-0.5235451513,0.0761626108,-0.095406387,-0.1758404992,-0.2575552244,-0.3968537453,2.0157784298,-0.5973905216,2.0814834145,-0.6123670705,-0.1534554052,0.4845722443,-0.4587202952,1.1364348141,0.5501383441,-0.1717650113,-0.0952381646,-0.4016183452,0.9054604945,-0.2960901986,-0.6375482019,1.0563089774,0.5555693108,0.1021521192,0.1027580041,1.1343380811,1.6082906772,0.1049682963,1.3079562263,-0.1484255003,7.2174563898,0.9153034845,0.4509188062,-0.2704968592,0.2232566775,-0.5294796137,0.1477609545,0.3583780504,-0.5432043541,1.3587315476,-1.0847620253,0.59071052,1.0069796014,0.0379681704,-0.1790707093,1.6593663983,0.9022963437,-0.7166488931,1.0391009503,0.0427203276,-0.3207894842,0.273213371,-0.4962974037,-0.6638259631,0.3557451065,-0.4829402561,0.3753920639,0.9941765772,1.5790880716,-0.899805159,1.5833887027,-0.5035943322,0.9380642732,-0.3297161379,0.5801949977,0.7941373758,-0.6976979813,0.0247111916,-0.0785805129,-3.5271813625,-0.6599691102,-2.363119812,0.8401771956,-1.7925304371,-2.2275436424,-12.9679650495,0.4692799978,0.2721287391,-1.0633907174,-0.8957964755,0.2267715488,-0.627822641,-0.7532295287,-0.0608126782,-0.3962849275,-0.1613576858,-0.7242510708,0.3626657843,-1.1671548797,0.7579111529,0.2025980762,-0.6340881811,-0.6968638629,0.1392286885,1.090252139,1.7670010139,1.3674887157,0.5925135047,1.0375274676,-0.7737713696,1.0085404598,-0.876788632,-0.8188777122,0.6414161754,0.8548577816,0.2905366416,-0.3260159529,-0.3135996028,0.7796735238,-0.6329727398,-0.9095013327,5.2820184548,-0.1786988314,6.1202145455,1.5360158163,1.0947978076,1.0568359568,0.2108946421,2.3713546696,2.8808332418,0.7730856724,0.3324794933,0.1135285173,-0.2531471964,-0.0581306341,1.6227135017,0.388483903,-0.1550840935,-0.9682354756,-0.303652684,7.4608888749,0.5653853784,-0.5417843768,-0.1729105337,-0.0076120643,-0.0151799349,-1.058755052,0.3512077906,-0.7251306016,-0.9134877885,-2.7486287008,0.263724461,-0.492124268,0.0342719096,0.2905268508,-1.8403696608,-0.6692563916,-0.2530595637,0.6912271762,0.5872562079,-0.2149384385,0.5285187937,0.7332484788,0.2765093018,0.4297254505,0.1264954037,-0.8072919186,0.3664503806,-0.2022143417,-0.1158961435,0.2510685758,0.3389737365,0.0410205927,-0.0971769179,0.3106245702,0.222062558,-0.1368259066,0.1050121296,0.169094252,-0.3025905547,0.7777666,-0.2593123713,-0.1275509852,0.6920000004,0.3926095628,-0.4247897273,-0.4032814592,-0.3318494629,-0.3617097853,-0.1539911339,0.2486988088,-0.2335153744,0.5782637202,0.1233303035,-0.9509057554,-0.0224051955,0.3353332897,-0.1588176312,0.8792581379,-0.4454466596,-0.1196101605,-5.1394477963,-0.6849454345,-0.2477454753,0.5074010693,-2.6195690499,1.0715589503,-4.7200685128,-0.37457038,-19.9354203783,3.4229730379,1.953076548,-0.8181257443,-0.6620586612,0.8104797831,14.2544284409,0.0742235454,11.2469784131,0.4483161925,1.017719267,0.5749342282,-2.1073734348,-3.2370919053,-1.1918779568,5.844003982,-0.1768297185,0.2629837338,0.8730979643,-0.3370490436,-0.1419664122,8.8841958053,-0.3516262814,2.5322765923,-0.6573294815,-0.3238085785,1.4344533945,-1.9241665922,-0.1374360882,0.2126845908,1.5146632651,-3.8466542682,-5.6885294131,-3.7046184552,0.5659817823,3.9939426941,3.4849925009,-0.3836907183,-0.0301920599,0.3641072598,1.0212162554,2.0378796896,-5.817119486,-1.1736858945,-0.7161961761,11.5639747943,17.6949342503,5.6224525157,0.9728638416,0.0640385788,4.1294494387,5.7350638808,13.5907446879,33.2882538694,-0.4796451988,13.7212332968,-0.7848123943,0.3370869007,-65.4360857307,-0.7683933904,-1.6268388556,-7.7492285011,27.7395628721,-20.1097876819,-0.4093296101,-6.842678275,-4.1570420691,-0.9354284996,-6.0320818606,0.5999441864,-6.7353961469,-0.8175847747,-30.2879562032,-0.1095592456,-0.0922627514,-0.6062955861,-1.4923663366,0.3938785081,-0.7731138073,-0.2608940159,0.114437453,1.312089102,-4.3563542555,0.9949297082,0.0092735792,-0.6868768365,0.6435515222,0.5048673507,1.4643957269,0.5479102933,0.440842001,0.0846832873,2.4507072701,0.8030602048,0.1953289202,1.3249129802,0.3059339284,-0.3821896038,-1.0874775542,-0.1203196403,-0.2359714444,-0.0792820317,-0.8049521947,-1.5923312829,-0.7880968416,0.3127934024,-0.4912963804,0.8891122393,0.137844907,0.9559876774,2.1583215675,-1.7757424942,1.1141967765,-0.7535599077,0.4452477339,-0.0626809805,-0.2817813771,-5.2467231253,-0.333547479,-0.785277201,-0.0389186805,0.7995014291,-0.5939706356,-0.1916544868,-0.0288078115,1.0398035697,0.5093414831,-0.2811034419,-0.5122780189,0.1501489398,-0.6667087506,-1.2765446304,5.0913183816,-1.2146201833,-0.6460735771,-1.1898897638,3.3684864677,-0.4477537293,0.8446940332,-0.4234410801,-0.7708926351,-0.7619895268,0.9466351325,-0.1109696031,0.8807787104,-1.6908407612,-0.684833608,0.410957745,2.8081794262,-0.0686579031,1.4079716772,0.3069359421,0.9072345644,1.1674061396,0.4798339464,0.2519891007,0.458653812,-0.8217761691,-0.9515355012,-0.8443942581,-0.6797536797,0.3507940154,-0.0759999062,0.1132014612,-0.4089569483,-0.1374084802,0.956408567,0.3961540068,-0.8179533294,0.0078376443,-0.9244762906,0.6537348048,0.8854120319,-0.2120593021,-0.842099752,-0.0085479898,0.3756762199,-0.4279063263,0.9229676137,0.5708951822,-0.528905565,0.1681946003,0.7740514926,0.0305484513,0.2403924055,-0.0781666339,-0.0604238822,0.6399209262,0.1293980845,-0.7294270741,0.9523033896,0.1731464522,-0.3064427255,-0.1606387172,0.7134427938,0.3273113176,0.1682667685,0.5965744226,3.4030903548,-0.1814979451,0.0714770148,-0.1814473347,1.0965592013,-0.7808446793,-0.0657195247,-1.8447920997,0.7634093424,-2.9401059996,-0.1108656205,0.4598393772,0.4844737838,-1.0657882881,0.638014477,-0.3602412709,-0.6754204525,-0.6048295127,-0.011154226,-1.4124828381,-0.0888519512,-0.1145496591,0.2581424081,-0.0389202453,-0.1161228794,0.001897683,-0.5219136349,0.3832570787,-0.0650074952,0.032961476,0.7855373077,-0.1422658655,0.5972918808,0.1542552744,8.2301312048,3.108948225,1.0423950346,1.2107344435,9.6798904986,2.5645237187,0.2094327717,1.252136107,-0.0662695682,0.0385585074,0.8527244872,1.4061848228,-0.4427426105,2.2671032719,0.4631262534,12.1077957125,0.9780589984,-0.1614068288,-0.1363432616,-0.3411586161,-0.1174559269,0.3160815224,-0.5321265203,0.7485084008,0.3012695358,0.9189979549,-0.2258770041,0.8488914683,-0.2733674249,0.6117570012,0.0383833942,0.1923595659,-0.6839777448,0.8641505841,0.0404898987,-0.0722202425,0.5735571189,-0.6686522868,-0.6863825324,-0.7268470683,-0.4108747721,-0.1512228957,0.2084059882,-0.2014176426,0.1525773282,0.8468000278,0.4617600811,0.6981602081,0.0598313405,-0.1505808126,0.6548473444,0.67945799,0.8169092749,-0.7870879304,-0.2511369644,-0.6088877833,-0.5409612599,-0.6041150259,-0.3392319111,0.6296107621,-0.5528394372,0.2311380617,0.4918338194,-0.5295720671,-0.3390357008,-0.5250838552,-1.9102439587,-0.3457804231,-0.5859553989,-0.9393328711,1.3036959302,-0.1649070835,1.7043759994,1.7456554269,-0.3310874861,0.1534820163,1.2681318614,-1.1442543211,-0.829678277,0.1825281384,-0.0994702837,0.8794841246,0.4850425848,0.2054394463,0.4859856448,1.8382009899,-0.6550612489,0.3370315214,-0.6392463121,1.1496860084,0.1491406259,-0.5584297245,1.1745402029,0.2172193364,0.9736614962,-0.0677573648,-0.7574790197,-0.5239680416,-0.1577641675,0.2168234403,-1.3631997506,0.8964956854,0.3949927172,1.0710395277,-0.8120692966,1.3859395349,4.2054981476,0.3509759383,-0.1964391203,1.3395683539,1.1654280945,-0.4615517801,1.7101132106,0.3790828439,-3.4129673421,-0.5744494255,-36.1565977154,-6.6970759513,0.6157281154,-4.7163876616,9.3061001666,0.6133251413,19.1327730914,0.2201737114,11.7201697734,4.2747392862,7.9007704904,8.5562043093,-0.7241126178,7.6402899182,3.4018066559,0.6995732259,-1.7463191766,-0.1274086588,1.4772234551,-0.8525167018,1.5720575762,-2.2882493888,0.0795373793,-1.209087617,1.0452650318,-27.4910612671,0.7690836534,-0.118268333,0.1428441021,-0.0121999825,0.985539679,-0.5212208626,0.0750543596,-0.9890857739,-3.0565473974,-2.5256066327,-9.4657684794,-0.0953471844,-6.5130300997,-0.5025889986,-9.7776703291,-0.5016558435,-0.5349743915,0.2852771915,0.7437087725,0.0379693064,-0.8387422945,-0.0102193326,0.3590730404,0.1468989025,-0.1512217425,0.0572934152,-0.0523199757,0.3407704336,0.4954187162,0.7126545966,-0.8117339976,-0.8613835341,-0.1853550364,-0.4606672585,-0.2943948085,0.7384653658,-0.2887976097,-0.4527121522,-0.5325687661,0.1381906547,0.6691789792,0.0241118163,-0.7318720221,-0.6667822151,-0.7047515385,-0.7308065581,-0.8411940211,-0.0014492935,0.1175581934,-0.2180319467,1.104383095,0.0279782192,0.8675473391,4.5726791575,1.3170621838,0.6074488939,-0.2670971979,1.430529146,-0.7006284155,1.3026698418,0.8339736344,-0.4896318394,-0.1047643576,0.9546692383,0.506321237,1.2178886048,-0.0079795616,1.1548794886,0.5380141014,0.0221941865,0.6931606714,0.0615752398,0.2907141298,-0.9035310096,0.6206030845,0.6410918007,-0.1655940121,-1.0406195913,-1.1637753154,-0.4378888505,-1.7464341944,0.370603366,-0.421780929,-0.8431966942,-1.264294031,-0.8686431112,-0.7978746039,-0.8110829245,0.7439060236,-0.9816673289,-0.4230682294,0.678969672,-0.1310520589,-1.171627518,0.4871534185,-3.9588234437,-0.054708306,-4.3888568023,0.8445881378,-2.2200391885,-0.1190414244,-0.8665205276,-0.2096380182,-0.6427157202,-1.0771019491,0.4464754768,0.3845289411,0.5051694169,-0.195410758,0.3965425401,-0.1640925973,-0.411409495,0.34523663,0.8090446022,-0.2102660936,-0.0345130587,0.4474529161,0.2906418569,-0.2647036545,-0.2741833405,0.0490808043,0.9722182629,0.4782788581,0.1737539055,2.3119669979,0.1332773544,-0.6937250152,1.3363007443,-0.8335425459,0.5515600553,-0.1041485877,0.4906569229,-0.4924518039,0.3349729975,0.4680025474,0.9742260092,0.5903724291,-0.3010361342,-2.2984907461,1.6371024066,-1.0877622293,-1.5327893131,-0.5923411247,0.5508323122,-1.1501016134,0.0875525149,-0.0158705134,0.8130479034,0.5713763664,-0.3049731073,1.5632233908,-0.7101271664,0.8692494142,0.9526128106,-0.1075314013,0.1270939589,0.6966611561,-0.0376976215,-1.558501931,-0.7998882572,-0.2927818717,0.4945946087,-2.0385604145,0.5079005562,-1.3005420183,-0.4308113525,0.6132016472,0.2295891361,0.706180231,-0.7338551067,-0.8295931206,0.7599936477,0.0466653395,0.009895935,-0.1466994968,0.3482549604,0.4635554336,0.846141757,-0.6643850946,0.8773205424,0.2369941648,0.1761970104,0.9464993588,0.6152933401,0.3269448548,-0.7877787892,-0.734288569,-0.9852382066,0.1727027956,-0.8095693365,0.1767093827,-0.1585570675,-0.4872546646,-0.6478297029,-0.9530354509,0.9351428369,0.8368989174,0.6062413122,-0.5999526498,-0.4034025435,0.6667418525,0.6707355514,0.0622410008,0.1286103085,-0.7163424663,-0.1037109799,0.1275962663,-0.437262955,0.4165962872,0.1175546571,1.0289373794,0.4755805135,0.8441242382,0.5435884676,0.9324527027,0.9001205748,-0.1642430672,-0.5650918606,-0.6549956529,0.8115253643,2.3312266241,-0.4543370132,-0.1491296283,-0.5551822296,-1.1176779444,0.9050006018,0.1896945459,-0.0708332426,-0.1811905128,-0.7247927502,-0.4197883935,-0.8652167724,0.6601267724,2.326984912,0.7430181955,-0.940143896,0.4480262644,-0.3905050241,0.2182896222,-0.2686705221,0.1672449738,1.1627134746,0.5650437271,0.2264692425,0.7078053208,-0.0979335937,0.494194011,0.668819843,0.6327396982,1.2964072674,-0.2942144524,0.2414302555,0.3530666413,0.2045227262,-3.3206992076,1.405427191,0.6968990778,-0.6701648377,-0.1892539945,-5.1050949322,-3.7370119039,-1.0772938057,-0.6950709915,0.3917127409,2.9486843678,1.5275500387,1.6046853606,-0.3634562781,17.6293532299,2.7478754467,32.3246289414,29.0012541819,0.2552769674,7.9733522092,-0.7721774517,0.1689368817,-13.0395874106,0.1674664443,-3.5616449713,-3.8283266582,-7.4327944946,-10.5296514011,1.2251215374,-3.7010314649,-3.9034161977,-0.0009075545,-1.8458113512,-0.5967920208,-1.5217312766,-0.1973784573,-3.0788432641,2.7925893603,0.3950978054,2.0228908326,-1.3755503427,3.6761271791,-0.0777555683,0.539551711,0.3979362975,1.1587350108,0.1004622351,1.078402505,0.0866245748,-0.7888546078,0.2553251984,0.6559938981,2.8445694154,-0.2203038499,2.0579113259,-0.5632851774,3.1514860997,-0.1228703076,-0.9132493736,0.0433106019,-1.0861318027,1.0408288946,0.1771098627,0.0643236288,-0.5334052661,0.445266736,0.184879509,0.843743793,-0.9203934325,-0.6873282371,-0.3663145208,0.7100328276,0.5770021061,-0.6157671729,-0.2481162278,-0.1992305476,1.1444976774,0.0079466817,0.2273675312,-1.1198279751,0.291879697,-0.11868856,-0.6015705564,-0.0732179164,-0.3990385931,-0.2880195124,-0.5922466771,0.9643692086,0.4955178242,-0.5802112826,-1.3023247321,1.0699833247,-0.0614789205,-0.3437460241,-0.2755333737,-2.8851132899,-0.2848505192,-1.7454593344,0.3365053479,-5.9877821821,0.4779080012,-4.1969845949,-0.4642302529,-0.7929525408,-0.0999124933,-0.8884374967,-0.7421044597,0.1857709248,-0.2358719904,-0.594353378,-0.0088262199,-0.1534478608,-0.0551840007,-0.0682921158,-0.535981211,0.5647535254,-0.1460633788,1.4027782019,-0.0232623926,0.6881072747,-0.160121209,-0.1339386952,0.6398195893,-0.5067940302,0.4182240493,-0.1130557384,1.130666646,0.8255844528,0.2838699574,-0.9057557173,-0.039811824,-0.3074898848,-0.3670525125,1.0530368029,0.0200982463,1.0789282578,0.6667462332,1.6727671659,-0.4080121503,1.4852676769,0.3201601364,0.8865802477,0.6834838523,-0.2882637397,0.3659476495,-0.6686626628,-0.2652203009,0.7574192216,-0.3163147608,0.0350458883,0.3124406059,0.5838922063,1.1752755365,0.6904985435,0.824709699,0.7813524775,-0.8123412467,-0.2767946969,0.6036978663,0.9369536847,-2.3657705739,-0.1782632054,-2.2358654687,0.5843590273,-1.7829850145,-0.5303598393,-0.5369711234,-0.0656430104,-0.2335359918,-0.3907223894,-0.6126661798,-1.6970785642,0.2453722481,0.0088681587,0.5700544025,-2.5224703444,-0.8471682731,-1.1444068117,0.2755963798,-1.0005182143,1.0985852412,-5.3043788671,1.1470207368,-0.7615710301,-0.1808923176,-0.3734769308,0.4679325971,-0.9140743995,-0.0153112135,-0.802092774,0.0274063078,-0.5432802213,-0.8579408692,-0.8873334986,-0.5232992046,-0.8164255659,0.4350308599,-0.6781675275,0.0188957957,1.0683875223,0.7504589712,0.1555487794,0.7174947662,0.791501548,-0.1199716153,0.2273469392,1.186224658,0.0705921027,0.6983404381,1.054614617,-0.4768752787,1.6536851623,0.1116452849,-0.1932305381,0.0663180166,0.0564445676,-0.1592448965,0.7660595235,0.3473985029,0.9680566705,0.592936561,-0.3768060631,0.3093733342,-0.0138379029,0.1480558711,-0.58058669,0.0733519961,-0.7707802678,-0.9767927638,-0.1353050707,0.3084099779,0.0907434594,0.5604740442,-0.5526584979,0.4574010703,-0.2596323799,0.0150079061,-0.8584815316,0.5120528988,0.5804077645,-0.5480140774,0.0104034139,-0.8623661158,0.7151830548,-0.2117301682,0.6276948589,0.8929061681,-0.448726061,-0.3770429781,-0.276269577,0.1149972784,0.5492344793,-0.0461498588,-0.2570244127,0.0846924889,-0.1545145128,0.2818852799,-1.1827098796,1.0829557026,0.8750244997,0.7970105274,-2.7197725332,-0.2281608868,-1.2427515237,0.5533542554,0.2629361532,-1.0321907414,-0.946928768,0.2710101609,0.6451282094,0.9801745051,-0.2388303366,-1.2109398442,-0.3755844864,-0.2373831079,-4.3324421777,-1.1702088222,0.7484996583,0.7342644158,-0.7312752702,0.1006091266,-0.4502423275,0.8022491725,-0.0253062908,0.1070970854,0.7642465,-0.2746139542,-0.4582625746,-0.359937634,0.7692968589,-1.022720962,0.858911316,0.8362957233,-2.2931118329,0.5300963779,-0.5490734805,-3.2239035785,-0.4496826704,1.5324136515,0.169627282,1.783313855,0.1584141079,13.3252448614,0.1151327344,-0.3195002217,-0.2032764004,-1.4161469336,0.3311747718,3.6853480776,-0.2321415825,1.7463444871,-1.015450263,0.4532682386,0.6717815088,0.7251822629,0.3617890311,-58.7597888095,-2.9166885588,-31.1965981528,-0.785474337,-9.4351577094,11.3326323083,3.1020313413,-3.0572267195,0.8945453617,-3.0189888884,-0.7692572853,0.3803569094,0.4468841122,-0.4846268724,-0.0163154536,1.9689833274,0.2306514202,10.2786228367,-1.219184611,5.6394320209,0.1616426967,10.6562718075,0.8698428929,0.1731611381,1.2118693327,0.2051580401,0.3561912239,0.6870874178,0.1869506538,0.6200739501,3.007783869,0.2468725916,6.9487466055,0.2655501144,5.6298793684,-1.0697861837,3.5667621957,0.3088093202,-0.0836803698,0.0378431701,10.5938663955,-1.1108231773,1.4021738612,-0.5280506856,1.0100468372,-0.6335196259,-0.5374871858,-1.0550564696,0.8946642654,-1.2067971477,0.4890720907,-5.6355587575,-0.5636137584,-0.2448092508,0.9483268308,-0.5923829265,-0.5575010128,-2.3036446201,0.6873497646,-0.52177493,-0.6935433669,-2.3520682918,-2.1702239136,0.3924521074,-1.7769104904,-0.3683262361,-1.5350391358,-1.8715949656,0.6040288018,-0.6066346808,-1.0758975048,-4.2732318736,-1.7382217179,0.4341538974,-2.4306906273,1.2154449825,-0.2003166966,-0.5174866083,-0.3651228134,0.9707537821,-0.4860967514,-0.7126635111,-0.7902091156,0.4400482784,-1.0445941966,-1.0514416503,-1.096195557,-0.1125390955,-0.5781568656,-0.2465559446,-0.7071007081,-0.5280253142,0.7276096655,-0.3153199524,-0.2485963023,-2.5617279949,-0.0842876058,-2.1053779761,0.5880474011,-3.5682902241,-0.3146207954,0.7073431994,0.6612575267,0.0925603603,0.1819514367,0.0198356271,-0.2458412081,0.1776681801,-0.7125395328,0.3211870157,1.0405979307,-0.4509871217,-0.5755175931,-0.7705492746,-0.3360145866,0.2423001066,2.2198115966,-0.1054585986,-0.8501324063,1.0162346514,-0.247296113,0.5925992124,0.9585962291,-0.8450687838,0.121853487,1.2256252475,0.5211188531,0.8419441094,0.1008527799,-0.4985770876,-0.1407136963,0.3793853246,0.535704206,0.7930749691,-0.5387019179,-0.9497789934,-1.4296728479,-1.3856563405,-0.3781020458,-0.9040686255,-0.8519261246,-0.5346342533,-0.7051630036,-0.3738675567,-0.2733050283,-0.8524324451,0.0092368438,0.1775387455,-0.1580752569,0.5935992277
   0.3609873438,0.7610106402,-15.8201212959,-0.7331576852,-16.3733078674,-0.1922440434,-0.7750510824,-0.8952689133,0.8652793385,-1.674634265,-0.8942662852,-0.1355050808,-0.6845431448,0.5026580096,-0.0678499366,-0.4338415499,0.550104237,-0.1812968256,0.5214589064,1.2345366311,0.3655314268,-1.2719920403,-0.1920123612,-0.5842593037,-0.4084376803,-1.5553680721,0.3477365386,1.004378717,-0.476388162,0.6094144371,0.5896402683,-0.4810807053,1.1657657237,-0.5906012439,0.2522357201,-0.8262054166,0.6533679115,0.3139209855,-0.6108694756,-0.2278515095,-0.1087263565,0.5246033026,0.0136411156,-0.2385497492,0.5139716116,0.0724517476,0.3553190641,-0.100019368,0.1660640329,0.9966753672,-0.4464385604,-0.7635287457,0.8097031748,0.4912726549,-0.9318273325,0.8407844065,0.1475319542,0.3813323706,-0.4787453023,-0.047031559,0.3956439119,-0.9945456937,-0.6258317048,0.6639852917,-0.6714648187,0.0498266839,0.4047627133,0.730865922,-0.7736281988,0.5069362905,-0.5502511743,0.0074964595,0.8707456643,-0.0355864362,-0.1473964839,0.0765755632,-0.0490453886,0.2754160245,-0.0323384399,0.3639975061,-0.0925743752,0.5220112234,-0.0552092088,1.4256884414,-0.5592408036,-0.2682874036,-0.8343727362,-0.1134303735,3.9469599648,-0.302331259,3.069353866,1.4669167802,3.6475242629,1.2536410292,0.0508697103,0.5292550262,-8.9649722647,-4.2370161107,1.4619833179,0.6134612444,0.7281217088,-0.708553192,-3.793130198,-0.0588990111,-0.7425589624,-0.8094957068,-5.1263281118,-0.4972513986,0.3574446954,0.2809782604,0.5196042947,-3.556686805,-0.2388572043,0.3936753461,0.4661267572,-0.4439079933,-2.0974646591,-0.0859371267,0.3428440464,-0.7201795062,-5.3803884487,3.0117186664,-0.7480911957,1.0918675524,-0.2759823903,-2.2428127831,1.5497102104,-1.6327737937,-0.0749239044,-0.0785385858,3.2235619087,-0.6678285283,0.3358160564,1.0140299384,1.0144777064,-0.4600566243,-0.6784519378,-4.1671397708,-0.4415194315,0.4889796399,0.8608751578,23.2449475435,-48.1961920547,21.8502770114,0.1182583018,21.6712940626,0.5494524549,2.3873077717,-3.7669577534,0.1478354197,-0.1304082761,11.9813243397,-8.8173191745,-2.2762906428,0.4857028752,-3.267524439,-2.0798188572,-19.914685601,-0.2831451181,0.7664774762,0.3559207644,-1.4612646463,0.3238921654,0.2061088332,-0.0529765894,0.1998201079,-1.9668883707,0.5874180684,-16.4106990914,0.0255170634,-6.113747199,0.7813372412,-3.9766946378,0.4294420437,-0.3836939029,0.1229428524,0.7262231045,0.0289169987,-0.7544780636,0.4777717396,0.0046740932,-0.3567797594,-0.5699702513,-1.6744085865,1.1169651695,-0.4433933748,-1.2465876352,-0.2981425097,-1.217642006,0.8556804568,0.0707143504,0.9621352112,0.2600912681,0.4970174866,0.8833171263,0.0340874485,-0.415270156,1.120754195,1.6609569141,-0.0349135257,5.0560657915,0.8452605682,0.4697768321,-0.7049042142,0.2481269574,0.168319682,1.0598573982,0.6297132909,-0.7570815096,-0.7673359412,1.0162679235,0.0838816407,0.3137545008,1.2256046606,0.3020305053,2.5736275257,-0.8044529025,0.3855797268,0.0898030018,0.8882401641,-0.096341576,0.0085347401,0.5963069303,-1.5583924298,-0.4676869121,-0.0332871505,0.528093968,-1.802983189,1.1543190257,-0.7075704207,0.7969111758,1.1230548086,0.8888077012,0.3749217139,0.0308232013,-0.5481001761,-2.7358662647,0.7523954408,-1.5618171483,-0.7417030994,0.2188247282,1.2813442329,0.293715962,0.3258311809,0.104012853,-0.0779232341,0.2173750442,0.647521957,0.0380554296,-0.3839765402,-0.510219039,0.7141519005,0.5818447584,-0.768986092,-0.7939108527,-0.9916868643,-0.2987922573,-0.7663313764,-2.1819324215,-0.5279718206,-1.9145098592,-1.0167036862,-1.3060783308,0.2120275448,-0.378791425,-0.1678145247,-0.35223383,-0.7531365293,-3.3224631462,-0.0269673672,-0.0493276136,-0.3182444002,-0.873354804,-4.9308237736,-0.6995900731,-1.7001706321,1.8229834354,0.3548346369,7.7675326826,0.1727670733,8.5464672611,0.9216796395,15.1805215367,-0.5329459016,-0.4511964393,1.1866546775,-0.4904457195,1.3254955735,0.7709629294,-0.0159375225,0.3201438832,-0.6148860777,-0.8146928613,-1.3306835118,0.555371906,-1.9840773912,0.8690682225,-1.3162789721,0.7103460943,-0.5096558099,1.7432428218,-1.0533105395,-0.118423469,-1.157140974,0.418691822,0.5021757269,-0.6076651445,-0.1505703021,0.8377519819,0.811756728,0.1431851762,0.3805948103,1.4732183686,0.8266007828,-0.0368922457,-0.6902923436,0.6612685905,4.9454217729,-0.08553207,0.7477471392,0.5152740114,0.9764461134,6.5811821296,0.7131558705,-0.0269126115,0.4922366998,0.7350039671,-1.5908930197,-0.2332633856,0.9239760666,0.119357777,1.0501849103,0.6978888242,0.3146527721,-0.1089025621,0.0982103534,0.5808059778,1.3892255634,1.1279711178,-0.6900983744,0.4875100499,-0.5027838491,-0.2482593969,0.4186846483,-0.3184234686,-0.5312843223,0.4613281791,-0.9694941301,0.8193020507,-0.2547100142,0.8538692997,-0.0818139179,0.3000439258,0.0259077024,0.2329135578,-0.5883894931,0.071308585,-0.8170937883,0.8508434059,-0.5589892841,-0.0621237053,1.0046980857,0.3330071945,0.6045488834,0.61399853,0.4108162725,0.4527315379,-0.9384937376,0.5575958418,0.8702671377,0.7496988674,-0.6467880966,-0.3358517873,-0.5859143727,0.3323035456,0.8079205554
##end
biasActivation=0,1,1
[BASIC:ACTIVATION]
"ActivationLinear"
"ActivationLinear"
"ActivationLinear"
